encog,BasicNetwork,java,3.4.0,1,1597497548940
[BASIC]
[BASIC:PARAMS]
[BASIC:NETWORK]
beginTraining=0
connectionLimit=0
contextTargetOffset=0,0,0
contextTargetSize=0,0,0
endTraining=2
hasContext=f
inputCount=350
layerCounts=235,144,351
layerFeedCounts=235,143,350
layerContextCount=0,0,0
layerIndex=0,235,379
output=0.0000415333,0.0000000008,0.00007327,0.0001026335,0.0000000012,0.0000000372,0.0000063063,0.0000000107,0.0000005037,0.0000002339,0.0000005942,0.0000001619,0.0000584441,0.0000004429,0.0000000001,0.0000000891,0.0000318313,0.0002507773,0.0000000136,0,0.0003525132,0.0000073915,0.0000001539,0.0001129247,0.0000005125,0.0000000094,0.0000059687,0.0000001776,0.0095498717,0,0.0145523212,0.0008427749,0.0000020305,0.0000000002,0.0000000012,0.0000080327,0.0000000003,0.0000000537,0.0002632959,0.0000000336,0.0000015579,0.0000033054,0.0000000827,0.0000000188,0.0000005433,0.0000012333,0.0000219092,0.0000005121,0.0000000002,0.0000000801,0.0000000345,0.0000000901,0.000866181,0.0000164366,0.0000000403,0.0000083162,0.0051247433,0.000000122,0.0007979317,0.0000000002,0.0000000003,0.0000000078,0.0000064157,0,0.0000000002,0.000004592,0.0000000349,0.0000006382,0.0000000207,0.0000000829,0.0000317024,0.0000009723,0.0000000259,0.0003846005,0.0000000002,0.000000003,0.0000005175,0.0000658587,0.0000028984,0.0000003402,0.000020182,0.0000000459,0.0000000091,0.0000000132,0.0000038305,0.0000000031,0.0000000055,0.0000000518,0.0000045082,0.0000001503,0.0000551437,0.0000074489,0.0000483897,0.0000055897,0.0000002955,0.0000080851,0.0000037677,0.0072723725,0.0003059544,0.0001292132,0.0004167989,0.0000130651,0.0000000776,0.0000069122,0.0000000218,0.0000035229,0.0000000026,0.0000000201,0.0000016096,0.0006072916,0.0004357678,0.0000009106,0.0000000052,0.0113346016,0.0000000031,0.0085805809,0.0000070162,0.0000000001,0.0000000319,0.0000586006,0.000000171,0.0000018622,0.0000255985,0.0021538313,0.0000001308,0.0000105129,0.0000007497,0.0000002199,0.0000132316,0.0000001148,0.0000018985,0.0001378029,0.0000000478,0.0000079736,0,0.0000062834,0.0000000083,0.0000000006,0.0003505208,0.0003950421,0.0000000158,0.0000000869,0.0000017735,0.0000030414,0.0001101311,0.0000000027,0.0013585958,0,0,0.0000000046,0.000000001,0.0000063637,0.0000001766,0.0273794272,0.0000594711,0.0000000003,0.0000085326,0.0000003695,0.000000002,0.0000022908,0.0000004723,0.0000015798,0.000000052,0.000000014,0.0000005101,0.0000000103,0.0000005846,0.0000000077,0.0000000003,0.6603605693,0.0036528401,0.0000001265,0.0000004934,0.0000009923,0.0000000022,0.0009032655,0.0000000245,0.0036284317,0.0000461287,0.0000020233,0.0000036484,0.0000003753,0.0000000017,0.0000030883,0.0007294891,0.0000001019,0.0001433197,0.0000078654,0.0000052963,0.0000000041,0.0001911243,0.0000000228,0.0000000013,0.0000458959,0.0000000001,0.0120482288,0.0000013759,0.0000000138,0.0006369447,0.000000026,0.0000016746,0.0000062221,0.0000000497,0.0000000002,0.0000004021,0.0001549928,0.0000000008,0,0.0000314239,0.0028864257,0.0000002093,0.2175857697,0.0000998821,0.0000171032,0.0000000806,0.0000015105,0.0000002096,0.0000549276,0.0000000002,0,0.0000000045,0.0000000519,0.0000000003,0.0000002471,0.0000002591,0.0000005134,0.0001549467,0.0000000297,0.0003292012,0.0007298613,0.0000760659,0.000312069,0.0000000532,0.000165866,0.0000000026,-0.4325285362,-0.5330357801,-0.7226883548,-0.6663092384,-0.6134694483,0.854551124,0.4973154808,-0.9419450065,0.4792986226,-0.8217180532,0.5629375783,-0.9654796243,-0.3946822575,0.0065485234,-0.9735960203,-0.7804914812,-0.6717127986,0.6159764812,-0.8660515367,-0.5538594246,-0.2792500058,0.5951017173,-0.7630123726,0.1706120034,0.9896602634,0.8637506795,-0.945937697,0.2140557109,-0.8650974079,-0.8286168569,-0.1346326572,-0.8016306056,0.8332861687,-0.9054483172,-0.30494864,0.9654873875,-0.946354362,0.0493845131,0.9748099496,-0.99583092,-0.6732654733,0.6741420821,0.110173934,-0.9985754211,0.941286156,-0.9137347294,-0.8801088841,-0.9653655537,-0.3742282292,-0.6560692711,-0.8858680846,0.6930062121,0.3344739227,0.7546773395,-0.5675550063,-0.3857678613,-0.0316287723,-0.9678499453,-0.6165382236,-0.4741875664,-0.9784163226,0.7712137708,0.4777158743,0.5321723293,0.2846478298,0.8122436256,-0.8848662048,-0.3570814587,0.1268064763,0.1919228757,-0.5101024413,-0.612492795,-0.4384447541,0.2708477074,-0.3442685814,0.7184032466,-0.9842272207,-0.9564523366,-0.9537230937,-0.1563636894,-0.9559183342,-0.9297693952,-0.6014173415,0.7394422607,0.9841452738,0.903642102,-0.6841420163,0.6666056702,-0.9770872837,0.9171244281,0.9906666158,0.1784495661,0.4786156673,-0.7658919653,-0.3838705127,0.5706537225,0.3954036604,0.9599538046,0.7619354774,0.4077381046,-0.992893091,0.734947131,-0.3683825987,0.933687576,-0.9786337537,-0.8018731322,-0.2782503389,-0.7105223278,-0.8166941667,-0.2746934382,-0.9557482077,-0.9286218806,-0.0495334846,-0.9883590613,0.3440958852,-0.9041775841,0.1144880386,0.9360687619,0.9833838436,-0.8262554874,-0.5795298584,-0.3376829013,-0.2285519449,-0.7681267183,0.9556423254,0.9975832818,0.652895687,-0.5413697099,0.8434521795,-0.8982985995,-0.2121029237,0.9212942184,-0.4053487719,0.2470120227,-0.8959414333,-0.3086498998,-0.9834729525,0.6478128904,0.4450700201,0.9832943069,0.9956963704,0.8491241667,-0.1022298984,1,0.105,0,0,0,0,0.053,0.053,0,0,0.053,0.053,0,0,0,0,0,0,0.053,0,0,0.053,0,0.421,0.263,0.158,0.211,0.421,0.526,0.158,0.158,0.842,0.158,0.316,0.211,0.316,0.737,1,0.053,0.368,0.158,0.579,0.211,0.053,0.158,0.158,0,0,0,0,0.211,0.105,0.105,0.053,0.105,0.053,0,0,0,0,0,0,0,0.053,0,0,0.211,0,0,0,0,0.105,0.158,0,0,0,0.105,0,0.053,0,0.053,0,0,0,0,0.105,0,0,0,0,0.053,0.053,0.105,0,0,0,0.842,0,0.105,0.105,0.053,0.053,0.158,0.053,0,0.105,0.105,0.105,0,0,0,0,0.053,0,0,0,0,0,0,0,0,0,0,0,0,0,0,0,0,0,0,0,0,0,0.105,0,0,0,0,0,0.053,0,0,0.105,0,0.053,0,0,0,0,0,0.053,0,0,0.053,0,0.053,0,0,0,0,0,0.105,0.158,0.053,0.158,0,0.053,0,0.053,0.211,0.105,0.158,0.158,0,0,0.105,0,0.053,0,0,0.053,0,0.053,0.053,0,0.105,0.053,0,0,0.053,0.053,0,0,0,0,0,0.105,0,0.053,0.053,0,0,0,0.053,0,0,0,0,0,0,0,0,0.053,0,0.105,0,0,0.105,0,0,0,0.105,0.053,0,0,0,0.105,0,0.105,0,0,0,0,0,0,0,0,0,0,0,0.053,0,0,0,0,0.053,0,0,0,0,0,0,0,0,0,0.158,0.053,0,0,0.105,0.158,0.053,0.053,0,0,0,0,0,0,0.053,0,0,0.053,0,0,0,0,0,0,0,0,0,0.105,0.105,0,0.053,0,0,0,0,0,0,0,0,0,0,0,0,0,0,0,0,0,0,0,0,0,0.053,0,0,0,0,0,0,0.053,0,0,0,0.053,0,0,0,0,0,0,0.263,0,0,0.053,0,0,0,0.105,0.105,0,0,0,0,0.053,0,0,0,0,0,0.158,0,0,0,0,0,1
outputCount=235
weightIndex=0,33840,84033
weights=##0
##double#84033
   -0.3206931966,0.7389635549,-0.4906496016,-0.6762139191,-0.6594459936,0.4237896198,-0.0375999103,0.6973915008,0.8019502156,0.349214302,0.2033546486,-0.9048491666,0.6226170649,0.7502698892,0.068806895,-0.1593441943,0.6178806245,0.499171814,-0.4750314964,-0.655772507,-0.5305371002,-0.8192320031,0.1948942937,-0.8810497202,0.2872434383,0.4620424663,-0.2556535094,-0.2152925272,0.8705745705,-0.9430500139,-0.8477020669,-0.1193978779,0.8794924325,0.8317060766,0.0678734591,1.1770624401,0.7428066397,-0.3475251839,-0.4689449536,0.385236151,0.6597766085,-0.1027393567,1.1693317528,-0.5987689765,-0.133268511,-0.1517655126,1.0736159246,1.0835007352,-0.427425856,0.3056820421,0.8010819671,-0.8057140559,0.1407281114,-0.1249572027,-0.8963843702,-0.6334535402,-0.7566973097,-0.4271193857,1.2586662621,-0.9313240407,-0.7301223388,-0.1441487974,-0.0349544006,1.5059752279,-0.5820745531,-0.118510525,0.8643650074,-1.1353719677,-0.4702416182,0.0138169783,0.2758940939,-0.6686123765,0.7069211429,1.1628012112,0.0447047219,0.5834390124,-0.2792351834,-0.1333783463,0.6734489908,0.8112165314,-1.3755620457,-0.2539784663,0.4090725693,0.770008121,1.034677872,-0.4022067278,0.6938835378,0.317708225,0.8445074597,0.7128797152,-0.2211451987,-0.2199408817,-0.1644743927,-0.5045367559,-0.8578606742,-0.9351811635,0.6863278791,-0.3337203903,0.1420772716,-0.4074412694,0.4729998078,-0.4387251633,0.7501885551,0.212211803,-0.0214833657,-0.8557526536,-0.1098440025,-1.2121456401,1.0960371181,0.3810116903,-0.8079564591,-0.3306991567,-0.7879514035,0.5181525214,-0.4871432116,0.9776415446,-0.6228034049,-0.4498891328,-0.654498974,-0.6829908675,-0.2465574277,0.0122351269,0.7675950823,0.326338669,-0.3081475676,0.2559682325,0.7345013152,-0.1243575578,-0.2279986363,0.8468041189,-0.5939205918,0.9233978671,-0.938995551,-0.4745131928,0.6951790716,0.2281041962,-0.7870528566,-0.4087935908,0.6828264533,-0.1176420372,0.2320282343,0.8971091427,-0.8216024159,-0.6583286313,-0.3369570107,0.0557141505,-0.4793788321,0.7131997588,0.1164582641,-0.7732302148,0.1903262313,-0.9808878666,-0.7828244238,2.4820243321,-0.639959024,-0.3110286372,0.9263886943,-0.6690936208,0.7681663012,-0.2689337786,-1.6372603706,0.5471591811,0.2267059205,0.1077424115,0.7006603221,-0.7147758494,-0.7259944816,0.8565296609,-0.0500400985,0.7291062402,-0.2669589644,0.4195717451,-0.5212721659,-0.7243771992,0.5470988853,2.1052974666,0.5606251951,-0.1143070724,0.2196421052,0.902585272,0.9660620946,-0.3684590332,0.8006814816,-1.9182079872,-0.6800827135,-0.4844842795,0.6478530472,0.4801790009,0.4642997558,1.0170788745,-0.2402408407,0.4413036979,0.0905210521,-0.3595407688,-0.1291446825,-0.0725869138,-0.8640930269,-0.3900916649,1.439787031,-0.4978346975,-1.0037237259,-0.0660226928,-0.0092357803,-0.194401286,-0.4854692719,0.7571843348,-0.6629028424,0.4783415381,-0.6458438574,-0.6898648092,-0.0851907828,1.0717319148,-0.7770122541,0.0079934001,0.5295022236,0.2522360765,0.6599889549,0.2757506423,0.3974007091,0.1146160831,0.4696488667,0.5077524907,-0.1226203021,-0.4334989931,-0.1864482975,-1.2330153019,-0.0423432073,-0.7325419651,0.8671615153,0.7842376008,0.0548972322,1.1315597571,0.7770674052,0.6795161949,-0.4641162222,-0.8381231181,-0.521790639,1.1433454134,-0.023793108,-0.6353512235,-0.7172545918,-1.21950271,-0.2215766278,-0.1848632902,0.215264404,0.1372868376,0.9140009696,0.3324665966,0.7885767068,0.2193898349,0.6110317302,0.8921653935,0.1253891327,0.5051907972,-0.2191389567,0.7011797319,0.0484571469,0.4010230119,0.0199147779,0.9586750352,-0.1566138126,-0.461226856,0.0142707543,0.4958442921,1.1991810339,0.030993643,-0.651708134,-0.063734997,-0.3245777223,-0.1563724778,0.31073113,-0.8786451016,0.9976492179,-0.4719489416,-0.1606865357,-0.4309734386,0.7838341496,-1.0380588247,0.4702617029,0.9891176332,-0.4206807044,-0.8640879601,0.1758449837,0.2735809089,-0.8532794128,0.0421381864,0.8488284011,0.3437798853,-0.765526546,1.2566105523,0.2602145359,-0.2317063545,-0.3344418332,0.0366125034,-0.2089832758,0.5492165092,0.5088460249,0.1042611867,-0.6631769063,0.4010113978,0.9565660316,0.7221258036,-0.1563028396,-0.1427379367,-0.808267542,0.2303395959,-0.3003100373,-1.2769426806,-0.9728993595,0.4831559471,0.0130618732,0.2925179391,0.020398755,0.1582381416,0.5754041246,-0.747510073,0.285769677,0.064591058,0.7883665748,0.0314346121,0.2647167822,1.0098936428,0.1983450906,0.6738772112,0.6905551761,-0.2589823263,1.0190723072,0.2521914331,0.0060132387,0.3234024059,1.0892697706,-0.1736973752,-0.9077942661,0.5876951801,0.7501410908,-0.7159686222,0.6458876171,-0.1405621664,-1.0495621519,0.9259804677,0.8838283478,-0.1818192986,0.271923256,-0.1814462164,0.64458977,-0.7258638424,-0.1007805575,0.4404955157,-0.140522528,0.0360039914,1.0148644877,0.4536888321,-0.119755188,0.2337540185,0.9819548203,0.3333989418,-1.0680612,-0.6358947428,0.4536196518,-0.4937783396,-0.8556623904,0.1613568662,-0.6346208593,-0.6911808473,-0.6411215037,-1.5232489974,0.9234782873,-0.1497090254,-1.2020830563,0.5180315186,-0.3288817528,0.6539865581,-0.5641074884,0.2007365362,-0.7190729125,-0.2249670409,0.1752341333,-1.1149930279,-0.3159355203,-0.4982716718,-0.9095466533,-1.0451978077,-0.1137271287,0.1616693043,0.7633857038,0.1244754647,0.2756661165,0.3613083845,-0.7884594772,-0.5440636436,0.5414040421,0.1136746491,-0.4440745441,0.8809218385,-0.8323335576,0.4689309379,0.012100703,0.7050932729,-0.4918887389,0.8005516446,0.2790305535,0.1016829106,-0.2628484138,-0.0794857822,-1.0146010944,-0.3812672964,-0.7279954783,-0.2433273954,-0.693837014,0.8023222274,0.4414664376,1.5025215171,0.367734495,0.1574109891,-0.4419817634,0.2280126298,-0.2163702906,-0.7154419654,-0.4810435014,-0.5577967695,-0.2701193825,0.4204186988,-0.4512536381,-0.4897031218,-0.7848695816,0.6576040853,0.2441795509,0.2252145671,0.3331206118,-0.2303705521,-0.0424527239,0.0467847253,-0.8443272756,-0.2140265798,0.2545305593,0.6688663549,-0.732409522,-0.4085114303,0.2096620699,0.3256710014,0.8127517027,-0.340125399,-0.5858940282,0.2828628553,0.9483174751,0.1736206007,0.0840521656,1.1276185213,-0.5600125495,0.7883037025,-0.3198053415,-0.0059118055,0.8516584221,-0.3387343031,-0.9321123771,0.0656606538,0.7102439205,-0.7224961522,0.1639733817,-0.6630732004,0.4994650562,-0.0288350372,-0.106978709,-0.2673532821,-0.0194838495,0.6614805409,0.1563290222,0.4438916179,0.0725323868,-0.371163021,0.2458289328,-0.6318058307,0.2036427801,-0.4989950158,0.5020319179,0.5762210618,0.8112015925,1.6117182458,0.3313618033,-0.9315828253,0.1494934818,-0.3843669437,-0.8412360568,-0.684339852,-0.7858250175,-0.0108221917,-0.9589335771,-0.6115505454,0.8717303516,-0.8407368323,-0.1713788997,-0.2705938855,0.4658204379,0.4447724914,-0.7123699818,0.4748518606,-0.3571391761,0.5518809274,-0.4852744037,0.1822335811,0.2184794444,-0.1237299867,0.3148263547,0.1666926868,-0.1300905184,0.3439607214,-0.8193496001,-0.1351954493,0.2740944055,-0.9384512964,0.2632730917,0.9286587439,0.2881135643,0.1516156358,-0.1825503784,0.4391061057,0.4093290077,0.4891305355,-1.0328692845,-0.3015354246,-0.8936627794,0.4443169401,-0.8807664188,0.123991199,-0.0022553261,-0.0732758584,0.1830111739,0.1052917452,-0.4174405013,-0.9999628392,-0.4786085091,0.2178422137,-0.2233832011,-0.8594376841,-0.4496143821,0.6722158662,0.4008025767,0.0048716972,0.1360018182,0.9226743332,-0.7140563529,-1.0352790718,-0.4063628336,-0.8616409131,-0.3007087845,0.0506779529,-0.1802387113,0.2669768488,-1.2471087488,0.1151036419,0.0472462571,-0.4945224708,0.2179628636,-0.501685226,-0.2885105588,0.0010525404,-0.3388115741,0.3927202295,0.5040046902,-0.2140255595,-0.4829430689,0.2870064075,0.7943675886,-0.4063422371,-0.1995229149,-0.5396095323,-0.0436373721,-0.626859623,-0.2150515896,-0.1707757784,0.3385510257,0.1010655219,-0.5617549613,0.1763403645,-0.7328215197,0.1026899264,-0.5531122597,0.3676928393,-0.3429983467,-1.0330185848,-0.4810588659,0.2118503748,0.2887430615,0.6140320409,-1.0093914916,-0.0740776657,-0.4744354388,-0.2076704477,1.9586327816,0.380891059,0.8715494688,0.5404008716,0.4332366149,0.703259467,0.0192185595,1.080384832,0.4879280153,1.0213597003,-0.351407345,-0.3519869086,1.0429172586,-0.7804082172,-0.6233977122,-1.0506758049,-0.7829306598,-0.0385336985,-0.249520346,0.788316234,0.4110324357,-0.3086424075,-0.0035888101,0.3988264307,0.1057144293,0.6961013885,-1.2503516447,0.0237104538,1.4921266334,-0.4978372186,1.1599551736,0.7381926225,-0.3303622483,1.2260246276,0.2241169369,-0.3774122328,0.104850671,0.6951335861,0.0423021049,-0.520238403,-0.3403278596,0.4416616374,-0.5834230987,0.4806595539,0.645671983,-0.1168062542,0.1476633796,-0.4901795925,-0.678960183,-0.9718350175,-0.0328703202,-0.2510832404,-0.0643565824,-0.3860328966,-0.2710082053,0.8053007267,0.389082471,0.9965810825,-1.4648514367,-0.167163793,1.1507392766,-0.3853344463,0.4108845391,-0.8101277006,-0.7388239212,-0.0388565604,0.5984548891,-0.5156313013,-1.0628425157,-0.4101750979,-0.5947464814,0.2784230599,-0.8067815637,0.3865025528,-0.5986319088,-0.6145825001,0.4679303425,0.2545947913,-0.6662029505,0.0798266131,-0.2464432402,-0.769499347,0.7475778232,0.8435486185,-0.6332302388,0.2031274743,-0.5916168136,-0.7544244433,0.9253700944,0.1694324326,-0.7845543425,0.235138809,0.5583061864,-0.4858331525,0.8765162363,0.1687018408,0.6703947678,0.6273366301,0.1370166672,0.8220606267,-0.287751485,-0.122714274,-0.2543559044,0.1495395607,1.0266911613,0.8143349776,0.5044979814,0.4384865476,-0.5328262196,-0.6635974149,0.8228084591,-0.3976983763,-0.860674919,0.1191245984,-0.0624326118,0.0169295514,0.1590591681,0.6639029941,0.0338995723,0.6788611114,0.1873091063,1.2892649925,-0.4852469578,1.0132982846,-0.1324162402,-0.5997180202,-0.7100194541,-0.4948268662,-2.4716842205,-0.0804505774,-0.9496450749,0.9595749075,-0.4769682128,-0.3076741562,0.1831762567,0.0744800164,0.7060488968,0.8768065526,-0.600062732,-0.6422605523,0.1607875694,0.2046313523,0.6566434998,-0.3006812662,-0.6811856669,-0.4310752859,-0.1795765984,0.0599154798,0.9002535777,-0.7651463777,0.1069457958,-0.1384479155,0.2087781229,-0.6146642884,0.9220534997,0.6717964071,-0.5423423428,-0.4305646983,0.5651616826,0.4648049592,-0.504080998,0.7199429079,-0.7292774953,0.703797791,-0.2017794118,-0.4036296409,0.2478601861,0.2528065467,0.5227531319,0.330727252,0.2921409831,-0.3498952881,-0.557298313,-1.7122278023,-0.6558280959,0.7257639779,-0.2476534031,0.2834625845,0.450198857,0.3143745167,-0.3549633258,-0.551138203,-0.4527706219,-0.9244797746,-0.3769214522,0.309944481,-0.6136777772,0.9386827709,0.598247463,0.3116046449,0.8922000091,-0.0425269383,-0.3519908878,0.3627012765,-1.0203199856,0.3789147589,0.5986613679,-0.7569652933,-0.1276937137,0.0128345918,-0.5921695834,0.6619558619,-0.6452431166,-0.9631381372,-0.4729385911,0.310109887,-1.0450978496,-0.7934329061,-0.7555404611,-1.2222696747,-0.1886729062,0.9275209154,-0.9083244559,0.168338566,2.2567746104,-0.8950370619,0.4651001006,0.1850194126,0.2568366875,-0.8873734591,0.262418514,-0.6645924216,0.7269109881,0.6286201884,-0.477698098,0.1512102042,-0.2237715247,0.8305175346,-0.6873965907,0.7787146525,-0.2535151024,0.8478897892,-0.4758496913,0.1788130263,-0.3199605276,0.8053976887,0.5439960078,0.3253586016,-0.9304108629,0.6547050703,-0.0368568346,-0.4077186342,0.8122612112,0.6925378359,-0.0549856558,0.1721871942,-1.0968886457,-0.8348610136,0.9496532931,0.8761796011,-0.2219832777,0.5070106178,0.889800188,0.466326285,0.6212221157,0.1790244376,-0.2264318208,-0.7908912102,0.0991838987,0.5033238713,-0.907164397,-0.0576394613,-0.955879059,0.3397423395,-0.380306539,0.7587998694,-0.3261293381,-0.5635052248,0.1581648052,0.4629378236,-0.0536816842,-0.1870790874,0.5387136532,0.2030843468,0.3007103135,-0.6323653147,0.1617041806,-0.1657478445,0.5663334821,-0.1087490538,-0.6442340407,0.5310304405,-0.0357794142,0.7627588287,0.1687765263,-0.0893959234,0.5473260156,0.7107865876,-0.8241179837,-0.812895293,0.5144583041,0.1437463747,-0.0434055568,0.236412868,0.4046653151,-0.4183378825,0.8354122765,0.0309389658,0.1023666734,-0.8299472683,0.0020454038,0.2373956298,0.3960484121,0.8141908986,-0.2891085688,0.5135156853,0.1038091414,-0.7624438809,0.0142104933,-0.960310823,0.513028098,-0.2965531626,0.3857146206,0.4910517438,-0.9345695653,0.5727970425,0.0316019748,0.096449924,0.6321105392,0.4975536945,0.5670225545,-0.8202566181,0.4887193276,-0.2451502844,0.850303847,-0.3294556647,0.6919136223,-0.6858494923,0.6293104956,-0.0892070459,-0.0487705555,-0.681805465,0.687290289,-0.4962607361,-1.0337694281,-0.0886903689,0.9519260172,-0.0691143431,-0.8248193419,0.2132978226,0.2661963461,0.5469635945,-0.6938344857,0.4962610035,-0.4380794106,-0.828818181,0.3639044955,0.2455664889,0.7427162108,0.0392691753,0.887414326,0.5369638897,0.2710584869,1.0643112398,0.2548300688,-0.7806706231,0.244175259,-0.8175797024,-0.8442315271,0.1278195492,-0.8622515162,-0.2872444506,0.2240282562,-0.1571516547,0.6733932564,0.4181696839,0.8098683716,0.8019461998,-0.8181864105,0.0890631912,0.3565901092,0.0203989942,0.7218002222,-0.4961025714,0.5172595233,0.8422032105,-0.4809027564,0.9849858823,-0.5502446134,0.871531808,0.8848104299,0.5040704935,-0.5318922527,0.071580872,-0.0026885077,0.7798756779,-0.3599361385,0.5287276093,0.0865495645,-0.9160501765,-0.2163027283,-0.4005322223,0.4271551691,-0.1795370222,-0.7461128145,-0.4410327635,0.8250593088,0.9516734338,0.3013760381,-0.6749212781,0.9711698716,0.6217429479,0.513064347,1.3469245059,0.2470628504,-0.2031443418,0.4417206756,0.4150433978,0.1521707482,0.1816068505,0.4089351963,0.9946110901,-0.8695770874,-0.5948902387,0.1184485095,0.1037303611,0.0754142243,0.5061000761,-0.9497767005,0.2363973737,-0.1085368136,-0.5772551952,0.2254672441,0.1039370074,0.7432352926,-0.3296736072,0.7223630216,-0.2527658264,-0.3932327343,-0.9017914678,-0.0882558687,0.7096634048,0.3135490982,0.1233438492,-0.7011633361,1.236226235,0.6804826107,0.8566527314,-0.1815627149,0.4605250326,0.3705533535,0.2422111851,-0.7171830693,-0.2192231455,0.7686622731,-0.6413510185,-0.133527917,-0.085208142,0.9369499006,-1.6282867196,0.5307002047,-0.5566052307,-0.8984866545,-0.7948767446,0.4713247398,0.5900979417,-0.3399888249,0.0533917795,0.3547542562,0.6460217085,0.9043410145,-0.3810095217,-0.6221278879,-0.7227752061,-0.0626403757,-0.1644783038,1.2688649957,-0.6499581968,0.4348140461,-0.3552754221,0.939577684,-0.2166289052,-0.2758429055,0.1690572939,-0.5892472564,-0.0301700853,-0.2854688825,-0.9678925477,0.177384208,1.020178173,0.1033882437,0.4023250021,0.1083162239,0.1455954864,0.5917991548,-0.8851320946,0.7320165361,1.2839912572,0.8817792073,0.1018925548,-1.0206909711,0.2946112342,-0.3402695101,-0.3553668349,-0.661108426,0.4216644198,0.6019912245,-0.1307816734,1.1276871291,0.1534625979,0.7666361003,0.5329940746,-0.4856005568,-0.0640002453,0.1242471259,-0.3240736207,-0.4977273035,1.0074188737,0.8624044399,-0.9208654927,0.7462397654,-0.0026071583,0.910700392,-0.8183603101,-0.0954203313,-0.498160107,0.8336971009,0.8181768556,-0.0084744393,0.4138358847,-0.4709458024,-0.5110176291,0.7839307563,0.3181236133,0.5466577803,-0.2648398078,-0.0067059282,-0.7571579063,0.3983590954,-0.4129653007,0.8251914162,0.8772830729,0.4132649385,0.6472482009,0.0947493079,-0.2140778392,-0.3075525238,0.2269825434,-0.515798722,-0.7814947041,-0.5030168783,-0.4599657351,-0.6928633411,0.1908379966,0.1259787538,-0.8790403572,-0.8460840955,0.881052846,0.2213819255,-0.6551581826,0.8518626582,-0.7151055792,0.671426006,0.1947429278,0.6758232845,0.6938043672,0.8560730962,-0.7465432964,-0.7583175386,0.1924796016,0.7895397719,-0.4896211838,0.4576077836,-0.5573182416,0.6045407309,0.9661760632,-0.6674495601,-0.5233036138,0.0939034068,-0.8885358796,-0.2546979824,-0.140062958,0.8989413114,-0.6000485916,-0.6956154927,-0.9107764653,-0.9291383755,-0.052337219,0.9357729809,0.2848081898,-0.6041447184,-0.8369228007,0.310062259,0.6353051998,-0.5564547573,-0.5291576029,0.6899268237,0.3746735803,0.6829023593,-0.3752055292,0.592906406,0.1206361686,0.7632905745,0.4849473157,-0.2261730094,0.1364308608,0.9896445194,-0.3357124089,0.6430837014,0.4436130089,0.098671145,0.8616185708,0.465208135,0.531945404,-0.5971119221,-0.9884951613,0.6961331874,0.2103136407,0.8970062214,0.3748000984,0.7828678126,-0.4070704387,0.2080725718,-0.4656862518,-0.9979638916,0.6975379418,1.139526606,0.0368634356,0.9015683702,-0.1714669518,-0.2741793084,-0.5827098234,1.2067840873,0.7183653527,0.3154315178,-0.2317012146,0.4706070356,0.4229884047,-0.9831218167,0.2218576858,1.1131470555,0.4268447018,-0.0608712186,0.7440350096,1.1562157433,0.721759805,0.3111190313,-0.9598911078,-0.664311917,0.7767490601,-0.3976399542,0.9564879106,-0.3945990461,-0.0258612336,-0.490238963,0.442197053,0.8497349977,0.2487998523,0.2051504119,-0.2123812296,-0.367787107,-0.1483600775,-0.377723874,0.0670463725,0.6484265552,-0.8510566325,-0.1892013427,0.738400763,0.2371188988,0.6010342451,-0.5860911458,-0.9411984084,-0.1031881791,0.3714715063,0.2817387815,0.8001615401,0.972989024,-0.0491357158,0.9406262874,-0.8823860077,0.0294269314,0.0849160718,-0.9932869748,0.6511978989,0.4618937674,-0.7938317943,1.0638332409,-0.6189930656,-0.1634877698,-0.6006902526,-1.400385439,0.0098661777,0.0359417349,0.2476349286,-0.8287222148,0.1131638744,0.4806421674,0.5707211218,-0.5478756159,0.5441260455,0.121370806,0.0015591872,0.8743607929,1.0839671451,-0.6511322541,-0.0783044527,-0.3124497018,0.0842518566,-0.2662397318,0.8693923002,-0.6885601914,0.6708738464,-0.1662939966,-0.593249254,-0.214426501,-0.0513141207,-0.3258733937,-0.1260880831,-0.195743743,-0.4653670742,-0.4811834746,0.3355394732,-0.7831131926,0.4473718168,-0.4781627749,0.1167455448,0.0302963501,-0.225537587,-0.9848562889,0.0706032025,-1.1342492971,-0.7441155443,0.739037527,0.0838531584,-0.0764910353,-0.4923233892,0.8189118957,-0.3591423484,0.7826460471,0.0463844327,0.7283264774,-0.7795713825,0.9663598817,0.38802045,0.6403602848,-0.1529841002,-0.5996900955,-0.7070088696,0.5268316433,-0.7776003487,-0.1067660266,-0.4697031847,-0.8079601717,-1.6461693633,0.6763146395,-0.1858024197,-0.3992189318,-0.3455269443,0.3271334413,-0.1339192825,0.6593917647,1.1451091082,0.9840048473,-0.433302404,-0.3185758198,0.7417070484,-0.8962578537,0.1964032462,0.3414905135,0.4178053066,0.1373287203,-0.5229751889,0.7801375524,0.4992862912,0.412084527,-0.5307472054,-0.8003490036,-0.7383538583,-0.5409755212,-0.1967778613,-0.0817696728,-0.7135232614,-0.1659740376,0.3059154418,0.0805529709,0.4017703104,-0.9003075574,0.9286101674,-1.353477723,0.5836260954,-1.0768772488,0.1346901294,0.2165091995,-0.0370646149,0.4932884726,0.8924402745,0.1730065772,-0.3465019497,-0.150187055,-0.874988501,-0.6319820441,0.8881675923,-0.7411230889,0.9298514124,-0.9903112255,0.9932208466,0.8686106302,0.3181484152,0.1925874294,-0.6035501421,-1.1065102879,0.7063208042,-0.2476211555,-0.6671517447,0.7005524143,0.6004215597,0.6633954224,0.1704387721,0.6543423867,-0.1287663228,0.7235107048,0.9118932702,0.4194562509,-0.5163210896,-0.2577742455,0.7193807963,0.6075373564,0.1165298082,0.6221128484,0.7482945721,-0.9537603395,-1.1858888384,0.8233926298,-1.5554953348,0.0717928583,-0.5590160213,0.195946733,-0.14552415,0.6273738155,0.4204276995,0.5206564761,0.2600574004,-0.0697129934,0.9619861739,0.6551361535,0.5620070809,-0.345283477,1.2186730588,0.2685959105,0.3298430675,-0.5115250643,-0.5550469956,1.2882171702,0.6287561449,0.776701063,-0.1005075213,0.9685084305,-0.9672369316,-0.4346782034,-0.3336210482,-1.1186622927,-0.4185216378,0.9460196352,0.5295918147,-0.2692431772,-0.7582818469,-0.8976528791,0.0698371847,-0.8754730541,0.8231403814,0.4827582561,0.4822191629,0.0531506051,-0.868569513,0.2502906437,-0.6541560221,-0.8043121647,-0.0193421536,0.0397042521,0.4545494088,0.4909670985,-0.3724311061,-0.3412228031,-0.4004307127,-0.8396597032,0.5917594381,0.5324563977,-0.5383475705,0.502872965,0.0804114705,0.4368774631,-0.3102648413,-0.2220893685,-0.2401489334,-0.8717721308,-0.565758854,-0.7529126056,0.7015640743,0.4669202533,-0.5637770278,-0.1898971802,0.2648760587,-0.3043455872,0.7528903577,0.5930049063,-0.6755868255,0.4804819189,-0.0603915536,-2.9738335278,1.2253936677,0.1971683496,0.3752254924,0.2087368435,-0.4565535991,-0.4073326807,1.7678545235,-0.8019307035,-0.7923525124,0.6898515933,0.0521722417,-0.1392869498,0.8117060826,-0.0014410062,0.1211846768,-0.5365417017,0.5810345476,-0.5345481653,0.3027695695,0.8185369593,-0.2218909691,0.243590052,0.4317565353,0.0027518875,2.5951228721,0.8093692508,0.8222367398,0.6292276121,-1.5020446401,0.617651234,0.8025261825,0.6925506333,0.2234054766,0.7604467065,-0.4490887769,0.1325876823,0.72659984,0.6984196584,-0.4249587946,0.6487066311,-0.3218670718,-0.4540323381,0.1887405905,0.9617727979,0.0527605129,0.4470485139,-0.3038287897,1.0322727402,-0.6942185445,-1.2329948428,0.9875777704,-0.9375699881,0.7327488067,0.9350853415,-0.9130973768,-0.454142857,0.0303924775,-0.1727481866,-0.5698487505,-0.5371549392,-0.6771243578,0.7960780502,0.9971386147,-0.5707445815,0.5147485974,-0.5752457084,0.7387757364,-0.8434034407,0.1285916475,-0.3244876113,-0.6121421266,0.8566140898,-0.6285189373,0.8251095708,0.5582330594,-0.4061529722,1.2828743649,0.7460547799,-0.4642512809,0.4293336945,0.7561059147,0.7467365237,0.7040181191,0.8841030179,0.7697587927,-0.6795508307,-0.2240723706,0.5939904019,0.3677299027,-0.1327129305,0.8923464805,-0.0100130405,-0.1568754919,-0.4376462171,-0.7985617221,-0.9087655034,0.6134151064,0.6976235032,0.8965401889,-0.5047562856,-0.6596279962,0.850529137,-0.6591921945,-0.2006611447,-0.3246508635,0.8667586719,-0.2488065054,-0.7135771223,-0.3133727679,-0.5978664321,0.436049319,0.8700410606,-0.0166276945,-0.2940878378,-0.6955952384,0.6515928464,0.0318376402,0.0131837427,-0.092639998,0.4860738184,-0.8311063671,-0.5032847631,-0.4774535013,0.9356749,0.1103531501,0.2902642631,0.6791732875,0.468038344,-0.9423477737,-0.377842445,-0.6242013147,-0.2362635904,0.5490106043,0.4777271891,0.3161146411,-0.2546843616,-0.2453550936,-0.0632767287,0.3430372244,0.3529346096,-0.8463666424,0.6481490425,-0.2245568581,0.1518096352,-0.7801505739,-0.8672025572,-0.3207281986,-0.8116485473,0.9699440675,-0.0004511765,-0.1804610477,0.4420416534,0.0726617801,0.9024882084,-0.2560948828,-0.2544999086,-0.0388868026,0.9739158996,-0.9687033644,-0.4358770262,-0.4378288686,0.2154724453,-0.9793928958,-0.6349553341,0.3496148738,-0.7301848361,0.6148828301,-0.7436329736,-0.9543927422,0.1620114728,0.449780808,-0.1918005464,0.2036479056,-0.7669731932,1.310420505,0.2066363971,-0.2852112357,0.3962918461,0.401542221,0.1402200977,0.8394984083,-0.6670518565,-0.5305695618,-0.6835042506,0.833852658,-0.827404168,0.0811838234,0.206215914,-0.7752367691,0.7580640538,-0.0795964845,0.3575932275,0.5095332407,0.6673892209,-0.3037448869,-0.6351165163,0.8623875991,0.7005704937,0.9305443886,-0.9931572031,-0.23270532,0.4668086089,0.8453345574,-0.5391588579,0.4177028206,0.5337395406,-0.9152837574,0.4392991424,0.8497939821,0.587110654,0.6897309339,0.9942852321,-0.9538738737,-0.560726446,0.1611424419,0.1292752704,-0.3590497831,0.7423554562,0.8292437651,0.1741381374,0.5403770391,0.2657364651,0.4403735819,-0.4125299706,1.275508578,0.4125755541,1.1370339885,0.0520538755,-0.3119802915,-0.4169875746,-0.6278689699,-0.7053589578,0.1257892423,0.0799750118,-0.875335521,0.5005552205,0.1096148798,0.8533714667,0.9517052437,0.3880542695,-0.9698326997,-0.3496998937,-0.4703073634,0.4136113659,0.0998507887,-0.4003314633,-0.9016012892,0.2901774884,0.1870434194,0.6261795425,-0.7328676489,0.310275568,-0.2779039421,-0.7850247273,0.5558879431,0.5284704999,0.7481234894,-0.1239551255,0.7763218254,0.5510730109,-0.6126672364,-0.0496625645,-0.1348292715,-0.7120491082,0.343989202,-0.1885199318,-0.4856918973,-0.5791392242,-0.4018445638,0.7247457792,0.1489193996,0.0309322461,0.5442154329,0.6022156793,-0.1310695783,0.8158210466,-0.0158826216,0.6903528129,0.2146897817,-0.4830147374,0.2143883658,-0.1026842716,0.8854038449,-0.8593089721,0.7955302028,-0.2443122501,0.0685978193,0.5873313074,0.1315111481,-0.3573219117,-1.0113621325,-0.7237478792,0.5926665458,-0.6190037787,0.1153536552,-0.2429323071,0.7639055927,-0.5343456517,-0.0538533483,-0.6591012336,0.0790392249,0.4312700883,0.9193812355,0.5857203779,-0.3488259133,-0.407270498,0.4015978281,0.4219488956,0.3518058787,0.5205069461,-0.866213931,-0.1776328299,0.071915019,-0.9974873254,-0.1534447666,0.929445966,0.0234183925,-0.6260667114,0.4133418698,-0.1777969522,0.9083790385,-0.0664793696,-1.1850091744,0.4078057557,-0.8810278224,-0.9358528227,0.2509113061,0.4446278942,0.5983713643,-0.4866510009,0.2939780393,-0.2508661476,0.5012817236,0.2191289039,-0.666769911,0.7623637773,-0.9407665906,0.1061814641,-0.3058344574,-0.7127143996,0.0296730721,-0.643575577,-0.2742498064,-0.4017565033,0.7127935992,-0.7524413732,0.5031974572,0.4586734294,0.3144543639,0.3285978764,0.6982849006,-0.339412698,-0.0795679718,0.0540619566,-1.0525358576,0.038692671,-0.1885006061,0.7159227802,-0.6587715497,-0.0518171565,-0.7557109732,0.0859237267,-0.5293275217,0.7203976079,-0.0436715411,-0.0642998416,-0.7861048921,0.7185863488,0.5787358945,0.2908745879,-0.4939219339,0.5002152548,0.7134146797,-0.6353752733,0.4462251339,0.4296689913,-0.2821628658,-0.0855958335,-0.3300674237,-0.6757712822,0.8535632269,1.0357432877,-0.592546644,1.4127371959,-0.2277222522,0.3441273982,1.1434304615,0.1965112319,-0.7442037871,-0.5728173133,0.083315423,-0.8566562589,-0.0793954624,-0.6042293435,-0.601076978,-0.0150355879,0.3463315243,0.2814427631,0.8685262701,0.4450019508,-0.8804863494,-0.0353822868,0.972469031,0.6179381603,-0.2879274031,0.4044246344,-0.2845379958,-0.8017632902,0.2403255419,-0.8728753948,0.3997814629,0.818684884,0.2892678514,-0.5923405875,1.0050868266,-0.8576456889,-0.9675906387,-0.1561245805,0.9294409412,1.0302010216,-0.5882139643,-0.0345207039,-0.4426239647,-0.6590559783,0.2183637902,0.0479007484,0.592966068,-0.9569520545,0.7332962892,0.2805599915,-0.1115680833,0.9248975065,-1.5989212964,0.1203713206,-0.7610207041,0.6652516141,-0.4506226239,0.1028482135,-0.8794031745,0.4688934764,-1.0233594077,-0.0931269466,0.1208159659,0.8151952665,-0.934775456,-0.6469287735,0.6502689035,-0.4794970632,0.5161407793,0.6498842109,0.801667376,0.1944877276,0.1303289806,0.1241559404,0.5847696508,0.3256299599,0.849763638,-0.3573333159,0.2260551454,-0.4853273002,0.9153251026,0.4495769691,0.0588677899,0.7658193718,0.8357214618,-0.7437474896,0.8699765445,-0.4559107186,0.4941044845,-0.8510360699,-0.5404911281,1.0646334149,-0.3223311153,-0.4460974063,0.8640346277,0.8659130834,0.2272271036,-0.0744248958,-1.0309669774,1.593442122,0.3411390779,0.1907128699,0.2273508928,0.5905033258,-0.6979188216,-0.8612282446,-0.7189893831,0.4767948983,-0.6912355486,0.4795839254,-0.4931943007,-0.0499986715,0.3989594148,-0.5361356979,-1.3495534073,-0.3266775861,-0.0359550944,-0.7074537107,0.4824203757,-0.270674587,0.3319053489,-0.6879221271,0.3376265195,0.2945753691,0.1886242379,-0.4233559949,0.6104318013,0.5098129224,-0.2451305605,0.6352533414,-2.1074417172,-0.2730455162,0.8116238938,0.3993693129,-0.3110798581,-0.5358347034,0.8818389179,-0.7282704379,-0.1216477898,0.3490493274,0.6076750437,0.5493526265,-1.1056047653,-1.023993801,0.0771761979,0.5398888914,0.7305796448,0.1327747866,0.6960171625,0.4621056676,-0.0033861444,0.28733997,-0.1985281623,-0.3703889594,-0.0166835812,-0.2777304448,0.5347950037,-1.3150783682,0.9461349187,-0.5138696793,-0.8369835577,-0.3002650333,0.6430841203,0.4251361989,-0.9826430562,0.6460081376,0.1250948841,0.5212216883,-0.7739790403,-0.6967284806,-0.0725479866,-0.3238430441,-0.555382174,0.3307480139,0.2162246531,-0.0714182191,0.1401705185,0.9235937499,0.1829629046,-0.7635137652,0.413579807
   0.0683000123,0.8042949532,0.0991682957,-0.462213518,0.7955990959,0.4308906892,-0.1378921364,0.2363551895,0.170078299,0.6149345716,-0.6956216973,-0.1021935483,0.9074456099,0.2975742836,-0.0695831014,-0.0566851614,-0.3431386425,0.040179649,0.1451111234,-0.0755744162,0.5583105625,-0.6806975788,0.3734497369,0.1751140533,-0.5974440051,-0.1134930956,0.9535522227,-0.516736879,0.2385006545,-0.8974921395,0.0959643279,0.8208257402,-0.3627101631,-0.2548653181,-0.7356946931,-1.6925631285,0.9511310659,0.4833159295,0.3070735489,0.5300715232,2.2359125946,0.7567005005,0.6053750851,-0.9450537915,0.8012136732,-0.1156480636,0.3547501,0.1413450041,0.9786147346,-0.8410589673,-0.1315614218,-0.3539270246,-0.7210826596,-0.2887355692,-0.1761432752,-0.5318596362,0.0393433585,0.3614432651,0.1303077914,-0.3498148232,0.4930506135,0.5852905575,1.7120855562,-0.6554976455,0.4266787596,0.4545933189,-0.9877186321,-0.1042298818,-0.1943601063,-0.9828079412,-0.9125851436,0.5499536564,-0.2853504681,-0.1446693872,-0.9868650409,0.5592074547,-0.4684276134,-0.8788876405,-0.0926448039,-0.952822651,0.7778036943,0.2933552492,-0.8876968966,0.5532460653,0.6686948433,0.0077341067,-0.9966354604,-0.3644631399,0.1166285665,-0.386940313,0.1887190279,-0.4807957273,-0.7168511326,-0.4874855857,0.9343178543,-0.1276222756,0.0806993211,0.8685969279,-0.2660127782,0.6673502414,0.0227449273,-0.4861459274,-0.7841259141,0.6925981963,0.9644144603,-0.6629974162,-0.360554422,-0.050374538,-0.0639411621,-0.3360615184,0.1646762295,0.1264733923,0.7739632186,0.1366329594,0.8095189768,0.8168308695,0.7827802885,-0.086743895,-0.08924354,0.0174779954,0.529422596,-0.9490158478,-0.0539325428,-0.1770726043,0.3611057159,0.6598040366,0.7995454874,-0.5258284762,0.9001074704,-0.2309209498,-0.6313736157,-0.1142455599,-0.0375334206,-0.2349174487,-0.9697691536,-0.4879001016,0.3338195121,-0.8231441897,-1.4553069949,-0.4255585961,0.5927493375,-0.0882045516,-1.1008173797,-1.108820997,0.3034654665,0.2509363055,0.4356659731,0.0895612092,0.8399374541,0.1863178918,-0.3237752241,-0.4133833481,-0.3196766278,-0.1068144479,-0.6083536415,0.272664114,0.306178626,0.0336113465,-0.2414543325,0.1334991577,0.659539412,0.3189814639,0.1360961783,0.5256869706,-0.3815169725,-0.2915955641,-0.8913780043,-0.0181090575,-0.9484169717,-0.5546937037,-0.194897849,-0.8285418911,0.0091508243,-0.0238430922,0.0157800626,0.1924572355,0.1324238755,-0.0031927469,-0.6568318309,-0.7392035478,0.0975011983,-0.1827599028,0.594456274,0.0700455815,0.7232339894,-1.2735941198,-0.1966309876,-0.5238284217,-0.309944907,0.2003739151,0.7327021115,0.4781385517,0.195704905,1.185485333,-0.3881104514,0.8435503155,0.6456175274,-0.2839396199,0.077997183,-0.6584357536,0.7725085189,-0.5218642339,-0.2102468208,0.4686332774,-0.5732047404,-0.9085377905,-1.0380242105,-0.7369793438,-0.6224011175,0.882548953,0.2347957711,0.5952798984,-0.382413112,0.9577152386,-0.3346769048,-0.3531946269,0.7773559736,-1.7775682084,0.3499691989,0.0041224771,0.500637553,0.2175145085,0.2074733605,-0.163616363,-0.1755832954,0.9611691808,-0.8527207732,1.3511961992,-0.6786683519,0.7310318265,-0.0299019129,-0.1550494857,0.5081772255,0.1014818875,0.4501436826,0.3484930678,0.2195909773,-0.0803649352,-0.214086316,0.1405975888,-0.1839376526,0.9425289956,0.5734837204,-0.5851292723,0.5013571935,-0.0372323159,0.0237200051,-0.4437114004,-0.8386917189,-0.4053042507,0.8274642651,-0.1399898258,-0.4910759794,0.1873998376,0.8055004154,-0.0582190667,-0.843735231,0.0520819883,0.9363767453,-0.2364699318,0.9431658029,-0.8943594619,0.9186197333,0.6125364846,0.896601067,-0.2996586178,0.5795924606,-0.0455995762,-0.1671537461,-0.810569352,-0.2437380178,-0.5988396495,-0.3142582653,0.1015422304,0.4164731322,0.2649904004,-0.7487381094,0.562188227,-0.9486307924,-0.6053404388,0.738328962,-0.0811493401,-0.5872646577,-0.8840363738,-0.3253603339,-0.4458273486,-0.0588079738,0.3444141912,0.9765741307,-0.718217517,-0.8324646869,0.3223154231,-0.4285461675,0.6426761478,0.5500042562,0.4939418808,-0.2881272432,-0.9811495074,-1.0283322455,0.6170717284,-0.3599469269,0.3346177313,-0.5434190292,-0.5448393535,0.2096141968,-0.0656106622,-0.869109244,-0.5422089048,-0.7877947473,0.3698961884,1.5137644772,0.6786407523,-0.0884243205,-0.6164059209,-0.4104697051,-0.8510484561,-0.1318375877,-1.0218368261,0.7450044818,-0.5647863293,-0.2644640122,-0.5862167638,0.3794653757,0.9406330449,-0.75416818,-0.8139926538,0.1180774516,0.4503711604,0.4175384984,0.0636405382,0.7996784499,-0.2783843309,-0.3921809644,-0.8549402234,0.4080014016,-0.130229949,-0.3896086847,-0.171106974,0.6827695095,-0.7621885236,0.9519655281,0.254104981,-0.0450072868,-0.3500951191,0.3425446757,-0.1156390109,0.2678374616,-0.577866528,-0.7296438662,0.2818081728,0.105519958,-0.1070463111,0.871302175,-1.1310103546,0.7519072947,0.1241578981,-0.5633261907,0.2818740353,0.5950236674,-0.1620389133,-0.1215140963,-1.394494705,0.9771382426,0.0122088108,-0.1185719375,0.2723976137,-0.670968421,-0.2308557073,0.1387580672,0.5610379682,-0.1495999807,0.6631237529,0.5430410135,-0.1086210043,0.5986454785,0.9473573071,0.1375680618,0.4551183324,0.767792195,-0.1259587738,-0.7467682552,0.3206144724,0.9275247175,-0.4519283209,0.1998529385,0.7467765123,-0.6881861906,-0.5445745676,-0.0774104906,-0.5124205063,0.0708265906,-0.3552437262,0.5864466619,-0.3590620826,0.724753559,-0.1925767069,0.2153588947,0.1631311954,-0.7628392667,0.4857744033,0.5440858871,-0.1437224919,0.2329990141,0.0778800892,0.4363387192,0.4739660421,-0.141880383,-0.061501705,0.4448780191,-0.2426394821,0.234530945,-0.9616900099,-0.0184786526,1.1180666342,0.0939583546,0.0258515867,0.0294493905,-0.2696598775,0.2921025454,0.3185528803,-0.3964206622,0.2479149681,0.4380726745,0.8471830614,-0.9229929268,1.06549837,0.5859216703,-1.0237377212,-0.825457197,-0.536439579,0.9380887933,0.7415180868,0.3052492536,0.3710851856,-1.6005469895,0.1989652162,0.59662588,-0.3317415884,0.2328411958,-0.3953741772,-0.1688058647,-0.1092932505,-0.1803267642,-1.0195078966,-0.307932992,-0.4549050073,0.0454129978,0.336052387,-0.3159117319,-0.3829204105,-0.8569334248,0.3480493495,-0.6040343324,0.4470048719,-0.1731769496,0.515761056,-0.0689419052,0.3617383869,0.6159114096,0.3080339852,0.1230743266,0.6889358062,-0.9705560863,-0.2934766204,-0.0699682523,0.1487867175,-1.2522956948,-0.6837907361,0.194552585,-0.4360514669,-0.5309273685,-0.5442642935,0.6468277407,-1.1953015474,0.3313688126,-0.9162082048,-0.1858802854,-0.7707779537,-0.9973186693,-0.7541941683,-0.4669964369,0.3335471767,0.8049322319,-0.0966590026,0.1018301486,0.1493578651,0.2309463331,0.8020617764,0.8453449895,-0.1409541579,-0.6637722871,0.1599360726,0.816830156,0.4027781198,-0.7568700425,-0.6573042657,-0.8171701293,-0.9407575263,0.545981032,-0.7178487823,-0.9055197492,-0.6405591719,-0.8217974512,0.8564240894,-0.8286071828,-0.8512240579,0.1838259432,-0.1945479789,0.3651731147,0.5892331015,-0.2449886394,0.2631260858,-0.0425197168,0.0802251351,0.8599286807,0.381543,0.793371323,0.07431277,-0.8538012157,-0.6239260018,0.0041245363,-0.0621751096,0.2605061087,-0.2728610509,0.3060570582,0.6402899376,0.9266065101,0.3836915056,0.9223449953,0.2228371444,-0.8818069177,-0.3361278947,0.8598159151,-0.1703691557,-0.1423029506,0.5810357072,-0.259137719,-0.0287606142,1.1802487582,-1.0428288516,-0.29931265,-0.5685483575,0.0839582911,-0.6717115375,0.2898023578,0.0239945758,0.8782925096,0.2944971976,0.1657334531,0.2193658807,-0.9182362308,-0.3115840468,0.6144935228,1.5885603401,-0.3646902845,-0.7622822309,-0.5916854765,-0.6749785843,-0.3035462227,-0.7001194943,0.5776857562,0.1574096042,-1.4589332158,-0.3803376007,-0.1275710947,0.0057585557,-0.1147492603,0.9013749667,0.8923857712,-0.0320922274,-2.4719519274,-0.4670488604,0.8544333694,-0.0560811614,-0.1980725256,-0.4874293123,-0.7367286028,0.7625912889,-0.5144341749,0.8629011565,-0.8159435216,-0.3803407927,-0.0925543434,-0.633580043,0.8724956504,-0.2446453709,0.1485075829,-0.930277537,0.7966390647,-0.955764825,0.0998514422,0.4983346492,0.9195898138,2.3817578779,0.8237592943,-0.367099665,-0.3825218731,-0.9778478189,0.061868344,0.3829827262,0.8713992263,0.8074708825,1.1838662651,0.406483944,0.2676192411,-0.349099432,-0.1614507167,-0.8256560349,-0.7975986051,-0.7530724017,0.4809343224,-0.3217808427,-0.6436200392,0.9630725564,-0.7205128428,0.5731975308,-0.9948881844,-0.9872830862,-0.632574147,0.3905478726,0.476103719,-0.7452051187,0.5761444593,0.963724167,-0.0341698375,-0.3448758309,-0.2577723452,0.4450187289,-0.6829621052,0.1348660468,0.172298466,-0.114998442,1.6733322282,-0.2819331931,-0.5348803432,0.4243264745,0.3799588266,0.2617420057,-0.3402288292,0.1532775632,0.2177951467,-1.446730005,0.8246201064,-0.5899276995,1.352339366,0.4599050298,0.8262671923,0.4899831812,0.6407480405,-0.8201616256,-0.051471655,0.333325207,-0.3063822597,0.2725668703,-2.6333818555,0.5292385554,1.8916837609,0.6810207977,-0.9443283994,-0.4190189137,-0.4557959053,-0.3956561898,-0.3393280278,-1.0797165162,-0.5210026369,-0.1145337457,-0.4951400925,0.7389779263,0.5662240054,-1.3228162087,-0.4764800129,-0.1567003974,-1.4594883321,-0.3995865925,0.2364915332,0.5712935748,0.2231639642,-0.4936153192,0.8070098044,-0.3858190298,0.8231599175,0.9181257013,0.9311948601,-0.0421453017,-0.4585573839,0.7913358842,0.6677542277,0.3316178354,-0.2416287319,-0.2950698038,0.8985754757,-0.1989851357,0.6219555511,-0.3689009256,-0.7556364368,0.8340203345,0.2986153016,0.6435070594,-0.8128210399,0.0505358084,-1.0515140708,0.506511857,0.3777488324,1.1464717404,0.9029763022,0.1755892076,0.2732024443,0.0926958505,-0.1578959362,1.1636365739,0.0149253784,0.8711375387,-0.0102870964,-0.9093505788,0.046574368,-0.4274605992,0.8515360918,0.3620372647,0.9125400037,-0.017436445,0.2336469884,-0.0514878276,-0.4392845561,-0.7169341471,-1.0883294109,0.4306094495,0.098969418,0.9185981313,0.7344230307,-0.4602379509,1.1931963187,0.513018726,-0.4600148131,0.6645761463,0.0041945822,0.3880047511,-0.246670397,0.3226131222,0.7164037475,0.2626941743,-0.8731930604,-0.1674616339,0.4899907333,0.0621703976,0.4561577797,-0.8244141019,0.3334970086,-0.1350201052,-0.6415189391,-0.8637225888,-0.2851036758,0.9340946586,-0.7841878424,0.9761852141,0.8924425647,0.4307005974,0.2577737715,0.7842530125,0.5597354554,0.8354309563,-0.333436607,-0.8883709237,-0.1980929468,-0.271572386,-0.7425472219,1.9503027039,-0.3659408947,0.1565409022,-0.2268499772,0.0248145998,-0.7611285211,0.1462647609,0.6276919708,-0.8083673727,0.2922117033,-0.1683599283,0.8108340382,0.0868021041,0.2379425229,-0.1165623337,0.188768387,0.1946123674,0.0238269337,-0.1801247342,-0.1020685996,-0.6462879054,-1.2558380028,0.7054028947,0.3115049956,-0.1623983287,-0.2618761905,-0.6640262225,0.4378065631,0.1519262921,-0.128696674,0.5455261599,-0.7833493362,0.2687924314,-0.0901169615,-0.8602259791,0.4996105425,-0.2292423956,0.7769009038,-0.4135147081,0.4576746366,0.7637413036,0.7423132636,-0.6178454975,0.2315170427,0.6348755842,0.2170651127,-0.0030140377,-0.7420771129,0.3263333167,0.4912306182,0.1262391124,0.067961328,1.1498418314,-0.3284101743,-1.1030522511,-0.9759742254,0.8133164751,1.5055558151,-0.2737948112,-0.2739141415,0.7176615233,0.0978369603,-0.674055163,-0.0738459313,0.1405520377,-1.2035419368,-0.0177396213,-0.6434748075,-0.2533026138,-0.7849837173,0.2907944137,-0.3905054246,-0.0903266226,0.8299426776,-1.2613239694,-0.6692534586,-0.8139724874,-0.0144420628,0.501991741,-0.0091347765,0.9065468932,-0.2089376671,-0.2565146346,-0.5938020836,-0.6595638084,-0.6791367879,0.0622309066,0.6480832163,0.9132573574,-0.25935403,-0.4809938713,0.9691404637,0.6115214655,-0.0215417139,0.1797863349,-0.4039319564,-0.5177150116,-0.405613946,-0.3948666395,0.2002977156,-0.0353734875,0.6380949573,-0.3517357443,0.3468572829,1.1669826262,-0.60605921,-0.0145786362,-0.8645418641,0.803906442,-0.2558725699,0.3447077772,0.5591606519,0.4671765131,-0.1979016867,0.2734636549,-0.5535906895,0.5512452849,0.1083213494,0.2786239102,-0.0368765452,0.9611653894,0.4990240273,0.4537641859,-0.5802512467,-0.4731373399,-0.495561552,0.1007306201,0.1076585863,1.1141102764,0.5914273406,0.8107559339,-0.0697793964,0.7526992896,-0.2346453535,-0.2799843383,-0.2783597568,-0.7376303664,-0.2731170467,0.2812425537,0.1918751561,0.1661474588,0.4719438242,0.198112092,0.7116741851,0.5615402514,-0.364935276,0.1431176242,0.5159264191,-0.2019102505,-1.1906046326,-0.0424428196,-1.3096854352,-0.0271045602,-0.6389873752,-0.299448186,0.2051743548,-0.7677803241,0.6188623991,-0.1772288756,-0.4195417993,-0.4448481778,0.0035533524,-0.3178079684,-0.2761761549,0.2315913249,-0.8905923953,0.7007268136,0.5017376933,-0.6321903339,-0.0352906849,0.1497515049,0.1380639774,0.487796994,-0.3896628971,-0.8286853712,0.603686457,-0.6664000916,0.2655470597,0.4175517131,-0.8605400607,0.7945499675,0.7468282197,0.3236658393,0.2100297749,0.9669763558,-0.0991100945,0.5538404969,0.343799808,0.5290502217,0.3043355074,-0.050305629,0.8828800508,-0.1169260086,0.9518768533,-0.0851636978,0.8128826414,0.590577093,0.7404071486,0.0617125494,0.6720497869,0.3903083019,0.7838138501,0.123767342,0.8035176204,-0.7998746489,-0.3984752826,0.1483378428,-0.3810240716,0.7651373492,-0.1033872871,0.6299430298,0.7730562592,-0.8950534656,-0.1745456181,0.76610517,0.8109654247,0.1125064551,0.7996461453,0.0534378722,-0.6886531168,-1.0317773874,0.7200714666,-0.6678668189,0.6832101542,0.6125301989,-1.1714955828,-0.7130561957,-0.1976593598,0.0848612871,0.395199242,0.6455028045,-0.2527195015,-0.2604863843,0.7807858682,0.055411843,-0.8234321726,-0.9129191006,0.3269363877,-0.7102688878,0.2783777396,-0.8048947246,-0.1285682655,-0.5674445194,0.3080836883,-0.4974805641,0.3617705638,-0.4205716172,0.4339585423,0.8955975058,-0.1991047942,-0.1331347746,-0.649843061,0.6494820344,-0.9575102319,-1.0377185293,0.6165028896,0.1615716267,-0.0794664305,0.1676134217,0.8266158194,0.1177907962,0.7119859808,-0.5903253229,0.7576074982,-0.5030476176,-0.0676358354,0.5475456235,-0.4754399827,-0.3907965837,-0.8524623201,0.2962585111,0.5273069485,-0.6370789267,-0.5158745914,0.2535339311,0.9936092844,-0.5112938502,-1.2738153332,0.7576193954,-0.6890786596,0.5674458877,-0.2206253797,-0.4217700186,0.7058927513,-0.7532115895,0.0376969583,0.0290341194,-0.1629025562,-0.033352965,0.1010060288,-0.8574055493,-1.1864570747,-0.2182363652,0.0563722806,-0.2317773598,-0.6893496672,0.8489548012,-0.136567286,-0.2039607556,-0.4559537489,-0.8141039705,0.145449884,-0.0322196928,-0.2819530393,0.4278499997,-0.0100437322,-0.6405439073,0.652388415,0.3444209465,-0.314480446,0.7918612668,-0.4675784796,-0.8143558126,-0.5676885678,0.0715409515,0.2641143198,0.6213471966,-0.3018037906,0.8938763011,-0.533114699,-0.2466077775,0.1957700649,-0.8935702123,-0.3196258699,0.0585528308,0.885401453,0.5433667282,0.7782840209,0.2632770635,0.0338839334,0.4190670957,-0.1404806677,0.846422436,-0.4368040446,0.1243489368,0.2268689911,-0.9404383454,-0.2660261799,0.0458786677,0.1476801879,0.2077377646,-0.8535428618,0.5558296368,-0.9629326901,-1.031669179,0.5074431909,0.5359180771,-0.119828596,-0.6838872883,-0.2877774654,0.3250207818,0.4172322968,0.6749743247,-0.3388337996,-0.8600497437,0.3082602336,0.6611802266,0.8529330954,-0.405839402,0.7320522015,0.3396066939,0.2234980495,-0.4240881673,-0.3991684416,0.0662698876,0.824298393,-0.0017842632,0.1803606985,0.0884800052,-0.0179010472,-0.3248903947,-0.7818350392,-0.7783695256,0.6498155317,-0.2512606067,-0.5873747956,-0.9627468585,0.5802472132,-0.0571868087,-0.7738219345,-0.5531666783,0.3881999448,0.0854877775,0.8550213388,-0.6610910633,0.8166477377,0.806964171,0.2178269273,0.5014924393,-0.5333681449,0.7827859748,-0.0842524499,0.2369621154,0.9464328477,0.388537589,0.3035709123,-0.7934062969,0.5690417485,0.659476104,1.0163937808,0.0978024272,0.7485756603,-0.228052349,-0.8761292496,-0.5537161322,0.3464875126,-1.1192915006,-0.3942415408,-0.8116349111,-0.2132946846,-0.5320278719,-0.6025567255,0.0114454687,-0.5956408012,0.2305631149,-0.8126089715,-0.1525506821,0.3848480843,-1.1224597171,-0.0875876277,-0.4080068057,-0.9690991141,-0.646304184,0.7746286038,0.2578938281,-0.4226047088,0.0685888381,0.8084770411,-0.5759612835,0.9956068628,-0.1553112394,-0.4383021525,0.956247863,-0.9812965885,0.5596039648,-0.634214923,-0.5166138623,-0.8501014742,0.2970014579,-0.2180039667,0.9659981396,-0.0319197988,-0.7640539823,0.1402955323,0.9218987608,-0.7632750491,0.5081438587,-0.9260085914,-0.436160488,-0.2929761519,0.0933309435,-0.5106123617,-0.3714901793,-0.0957035358,-0.0313527882,-0.971119509,-0.9320580052,-0.939410487,-0.1739465294,0.2891430805,0.1739980636,0.45645442,-0.0251937206,-0.0650296275,0.7812221014,-0.4330040898,0.0380808475,0.6766771684,-0.0688162893,0.2845328412,-0.5668199036,-0.2334017885,0.4108870515,0.744919622,0.0152398347,-0.5602830669,0.7187057504,0.1217895207,-1.6124933086,0.6898080535,-0.6721230129,-0.2795842364,1.0460440425,-0.3109020099,0.8776577585,-0.7812719416,-0.97600653,-0.4158455485,1.9415327444,1.2748855252,0.7818437627,0.1565954475,-0.6825983097,-0.7432757145,0.1705535225,-0.8269407903,0.5290332294,-0.5941367772,-0.0982196366,0.0166964944,0.455567166,0.8287748799,-0.2298742849,-0.7721201357,0.0802168561,0.4860252675,-0.0277161291,0.3148274163,-0.0089323274,1.6795438995,1.0298579629,-1.01630915,0.2414059209,-1.6956369947,-0.721205236,0.1949060847,-0.751974473,0.2050446871,-0.1979692706,0.2660590974,0.2124533888,0.1314403544,0.4341938126,-0.3183353615,-0.7529246274,0.286001136,0.3204543797,0.6354681984,-0.4592898517,0.2255294861,0.8022154007,-0.9391656793,-0.6708230269,-1.1155953523,-0.4066189072,-0.9338473254,-0.0320085619,0.6395590497,0.7971801797,0.4581629745,0.6181245461,-0.6827040456,-0.507825723,0.2565422551,0.8931052888,-0.7944069656,0.4436236382,0.8118242502,-0.9388191476,0.4013601128,0.4128259824,0.0324091651,0.0561419904,0.0047786732,-0.5712780119,-0.7127009611,-0.8130003311,0.3716385468,-0.8586923391,1.0208942734,-0.9957900393,-0.0940164076,0.0759648626,0.2345775938,-0.0446797017,0.3949480924,-0.4894795021,0.6892662591,-0.3925535706,0.2804843791,-0.8273520341,0.2539242146,0.8425356418,-0.5960237017,-0.9801843513,1.0291920039,-0.9081838311,0.2490960789,0.7610691704,1.1042609049,-0.6910788325,0.0274053031,-0.0939250128,0.6107775591,0.0127544169,-0.4439418334,-0.8925850518,0.0677612126,0.8908789696,0.481698055,0.0360906059,-1.0176539335,-0.17849274,0.6470255374,0.6436053463,0.0814218544,0.4204661698,-0.2195587107,0.1003126168,-0.4528780972,1.23049232,-0.0920749502,-0.2831487906,0.9770578351,-0.0538412282,0.9523459394,0.4902375207,-0.6903515866,0.0668378786,-0.6381448336,-0.4923133564,0.8781080367,0.5828495161,0.2449665473,-0.6260253433,0.2263547763,0.3656317414,-1.1429996872,-0.7342014486,-0.2685742404,-0.7501565367,-0.7312382173,0.3321743725,-1.3162194004,0.967623846,0.1086792098,-1.2823625777,0.3964578136,-0.314023771,0.2791661115,0.1427668883,0.2909217999,-0.104040158,0.1518103836,0.7794589918,0.3124474871,-0.0103123054,-0.5198169741,-0.3804593018,0.7211938264,0.5799208391,1.1247248351,0.0980335937,0.4502461296,-0.6742962225,-0.945473409,0.7099385348,-0.7934037866,0.2084948587,-0.579991098,-0.2843822371,-1.0861392196,1.5230533779,-0.9080857166,0.5121861216,0.4373611868,-0.0694043081,-0.6821213275,-0.2734915399,0.3464399279,-0.2291001361,-0.8305367963,-0.8704391684,0.930160331,-0.5473560702,0.5652241526,-0.0013244794,-0.7916604759,-0.7810927615,-0.4751560449,0.0253370194,0.1037518143,-0.2061762697,-0.1283398918,-0.6455044575,-0.2585655649,-0.0642409184,0.3074071453,0.0843385999,0.5913219625,-0.9918425809,0.1064350828,-0.789412256,0.8044831352,-0.8774613877,-0.5780619775,0.5363789213,0.7325391602,-0.5380880387,0.926029816,0.6380779251,0.2759321642,-0.5606236216,-0.4002334731,-0.7856470533,0.1832628191,0.745272433,-0.863002469,0.2554172486,0.1810264333,-0.8750980855,-0.495598849,0.8104685981,-0.5417906295,-0.0681459309,0.4639841714,-0.358478463,0.1276107455,-0.0749216426,0.583061517,0.1107860198,0.9173124534,-0.7342701563,0.6259429018,-0.0999216746,0.330450486,0.1390321295,-0.9041679028,0.1392221749,-0.2636087675,0.5717166848,0.8763733385,0.4756739137,0.5898154451,-0.978526516,-0.2826673794,0.9059990364,0.7577659096,-0.0201044661,0.9019432516,-0.0878899498,-0.2386045548,-0.7299103427,0.7159530571,0.3028765496,0.4219597258,0.5575180035,0.783752562,-0.6511648257,0.7965745064,-0.188526933,-0.3741423205,0.2753292869,0.5272860146,0.3466021379,-0.7106541653,0.3243462307,-0.2536401322,0.5012058039,0.3944259104,-0.0079552009,0.1836416309,0.8784897054,0.542846899,0.2186650641,0.5236328435,-0.1378580168,0.8775412841,0.1721352339,0.3145240567,-0.9261117482,0.3812615645,-0.8288905786,-0.0398099933,-0.704943516,-0.6246883243,-0.64666888,0.2611814849,-2.0077025343,0.9657103875,0.1602787886,0.877972082,-0.1525951823,0.7639824327,0.9077278135,0.5710510931,-0.5518672889,-0.2776352105,-0.024238431,-0.0175525165,-0.3660981454,-0.8923295426,0.4551652019,-0.5048071653,0.1151295127,0.3557862253,0.3976429604,-0.4995177598,-0.8485453459,0.683503156,0.4556248711,0.6354023331,0.774421012,0.2565749917,0.4689474425,-0.4658016037,0.4306138651,0.393988313,-0.171977399,-0.0822908264,-0.1497428035,-0.4312289925,0.8070953907,-0.6094659522,0.1307236338,-0.1061032957,-0.542692924,-0.612742948,-0.4382451444,0.5546953303,-0.8140427386,0.0607031866,-0.7216532819,0.6130439513,-0.5421668288,0.6168070223,-0.4199635685,0.3978301309,-0.0563505474,0.3805952421,-0.8425639477,-0.8693188144,-0.1619853974,-0.8178917535,-0.3183606871,0.4787939558,-0.3193447749,-0.028551256,0.9465575945,-0.7663767744,0.735773641,-0.9074578286,0.5447728483,0.6730090205,-0.2422608672,0.0604709592,-0.785244998,-0.7352907263,0.9295166053,-0.2928358753,0.3628471228,-0.8230141808,-0.9124312458,-1.0685515399,-0.5059085724,-0.6186896137,-0.036311241,-0.1345683281,0.8881425751,-0.2823806462,-1.1910311808,-0.7231708676,-1.1005640599,-0.1154332535,0.827764095,0.014587985,-0.6814069446,0.5277587337,0.3273531927,-1.0825725923,0.8509023488,-0.7412075347,-0.3000496761,-0.9280131392,-0.6346732588,0.9188734616,-0.1012730903,-0.7873136777,0.667252831,-0.5471395923,-1.1999354922,-0.8290456631,0.2937770266,-0.1152719264,-0.279754746,-0.539050731,-0.2413450773,-0.4070836574,0.7537291685,0.3739474452,-0.6648723429,0.2072666825,-0.9055697223,-0.8097786303,-0.3806923179,0.4371205466,0.2748326946,-0.5202248291,1.0917939101,-0.3591806545,-0.6180167769,0.667931754,0.7042948258,-0.0582167666,-0.0162517703,0.7398876192,-0.6207291691,0.465121351,0.2736015969,-0.3991789026,-0.0112364991,0.1146077286,-0.2103096919,-0.5935211165,0.5885821972,-0.0727629314,-0.1258457054,0.945800184,0.8148121109,0.3743680636,1.0315985095,-0.9271799208,-0.82006656,0.3127555189,0.7730650523,0.2897420816,0.5960081397,0.0684898498,-0.7804697651,0.1526850675,-0.2583254383,-0.2859723103,0.9279287611,0.8497545311,0.2606686626,1.266119472,-0.8269569774,-0.7870277503,-0.7074643284,-0.0775915952,0.6653252179,-0.7811305599,0.4492251879,-0.1038361239,-0.7456804069,0.0358051007,0.2920770236,-0.0280880587,0.2570103895,-0.5092473228,0.9352320798,0.7125895757,0.500295809,-1.0351980062,0.1222124898,-0.3489844251,0.6172202033,0.0356723978,0.7387421477,0.280002184,-0.0313343223,-1.0415253091,-0.6512835965,0.8076510213,0.3206970921,0.2508611846,0.6387334791,1.0660651748,0.485816469,-0.550334601,0.4398969059,-0.4231142597,0.3501759013,0.1204676877,0.3938839252,0.7295476307,0.7105302406,0.7183984798,-0.7993649598,-0.4971298148,-0.5519720639,0.2020398522,0.92371248,0.9863292573,0.5886905058,0.8227667329,-1.0462027077,1.0601252388,-0.041998106,0.1126590506,0.2165018934,0.3679173763,0.8758864912,-0.0816189905,0.5323898195,0.5256891007,-0.4189949498,0.4185796438,-0.1765997445,-0.3987660291,-0.4299007308,-0.5158678367,0.7853540095,-0.3756406816,0.243401301,0.3311609925,0.4516129365,-0.000628804,-0.5296001746,0.2353507843,0.8849667582,0.9357230339,0.3474115135,-0.6299919338,-0.8715584061,-0.8545936936,0.301561332,0.8722493538,-0.9100670105,-0.2931645555,-0.6457191092,0.1296737071,0.4424551701,-0.1444191297,-0.8280784679,-0.701417904,0.8441767597,-0.6328499607,0.1430137098,-0.8486946945,-0.9279588064,-0.2595656123,0.9719934804,-0.3058303458,-0.8540369062,0.0806913831,-0.4815246773,0.4854657794,0.3758990421,-0.0605051148,-0.6412549973,0.2740266353,-0.8351537549,0.3733461082,-0.5565813705,0.353171801,0.230876134,-0.6336707832,0.7774883362,-0.5211057921,0.3860028729,-0.005154312,0.0096968553,-0.7857118791,1.0936695733,-0.4185595267,-0.8060064598,-0.8190099329,0.19655283,-0.0154961466,-0.6542985998,-0.7843187033,1.085136505,-0.4983189075,-0.0111213651,-0.0461736662,-0.2635717602,0.072228845,-0.5386446149,-0.0215844837,-1.2224050782,1.099230939,-0.2979556973,-0.8595733719,0.617527849,0.9220338099,-0.5344622504,0.6407042971,0.2703870391,0.2786738056,-0.1496567429,-0.8009895562,0.1632560967,0.6897808126,0.5120319761,0.7455715589,0.9204033564,-0.5554458485,-0.2479370527,0.9755307002,0.2436381535,0.2273546729,-0.2220770008,0.4367475227,0.3703225289,-0.7396002691,-0.8529943429,0.7944061314,-0.9123435395,1.1117148162,-0.079616419,0.3529638964,0.1682532541,0.9338767339,0.0849666362,0.292147178,-0.3953735748,-0.2720080437,-0.4619495576,-0.9435160571,0.8149755835,-1.4477247125,0.3505917934,-0.0097719536,0.2910814735,-1.3286675729,-0.6549689918,0.0013534179,-0.9011303149,-0.3407225045,-0.7124514503,0.5810307243,-2.7884955127,-0.3868914015,0.2881500486,0.7446881371,0.502665126,0.2156145832,0.1157517445,-0.8583961752,-0.2854910294,-0.2004586496,-0.8715352977,1.3798183201,0.1683915538,-0.9073140454,0.9370263721,-0.1711944054,0.261817289,-0.1847865056,-0.9911921659,0.4600392124,0.9335908647,-0.3297418818,0.3683842494,0.7766167394,0.4097603283,0.1101060577,0.3010077849,-0.2117823659,-0.8393855374,0.9149650527,0.9797936398,-2.08528293,-0.5224413468,0.4361401412,-0.4576806003,0.1048509195,0.760992583,-0.5253948575,-0.7007589422,0.2205993068,-1.4463740411,-0.3422194895,0.4629249389,0.0943899019,-0.9076689963,0.8258546287,0.6403109463,0.0890206123,1.0444139648,-0.1036999975,0.1287645386,0.6951153947,-0.3142486351,-0.7723009336,-0.5635030292,-0.6268053425,0.0054053595,-0.9673765805,-0.749280501,-0.5321017639,-1.0949951119,0.8036401464,-0.6716463488,1.6672728136,-0.2437825278,-0.1034225415,0.8075358806,-0.4282719,0.5270762658,-0.9158897422,-0.2095174937,-0.8048994157,-0.4519864448,-0.9729645952,-0.1307860158,-0.5795438643,-0.8377174748,-0.9964235233,-0.5752134234,0.2914580272,0.3428478483,-0.6749276757,-0.9490068169,-0.2113431819,0.0197083576,0.0005625971,-0.3325756256,-0.5135450365,-0.6332091085,-0.8511412466,0.3049007321,0.4069571707,0.3294750063,0.1703304796,0.2692866679,-0.7079072664,-0.5742990136,1.3096947717,-0.857753253,-0.1349288248,0.119866147,0.7202692474,-0.5921617329,-0.6236467152,0.382943548,0.4852113001,0.2251891177,0.8951192058,-0.1399891331,0.5767060636,-0.7536595506,1.0769870318,-0.2483655089,0.0497472212,-1.0282851614,-0.7350666495,-0.1549720306,0.8465725874,-0.0945272507,-0.6000277356,0.1222920052,-0.6623542009,-0.6847924202,-0.758717111,-0.0624388079,1.0327036604,-0.0979130011,0.2332136208,-0.8090377182,-0.8174637072,0.9107700008,-0.460268845,-0.8729206334,-0.30864971,-0.0273029904,0.3633286376,-0.5243958635,-0.6161549281,0.4795942682,-0.9222685357,-0.6008155858,-0.9623794681,0.5826427237,-0.5103005908,0.0317459932,-0.5681186859,-0.3537010891,-0.646546435,-0.5479606886,-0.5418528792,-0.0244567154,0.7294658891,0.5169206642,1.2184770864,-0.1515867601,0.7259014441,-0.2464475554,0.4580484134,-0.8312087609,0.3827988274,-0.8521054814,0.5917227373,1.4167578425,-1.9084056661,0.2734777146,0.6651343749,0.2569523042,-0.4699516773,0.5992630545,-0.3449071886,-0.1183437054
   0.6344299545,0.2561545,0.2566819316,0.9800535715,-0.4654932266,-0.0447473247,-0.681218317,-0.660796475,-0.0780513808,-0.5511122939,0.5197498557,-0.0949132174,-0.0767274697,-0.6793808743,0.0161929628,0.8245493711,-0.307300703,-0.6868020297,-0.4598931211,0.1874161553,0.8519601397,-0.0706410796,-0.9434929682,0.2227984024,-0.0345101779,-0.4346206309,0.1036477514,-0.7672490225,-0.6200009371,-0.3164504143,0.2078373659,-0.5258633634,0.9504118927,0.5714290767,0.8326381808,-0.5754126923,0.4764075896,0.9348715198,-0.0969744524,0.8065631387,0.0356381575,-0.7516942662,-0.8889173493,0.4813425001,-0.3054857176,-0.0370986914,-0.917606753,-0.0541084354,0.4264162024,-1.0909854591,0.1267644218,-0.7487350876,-2.0784759459,0.1201295404,0.3875878725,-0.3734519754,0.2143804722,-1.6854591686,0.8782737559,0.5515533513,-0.2226789893,-0.7658503255,-0.9467633759,-0.5937749,0.8172778961,0.7433048501,-0.7498041408,-0.6222566602,0.0311298055,-0.0313944768,-0.9607022775,-0.6200272245,0.0050121153,0.6247343445,-0.5024451077,0.2398359066,0.8541802256,0.361406625,1.4574048803,0.0454541524,0.5638767734,-0.7113282392,-0.4252460421,-0.117328371,0.243251744,-0.9879640566,-0.9514720121,0.0985697357,-0.244153189,2.630770018,0.4354198906,-0.9030063957,-0.701123113,0.1948918733,-0.7514290586,-0.2826967876,1.0910434064,0.8284481025,0.4595373433,0.4226067443,-0.1391692428,-0.4153447779,0.0111343125,-1.9546394812,-0.5597316305,-0.4294366136,0.5098439226,-0.6223303698,0.5938266647,-0.1510166781,-1.3270906979,-0.1445601782,-0.4243851363,0.2383503361,0.3034366476,-0.5179616375,0.0524581463,0.2448922,-0.4052341342,-0.0007626369,1.0513370632,0.0445263075,-1.9036982651,-0.4663815984,0.124540629,1.4644456612,-0.3522548663,0.5407920936,-0.5697483491,0.0731915404,0.9402500281,-1.0534377625,0.0533134178,0.5297301316,-0.7365469371,0.6824043041,0.2915080061,-0.5337721099,0.6010037704,0.138966734,1.1954530306,-0.8838650598,0.444381144,0.2501061856,-0.6983379453,0.5533302873,0.5261511832,-0.6427803846,-0.1908280521,-0.4596075072,-0.3471867563,-0.1306645724,0.3523779783,0.5486336728,-0.6698737842,-1.2303474824,-0.0626583317,-0.2080042421,0.8005869181,-0.7040821793,1.0623556184,0.2941285071,0.7627406344,-0.6504395784,-0.27886394,0.828682319,-0.2590226939,0.8005606031,1.4262798469,0.0353853455,0.3762153072,-0.1947739445,0.1019792542,0.057919222,0.0579055359,-0.4523147627,-0.0420198986,-0.2733972995,-0.9496663125,-0.9545763504,0.8338599163,-0.441335581,1.0277063602,-0.0854157528,-0.5450598177,-0.067379477,-0.7274830629,0.0548301881,0.3508298903,0.4170044418,-0.3799516956,2.8230618913,-0.8517059608,-0.6455509582,0.5906231423,0.1609894603,0.573252153,0.8487627725,-0.0405523867,-0.5273781524,-0.4870672522,0.4748270832,-0.5966285144,-0.2441949427,-1.7347241201,0.1963349904,0.1081864812,-0.9253388992,-0.4047516546,-0.7895285657,0.5101472741,-0.2259190375,0.1713093914,0.2589682065,-0.6368148829,-0.5296881192,1.2259766335,-0.5208672873,-0.3483584412,0.6931008309,-1.2833147422,-1.1383512544,-1.9013500838,-0.9229703575,-0.5860059508,0.7804820997,-1.1211928338,-0.7357041556,-0.0085555245,0.9647915009,0.4829575326,0.3444275243,-0.3596348174,-0.4009617741,0.1378270673,0.0152017913,0.6192298471,-0.330130324,0.3136656288,0.9084429668,0.1425011917,0.4607829874,0.2332464658,0.999052134,-0.1165549186,-0.9357635424,-0.7998013939,0.1476040362,0.1671584539,-0.0903346401,-0.4266992003,0.615936649,-0.3965425397,-0.1351830174,0.9839571941,-0.7385893497,-0.8994269058,0.1908758571,0.074049475,0.544395226,-0.6687078781,1.0610800586,0.9169922764,-0.5014613649,0.4791285316,-0.2203724314,0.7607436834,0.4870792539,-0.3044014832,0.3844759767,-0.3468858299,-0.0151215109,0.5738509957,-0.3437104018,-0.2872596976,0.2092138082,-0.5024923725,0.7224894515,0.0930899072,-0.3114694543,0.5699088497,-0.0460352182,0.1058792427,-0.7138382135,-0.4437967364,-0.0478505874,-0.4782404173,-0.1952562139,0.273182171,-0.1647730167,0.1254954463,-0.8121147939,0.3118384102,-0.0125775334,-0.3589376257,-1.0063835415,0.3223434348,-0.7038871886,0.1432894441,0.5348135812,-0.4242261859,-0.8069136728,-0.2030743484,0.9937072722,0.4835955456,-0.7566254703,-0.5623114862,-0.5875521542,-0.8304413659,-0.6094720368,-0.0108447219,-0.1524251636,-0.4125028498,0.5770914959,0.9832309528,0.2503575587,0.7516097417,-0.064682194,-0.0611753627,-0.6304795041,-0.2618709413,-0.6479495873,0.7935969024,-0.2689196969,0.074117543,0.4138380746,0.1075374679,-0.4267544481,0.2928707096,-0.0737024104,-0.6690258417,-0.4651133834,-0.5343275866,0.2495202464,0.1962570065,-0.4467381364,-0.0023393141,0.3058517723,0.2420258142,-0.5465052735,0.8914741238,0.9463651628,-0.6219443677,-0.6320656593,0.6852609698,0.0194497806,-0.6944841781,-0.0736733965,-0.2571447626,-0.1962880657,-0.1414885374,-0.1579517283,0.8990240774,-0.6003757681,0.7243357219,0.7013527492,0.7834628342,-0.5193258917,-0.3106974882,-0.7732733846,-0.3009415469,-0.3954685796,-0.6464055742,0.7602603667,-0.8182093983,-0.0844624214,-0.5645743836,-0.70894802,-0.6784734978,0.6519745027,0.3049602065,-0.4982581001,-0.7170489582,-0.5880070854,-0.2331294036,-0.0210251032,-0.1077046167,0.0760350606,0.8950317164,0.6977382923,-0.2076956113,-0.1788664751,-0.8032228939,0.3443527792,-0.728041156,-0.3171884393,-0.2271244529,-0.6265272982,0.3268085806,0.6599740385,0.3095071452,0.0250384833,-0.1841626891,-0.0246826143,-0.5863331949,0.1057929151,-0.6515663354,-0.4307470668,-0.1094290729,-0.4692870118,0.5681588108,0.2810586903,-0.0070277524,0.2821533402,-0.3750679546,0.8255297058,-0.3536013731,-0.295287419,0.4741517638,0.6616343302,-0.5590557963,0.2835413173,0.936075468,0.8756918231,-0.3596448135,-0.1360440037,0.9236057845,-0.4736183214,-0.7540103383,-0.1193595275,-0.8776376353,0.1465173099,0.0890911083,0.0590106722,0.6442569235,0.6923781981,0.050432976,0.2548466248,0.0904717026,0.8535452535,0.0641066617,0.3480188469,-0.7732137275,0.3469517436,0.0907282155,-0.2955883053,-0.7169664092,0.028675331,-0.312029499,-0.9039981518,0.4916648056,1.0209057955,0.6185404749,-0.6228215663,0.819345447,0.620156988,0.009006863,0.6189600623,-0.3186043975,-0.1051963677,-0.1582538161,-1.0259204837,-0.3680053905,-0.6662141087,-0.7047774597,-0.6231761349,-0.8139748257,0.7240067289,-0.0780254607,-0.9816495566,0.0904177536,-0.9856718741,0.029655569,0.4537973223,0.0153950314,0.5660552319,-0.5117799722,-0.419750121,0.15206154,0.6060106707,0.5366080147,0.8067074737,-0.5212831054,-0.5941535481,-0.4476767431,0.359234569,0.9174240811,0.6834423938,0.1065812987,-0.9946803517,-0.2112073432,0.7273907532,0.4389418461,-0.7023561211,-0.6984007687,0.3610506832,-0.85099393,0.8173224027,-0.8689372889,-0.4564526272,-0.4502637873,-0.5803449987,-0.0661234865,-0.5146856817,0.5699978066,0.3167821999,-0.9165657296,0.2204495576,0.0302014262,0.4463717428,0.3995049659,0.9095743253,-0.3632041182,-0.1064762161,0.6897812556,0.2520317159,-0.2062589314,-0.0900044747,0.4627113439,0.6395696692,0.1800935669,0.1956391438,-0.4974640368,-0.5756027693,-0.5568831343,0.1041880602,-0.6430175349,-0.1062926411,0.4588007621,0.8109333859,-0.5179105555,0.0828699448,-0.3153285218,-0.6305823271,-1.0458249197,-0.4756878987,1.0064602543,-0.7338625039,0.1714910607,-0.0398935217,0.4500823392,-1.7618568928,0.0916437167,-0.0078637094,-0.274434452,-0.1249956011,-0.7298238959,-0.8204250554,0.0935885382,0.5871646758,-0.0610462294,0.8278244605,-0.458406465,-0.6180120619,0.7436257182,0.3634693149,-0.416329155,0.8759352131,-1.1223642054,-0.8579342714,-0.6374564876,-0.2038888913,0.1469579539,0.9744874478,0.2507612787,-0.4073027453,-0.3458146393,-1.1843656743,-0.0116708886,-0.5747122724,0.2602156916,-0.2087670972,-0.5792118816,-0.8799492402,-0.0499699995,-0.7087326188,-0.2848836054,-0.7419945934,-0.1018251211,0.5512956336,-0.6640255872,0.5981466386,0.3146824773,-0.3327369168,0.9974684783,-0.0830061302,0.7318853159,0.0640748416,0.3831666688,0.9912134818,-0.7977694279,-0.2982797301,-0.0822635101,-1.0133739193,0.105528617,0.4914498477,-0.7797370689,-0.3649928389,-0.7821776101,-0.2406891882,-0.0990609157,-0.7499098594,-0.3433419491,0.4491614121,-0.2905771724,0.8369495156,-0.4628798745,-0.806966201,-0.9132327251,-0.6585680554,0.4459077047,-0.9172381807,0.3640373848,-0.2422834191,-0.3207985967,-0.1906678448,-1.0193131338,-0.7475954611,-0.3159675304,-0.5904984057,0.549570602,0.4843243067,-0.2681327185,1.1029255694,-1.1342017309,-0.7653652841,-0.5002735373,0.5985655605,0.4508389037,0.0301096819,-0.5179920813,-1.3847263504,0.4117082005,-0.4214585212,-0.0050996025,0.0473710569,0.0987659069,-0.3944496698,-1.2099795578,-0.4211922597,-0.7481479608,-0.7389142441,-0.0033623319,0.8687114579,0.8121590777,0.3085185961,-0.7545747784,-0.534912666,-0.3380994675,0.7814648806,-0.0299070852,0.9779612064,0.2386132886,0.6167885509,-0.1687506377,-1.0465154576,0.7520095016,-0.5659206259,0.6662220159,-0.6137396308,-0.3739707988,-0.1058217972,-0.5482112997,0.8269779201,0.0126064064,-0.1971257321,-0.4919107261,-0.7975662213,0.8585324562,0.3005741677,0.6350899125,0.8098338934,-0.5625844585,1.0773811013,0.9215419801,0.909015667,0.1454465424,-0.5843140414,-0.4384053634,0.5190702315,0.7255942562,-0.8754460546,-0.6065634207,0.7491185693,0.4466306409,0.454223897,0.5288600442,0.5068588376,0.1689801719,0.3788570375,0.2379385164,-0.6576416855,0.4191050663,0.4831781471,0.8477576036,0.2332272586,-0.9824220432,0.0427764601,-0.636367644,-0.6445849007,0.3099892931,0.0403937826,0.355626676,0.7500482414,-0.2916985198,-0.6508840833,0.0829431867,0.74067105,-0.8104388947,1.2321296735,0.1502142199,0.3532767962,-0.3325304096,1.1238582385,0.5660262958,-0.8133106859,-0.0455718834,0.3934774627,0.2928032626,0.2486280576,0.6528330803,0.1247481679,-0.2223510646,-0.1527790704,1.5893388582,0.5758518876,0.928478234,-0.9092492488,0.9681123355,-0.4716494536,1.7260546055,-0.6179075897,0.6924220672,0.8862231418,-0.6356305301,0.2399470374,-0.2195729815,0.0144708915,0.1879334675,0.5669869937,1.2871061715,-0.4900157577,-0.1040382287,0.7005474162,-0.2938734243,0.6395629273,-0.2291388772,-0.8678605968,-0.1819262402,1.3059986637,-0.5282878462,-0.8422735877,-1.6782040241,0.6844472159,1.1704925868,0.9316858482,-0.6418918582,-0.123696009,-0.2527470857,-0.6161229137,0.3572002194,-0.3688700787,0.0010564496,-0.7024691191,0.6711006433,-0.2523663964,-0.0780606506,-0.7831902175,0.1043358558,-0.5422098946,0.1527060832,0.7320399247,-0.667848724,-0.2385361699,-0.2841302961,0.8044839062,0.5503840088,-0.3696348323,-0.3019425302,-0.3116183727,-2.2241857981,0.4152028086,-0.024290759,0.9070632617,-0.6943292513,0.444039324,0.2298090286,-0.1727827814,-0.4994413956,-0.1825397824,-0.6899638563,-1.0645229693,0.4408505043,0.6238155526,0.6308770067,0.4567087414,-0.6306670612,-0.2740152284,-0.0457611751,0.0756473335,0.0752473594,-0.1358818797,0.1103710305,-0.8596916075,0.8860681664,0.4736434628,-0.5852025014,0.6224300339,-0.5484250248,0.610910022,-0.0535622532,0.3857335769,1.0003391128,-0.3145971055,0.1326789899,-0.5768413021,0.4769166887,0.1553178318,0.340637255,0.2079651402,-0.5709821653,0.1598642546,-0.7459025643,-0.5435198074,-0.398678401,-0.568058317,0.311986862,0.8732693179,0.7465245109,1.1965638996,0.1758497808,-1.1612041041,-0.1228039546,0.0864508084,0.8877544607,0.1696081193,0.2715128451,-0.0616820279,0.0216108031,0.0829034489,0.4078221758,0.4992064969,0.4262173476,-0.4557156357,1.1167865694,0.5063568513,-0.7615427934,-0.3852035903,0.4453262262,0.9468867287,-0.2351064162,0.7296596217,-1.2309886889,-0.3866152618,-0.1670681149,-0.0891818927,0.6664127886,0.2172835417,0.7393262398,-0.2129666899,0.3177734554,0.9465207221,0.141280355,-0.6161452548,-0.9265930751,-0.6846056166,-1.7085920754,0.3537248221,-0.2866290733,-0.8310621444,0.7995690068,-0.9287931679,0.0748492093,0.5651824893,0.0627303565,-1.2993917337,-0.2081059221,0.8674919129,2.2059654624,0.1705236094,-0.3546831644,-1.0205587784,0.8702383753,0.419603641,0.5630968529,0.8266197461,-0.1811084744,-0.4167129672,-0.6447350978,-0.5813809793,0.2871095765,0.3014248144,0.1237716418,0.3660276781,-0.4344816484,0.1276920928,0.9638936815,-0.6549599485,-0.0790739418,0.0899552562,0.1771304722,-2.5922888261,1.9565237502,0.5863782547,0.0565318776,0.8753846323,-0.3215320115,0.0626347234,0.8492980102,0.1887824139,1.2788293864,-0.6429895681,0.0738810205,-0.6794254539,0.285353634,-0.0325415922,-0.960092564,0.5624885098,1.2616143848,0.3011444258,-0.1688177104,0.1246348163,-0.2472309276,-0.774137732,-0.2672649072,0.9133364827,0.1240787752,-0.5035076327,0.080563186,0.3588643083,0.3445043457,-0.8839606868,0.3534816992,-0.0906147063,-0.6387591342,-0.6496543136,0.2796945917,-0.2148284915,0.8805171575,0.6571790655,-0.60244486,-0.3930081514,-0.2627279828,-0.5856078845,0.9425895917,0.8703406783,0.7729940493,0.4868223912,-0.019251099,-0.8397456065,-0.8864642888,0.8558571645,-0.79955725,0.0684488867,0.943190034,-0.3626049419,-0.818668974,-0.0782729554,0.8951495429,-0.1513441367,0.2454483041,-0.6979150767,-0.6059048335,-0.4963331337,0.605113884,-0.9283675408,0.1779701555,-0.3909646792,0.3424953451,-0.3921550696,0.1273261316,0.0648289086,0.4096117397,0.7497064128,-0.7466082973,0.8397547044,0.8254909113,-0.2066562898,-0.0049416625,0.6822640626,-0.4392615173,0.7512882827,-0.8087629406,0.697712027,-0.1984666284,-0.9415729251,1.0951217916,0.1492507961,0.1104412864,-0.7164064146,-0.5030480635,-1.4795276313,-0.6306492597,1.4771918019,0.3788020853,-0.8622874379,0.7423358096,0.0652169849,0.4173082609,-0.0565468777,-0.438231578,-0.8363089461,-0.4877966187,0.2348829436,0.3801286071,-0.0299242769,0.3665884918,-0.0974694816,-0.1162462981,0.6085396769,-0.7521742719,0.9927785272,-0.3258490171,-0.3558744234,-0.2897668392,-0.9010113527,0.8837656111,0.3261604018,-0.9401574835,-0.0411782676,-0.3272234361,0.9115627447,-0.9137280955,-0.3135891803,-0.804044789,0.85626093,0.3537765213,-0.8814202192,0.397195768,-0.2599007712,-0.7358752136,-0.2919098456,0.7762653289,-0.6350919104,-0.8827548651,0.873500387,-0.8646687996,-0.4054933437,-0.7490621611,0.110222837,0.8755245134,0.077542001,0.9251031333,0.08755484,-0.5235395552,0.816613585,-0.3303189911,0.3032920092,-0.4734703125,-0.053034648,0.2608253016,-0.0330793403,0.405771794,0.9278058887,1.365454118,0.5593672083,-1.1117018603,-0.464212523,-0.3971210383,0.149383128,-0.3105162087,-0.0922245228,0.4980652671,1.5601361042,0.3266110478,-0.0627419415,0.4927866447,-0.4824754369,0.1758306112,-0.8136275385,0.3156831994,0.8291290187,0.6390328105,0.7448666642,-0.1078808454,-0.3000970006,-0.1017344153,-0.7761176554,0.5044237649,-0.2221560177,0.074871116,-0.5597755799,-0.12251397,1.213652219,-0.7741919406,-0.9129444356,-0.5720806135,0.3677890808,-0.4507703642,0.7279883498,-0.196333658,-0.4623664063,0.8276521816,0.0378037889,0.3651130329,1.2692277414,0.8317046753,-0.1463598337,-0.4280215486,-0.3186350844,0.7836985852,0.8974182401,-0.7144790659,0.4426490727,-0.073885209,-0.5587758122,-1.0310107284,0.0119004484,0.7659904563,0.1277280719,-0.4179043334,-0.3041730606,0.444033411,-0.705917938,-0.5730808333,-0.2010277611,0.057969632,0.7029540432,-0.5702919532,0.2122838037,0.1438437944,-0.6624274219,-0.5347353917,0.863032716,0.2004835386,1.0356189919,-0.9690101258,-0.1829954006,-0.727616504,-0.2230358666,1.0055918855,0.1251769095,0.3620544082,-0.730224857,-0.7864538534,-0.294492286,-1.5338348718,0.5614475245,-0.6150599961,0.8873074186,-0.3484846267,-1.1926312903,-0.1912010444,0.7109043631,-0.458251597,1.4152973007,-0.4233189006,-0.933599918,0.6424722753,0.4141753507,0.681451928,-0.1282229975,-0.5864555724,0.7528527371,0.1261524867,-0.6670917897,0.8063248198,0.7341648362,-0.0365750724,0.4516104685,-0.4784256056,0.7936623705,0.2898704797,-0.4414074833,0.1210273651,0.5220827351,-0.6057840258,-0.6692525186,1.4146974756,0.5396922609,0.291485057,-0.1128372799,0.3366587207,-0.0281612606,0.854537682,1.3779523221,0.2670266752,-0.0062787809,-0.5360898902,0.077213509,-0.1761046984,2.4995362661,-0.870575469,0.5519883097,0.808854365,-3.6883592633,1.2171384389,0.329762073,0.8086278484,0.0844927696,1.4909289167,-0.2763746871,-0.0201631845,1.0974416075,-0.190890019,0.6766728564,-0.9843244111,0.3211367258,0.8920092977,-0.5223693911,-0.4850601111,-0.0786368173,0.7555780429,0.7966572045,-0.2343550792,0.854407668,0.3586045748,-0.9505314833,-0.4916739958,0.5278246894,0.5678059344,0.4217854464,-0.9260059314,0.934663809,0.0791311831,-0.407668851,-0.0575813167,-0.5247289269,-0.6560266566,-0.0078455652,-0.2366325479,0.7343993664,-0.4214517177,-0.6353848352,0.6438801832,-0.5543220242,-0.8092260065,-0.0290043723,0.1612576463,-0.2661073861,-0.1889667255,0.6667305423,-0.4413827665,0.6368742692,0.639466157,-0.0806157536,-0.6953384113,-0.4126362786,0.1558299834,-1.2144529327,-0.3458334333,0.7182343697,-0.8273151508,-0.1941205618,-0.1349540235,0.5460104191,-0.6389950878,0.6812251511,0.6407324315,0.584069963,0.2544270174,-0.8538067754,-0.153174593,-0.3793426514,-0.6967417918,-0.5481703126,-0.1231324738,0.0217586479,-0.6290817451,-0.3161656526,-0.4818880015,-0.5714446099,0.5906812096,-0.5350304555,-0.5835759922,-0.5544113338,0.3816335931,0.4359111452,0.4482742299,-0.5149842593,-0.4706528346,0.571023631,-0.7772869303,-0.7749735621,0.1514634069,0.2388387715,-0.6403526429,-0.1465887812,-0.3954372934,0.6000533892,0.3932708798,-0.105193101,0.422047897,-0.4741273173,0.016746235,0.7906926236,1.0717217567,-0.4155763291,1.0956385913,-0.1116843044,0.6980840984,-0.7289488843,-0.0869071447,-0.2072844765,0.4183472739,0.7417220482,-0.4320450254,0.1505755633,-0.4178328655,0.2856311844,0.7349199574,0.3713188477,-0.0430689687,-0.5759122722,-0.6929296989,-0.428360231,0.3333588753,-0.2202729421,0.7735689817,0.6740574583,0.008767669,-0.295000401,0.6103561347,0.5734942374,-0.5294634253,0.9104669384,0.9224660676,-0.8706023566,-0.8515898441,1.0160575152,-0.157325703,-0.8149695343,-0.457840415,-0.3338611068,0.487521182,-0.4357220609,-0.3877977483,0.0318867333,-0.2553133101,-0.2826656289,0.0011784897,0.6410982176,-0.1615661588,-0.2677910403,-0.4689787459,0.8647826733,0.8537347153,-0.9735699178,1.0385180656,-0.1969614357,-0.2634490079,-0.4115653188,0.3585995474,0.6748329818,-0.3688287358,-0.7625644905,0.8881120476,1.6974439355,0.260548963,0.226504924,0.2373270286,0.3910468378,-0.421971176,1.0472041374,-0.8533885749,0.2351721326,0.8852613476,0.3641518072,0.2111116456,-0.2630855787,-0.1415906137,-0.1282693361,-0.1289573659,0.6516225882,-0.5164496028,0.077646031,-0.3877972331,0.9676937071,0.3141833393,0.3888755054,0.5686587055,-0.5004031616,-0.9756388983,-0.4159625537,0.1457899277,0.1959357272,0.2018202907,0.5411911045,0.9640738601,-0.5789369352,0.3308920943,0.8627541398,0.7964020399,-0.4347358572,0.0328444924,-0.4301952898,-0.0153234468,-0.2034721179,-0.2458673522,0.1677637727,-0.1312442934,0.4885758575,-0.1362381495,0.2894719126,0.3128202881,0.6222286477,0.2056615646,0.3511621931,-0.1990621461,-0.4944548118,-0.9517634787,0.099925029,-0.5948149162,0.951220383,0.8728943981,-0.6995061916,0.3973658784,0.17685966,-0.5925622869,0.4856392788,-0.291477981,0.2103101392,-0.4646310171,0.3884408952,-0.5079299631,0.4971919182,0.8228874089,-0.0099472241,0.4464544497,0.12942498,0.8646356745,0.882456292,0.2000322501,0.0368867545,0.9570244674,0.5606107634,-0.6254874626,-0.1116609383,-1.2824882182,-0.3909543365,-1.4531783703,-0.8651865401,-0.7789918136,0.0957491661,0.2857499532,0.211171618,0.8299044441,-0.1350308753,-0.7157391367,0.8786296321,0.5501618552,-0.3413286769,-0.5003134557,-0.3620017336,-0.6452710988,0.2292448162,-0.1390334458,0.8209891853,-0.1329017623,-0.604159751,0.5161858985,0.8548209066,-0.2311059101,-0.0991755988,-0.5982985425,-0.7196712273,-1.0296930257,0.3604830784,-0.2281424481,-0.429790236,-1.2282758332,-0.3873044271,0.6582655135,0.6609214349,-0.6790617791,0.3319210706,0.035109478,-0.8886955687,-1.0698569184,0.1381616385,-0.5253311232,-0.3463024102,-0.1993472068,0.1745032243,-0.8333934415,-0.2590097173,-0.7403327763,0.2332816512,-0.6049003842,0.2472878777,-0.6652034464,0.7932912846,0.5681454972,0.1281476056,-1.0446486626,-0.6580693681,-0.1646526401,-0.7776184185,0.6689165729,0.6946864711,0.7014184982,-0.0843725011,0.0631107639,0.4639901631,-0.0555301482,0.0134615423,0.0306467575,-0.104432656,0.1158844258,-0.4527988326,0.7716531466,0.2933980883,0.1796673872,0.2360221613,-0.4274034178,0.6186767755,0.8763848102,-0.5262247321,0.8825428636,-0.6722676533,-0.2808562624,0.303133725,-0.9273822132,0.8338768745,-0.6642246168,0.575704484,-0.0980143121,0.3454607557,-0.983891858,1.2847595284,-0.0137720055,0.698744545,-0.3925581156,-0.410653021,-0.2789810915,-0.5966924503,0.5596358365,0.7257334721,-0.7145583985,1.0322792009,-0.4183780445,-0.755231475,0.7737632033,0.9518653348,0.1543909881,0.9691004987,-1.9153209222,-0.3397105798,0.4360124054,1.3157327953,0.391161383,-0.794240624,0.4364425204,-0.3753171583,-0.8876273599,0.179090961,-0.2749983179,0.2051504495,-0.7101854476,-0.9248147464,0.3220514984,0.4060890481,0.2081659759,0.8000642625,-0.2715077065,0.6086988395,-0.407216087,-0.3488082118,-0.9120559264,-0.4958621854,0.2321924921,2.004427869,-0.237606239,-0.3605148883,-0.1229751542,-0.1976864046,-0.2604716851,0.7026430819,0.799431742,-0.8110574105,1.4193776359,-0.9866384107,-0.6318425469,1.0133529854,0.061376832,0.6544789863,-0.4668526524,-0.69556286,0.8976023326,-0.0307912387,0.3442620511,0.3969721322,0.1362484616,0.2697060771,-0.1631936994,1.1474895291,-0.7941026245,0.1578810226,0.5517133223,0.7698481383,-0.2944799124,-0.86839705,0.0324343266,-0.9732339125,0.3625138817,0.9490441447,0.8190795664,0.5930347226,-0.5761781552,0.5123291267,0.2091391649,-0.2996209074,0.1727734591,-2.5049741054,0.0805347702,-0.8252537026,0.2213929673,-0.3154008171,0.3828819339,-0.1736684312,0.0631243883,0.1273918364,1.1614800663,0.9112979862,0.4550961287,0.1487169303,-0.3393090077,-0.367341694,-0.5565713559,-0.316393216,-0.4594246068,-0.6085622677,0.2330692578,0.7471803474,-0.8041297611,-0.0210613162,-0.7734565834,0.9492453127,0.5770892123,0.406093389,0.021480054,0.7335203375,-0.04233044,0.2911144314,-0.8770828838,-0.721013128,-0.4347979157,1.9539359133,0.4378082276,0.347393746,0.8926494681,1.7688741036,0.7265402549,-0.6347907002,-0.2577271071,1.3013639729,-0.9856818729,0.4270148624,0.6576785586,-0.3560590063,0.8861533931,-0.7663213362,-0.4025878169,-0.0075271559,0.1703450669,-2.2240044675,0.6124333303,1.370069824,0.1477725828,-0.8710829104,-0.0045931753,-0.3539421767,0.1028248627,0.4379139784,-0.5069730375,0.5681480993,-0.8128413503,0.3434371088,0.0119798329,-0.7962191922,-0.1071537002,-0.1126333776,-0.2527910502,-0.5700819436,-0.0453136713,-0.9756547304,-0.5538062996,0.6323481492,-0.3292131291,0.3973288757,-0.4750799583,0.1176235607,0.0228877734,0.1292776561,-0.2064250784,-0.0944914228,-0.6491220871,0.7428441319,0.4366755177,0.6592414732,-0.3998135468,-1.2362524001,0.2901799369,-0.8900685382,-0.99763665,0.0601598182,0.4118141891,0.9468448132,0.6060819416,-0.5253079924,-0.1745950101,-0.2949437677,-0.9720374914,0.4579062656,0.3226194698,-0.202581989,0.8577546123,0.3717841223,-0.6612453098,1.0027315968,-0.3788904315,0.1218235202,-0.7327572732,-0.9531274196,0.0958887887,-0.5721737472,-0.5837869066,0.0622862029,0.9376440553,-0.1774175959,-0.460884227,-0.0580873266,-0.3645895759,-0.416446964,0.8545697426,0.1055744359,-0.3847984035,-0.249904005,0.9844968787,-0.4944085642,0.9166204058,-0.0467230067,0.3565144906,0.6482276611,-0.7976492419,0.1465208123,-0.9441797075,-0.6832309129,-0.3566432909,-0.8902894782,0.8835931984,0.7673626906,0.3780736956,0.1882112934,-0.9831870378,-0.5145729879,0.5614153084,-0.369148768,0.3255879647,-2.3568636305,0.4381847455,-0.8387575975,-0.7616310671,0.623719207,-0.2879482812,0.1661202701,0.8107788866,0.6556040063,-0.7397110394,0.469956861,-0.8924079722,-1.3903619771,-0.3295835504,0.3802315061,-0.7994346627,-0.2740682961,0.0096296913,-0.533554822,0.5540012197,0.8293811447,-0.6784664609,0.3204456867,-0.0663749743,0.7330095049,-0.5525223108,-0.1178513847,0.58576546,0.9712085952,-0.0320720996,0.3553853681,0.3354404986,-0.6702115654,-0.8139956144,0.5857907956,0.1826614363,0.6784654086,0.9904116018,0.4211715657,0.982540337,-0.7978736219,-1.2004019333,0.8565703959,-0.8633413431,0.5328428999,1.5570133127,-0.53994958,0.0467982575,0.0800337655,-0.2207374831,0.510191028,0.0543249929,0.4359228728,-0.7926730487,-0.2031270472,-0.2318175687,0.6820919519,0.7793389428,2.4108050303,0.1311238116,-0.0789700894,-0.156777451,-0.7698937367,0.4903215972,-0.8238894764,-0.2175443701,-0.1986482832,0.1400320109,-0.6229076749,-0.6068235419,-1.278624044,-0.9681862573,-0.9419707367,0.68197771,0.0917022644,0.4042568673,0.7087627893,-1.3252934167,-1.5959503407,-0.2766343543,0.5386533611,-0.0046317139,0.914987395,0.1388918732,0.2588264004,0.2406411628,-0.1500821461,0.9464919773,-0.1231407448,0.1557421876,0.4997755052,0.2562024767,-0.3662982198,-0.2567307087,0.6061464104,-0.5826927559,-0.4545032478,-0.1102390057,0.6726597535,-0.2844942092,-0.1924764802,-0.5821055114,0.4864764754,-0.511671763,-0.1485161998,-0.1399231387,0.1711436031,0.0108923671,-0.1681920797,-0.0545230268,-0.2799964062,1.0075827003,-0.188554617,1.1777447361,0.5434876648,-0.9924063818,-0.2975701399,0.4523041427,0.0774421118,0.1980162618,0.7752776533,0.2553803632,0.7280204199,-0.9949378094,2.1612408816,-0.0353782833,-0.0669793898,-0.4031460883,1.1276036744,0.6432386669,-0.4865072718,-0.4825386956,0.4279684808,-0.1061930148,0.3647794733,-0.232457604,-0.5733612098,-0.1985210995,-0.5216531018,0.5919572016,-0.8899387838,-0.655679406,-0.2284693188,-0.8825753668,-0.4903771773,0.8874520726,0.449866684,1.0066928151,0.4279210105,-0.9486052673,-0.086926963,-0.2132423819,-0.2319597529,-0.5710713199,0.4705169803,0.5757906635,-0.4974347233,-0.8929573869,0.0182954646,-0.4839520779,0.9514888433,-0.5829271335,-0.7811313009,-0.2427334494,0.4229652244,0.6985043979,0.5718183642,0.5419785858,-0.5198379185,0.7726724864,0.0608010547,-0.0565788954,0.64934066,0.0815166602,0.0759616225,0.9344803196,1.9022383067,-0.4797451446,0.0204698333,-0.3990293796,0.9582031434,0.2146841367,-0.282158833,0.5493105461,-0.3589145808,0.1843952266,-0.1037970838,0.4704139855,-0.4834737296,-0.3407548862,-0.7069047611,0.8255383164,0.1382900345,-0.1418460278,-0.4241786866,0.3455261089,0.166856003,-0.5938276425,0.3591713329,0.0340041239,-0.1280472927,0.5738473407,-0.6104232291,0.3948262234,0.6694541547,-0.5138405286,-0.7412132205,0.8974834788,-0.0337195486,-0.9855871166,0.0246382813,0.540611434,0.9566375063,-0.648257181,-0.5733642606,-0.5100941217,1.3741607014,0.5672213514,0.7739163169,-0.3380115633,-0.510682338,0.0407946751,-0.6649256407,0.1173181796,0.5521724984,-0.5502636188,-0.9613702209,0.6611582061,0.9518519081,1.7810909312,-0.6635371429,-0.01111219,0.576042331,-0.7937632803,-0.5145136009,0.2103582636,-0.4127544722,0.1702091014,0.3326243579,-0.5065334621,-0.0770895505,-0.489756593,-0.1991594823,0.1520963902,0.3358274933,-0.8894311525,0.8902063372,0.351729601,0.3907758734,-0.3788123762,-0.2406775845,-1.3798106889,0.2518200264,0.6184647884,-0.6758128998,-0.707884427,0.4252918358,0.2974699579,1.3890820253,0.7733092095,0.2532765033,0.6647762607,-0.91111824,-0.1482327282,0.5771945994,-0.1415835676,-0.3800198962,-0.4951077039,-0.0408941087,0.0653480964,-0.0509374512,0.1965877635,-0.4903064031,-0.1552132678,0.1975038816,-0.7642294539,-0.3191061225,0.5659195913,-0.0400664415,0.6396357627,-0.5515476628,1.0736214259,0.340005599,-1.286616493,-0.5206591462,-0.262294662,-0.3386058257,-0.2665111846,-0.2673987205,-0.0650309304,1.0723732981,0.1586430527,-0.3171986236,0.5851223931,0.1569704395,-0.8951815998,1.0156749399,0.005336889,0.7651841991,-0.4542971332,0.9582028192,-0.5624625184,0.8607107649,0.9503632343,-1.4963137683,-0.2201823543,0.5741532466,-0.7382369791,-0.2329004391
