encog,BasicNetwork,java,3.4.0,1,1597710190306
[BASIC]
[BASIC:PARAMS]
[BASIC:NETWORK]
beginTraining=0
connectionLimit=0
contextTargetOffset=0,0,0
contextTargetSize=0,0,0
endTraining=2
hasContext=f
inputCount=350
layerCounts=235,144,351
layerFeedCounts=235,143,350
layerContextCount=0,0,0
layerIndex=0,235,379
output=0.0000960253,0,0.0000006044,0.0000062549,0.0000005234,0.0000000539,0.0000000116,0.0000000103,0.0000000041,0.0000002123,0.0000000054,0.0000001773,0.0000124966,0.0000000604,0.0000003759,0.0000005705,0.0000058353,0.0002719553,0.0000000001,0.000000151,0.000001666,0.0000029252,0.000013825,0.0000000225,0.000000087,0.0000000005,0.0000003237,0.0000000628,0.0001207812,0,0.0000034442,0.0000033717,0.0000000005,0.0000047327,0.0000114406,0.0000000512,0,0.0000001082,0.0000000128,0.0000000001,0.000003402,0.0000001951,0.0000023527,0.0000001742,0.0000002864,0.0000000001,0.0000133354,0.0000000018,0,0.0000037233,0.0000001352,0.0000000843,0.0000181693,0.0000003174,0.0000000001,0.0000000002,0.0167608597,0.0000142437,0.0000000089,0.0000004456,0.0000000316,0.0000013646,0,0,0.0000000002,0.0000014873,0.0000000388,0.0000000359,0.0000078231,0.0000005058,0.0000000116,0.0000000107,0.0000000005,0.0000000568,0.0000000017,0.0000000017,0.0000007855,0.0000000067,0.0000373475,0.0000002425,0.0039030471,0.0000006518,0.000000002,0.0000000022,0.0000000003,0.0000000188,0.0000013823,0.0000000048,0.0000000597,0.0000000159,0.000000002,0.0000000002,0.0000003244,0.0000679387,0.0000000144,0.0000028169,0.0001092315,0.0066833005,0.0360299887,0.0000039627,0.0000343472,0.0002643948,0.0000018644,0.0000018063,0.0000000453,0.0000000089,0,0,0.0000005863,0.0000004431,0.000000085,0.0000000321,0.0000123565,0.0000010802,0.0000000014,0.0001041999,0.0000000166,0.0000000612,0.0000000002,0.0000049813,0.0000025402,0.0000000329,0.0000711201,0.0000015212,0.0000000227,0.0004001523,0.000072262,0,0.0000000909,0.0000000002,0.000000018,0.0000001093,0.0000010307,0.0008637015,0.0000019898,0.0000256838,0.0000000001,0.0000000029,0.0016730316,0.0000030434,0.0000008623,0.0000000001,0.0000000024,0.0000000041,0.00000046,0.0000034652,0.000000068,0.0000000417,0.0000003398,0.000000001,0.0000008334,0.0000002167,0.0000000073,0.0000874069,0.0000047067,0,0.0000000113,0.0000000193,0.0000003035,0,0.0000000609,0.0000000008,0.0000000163,0.0000007141,0.0000008785,0.0000002734,0.0000005626,0.0000000451,0.0000000003,0.8979540179,0.0021147306,0,0.0000006578,0.0000000011,0.0000001013,0.0000000075,0.0006473322,0.0000010378,0.0000000022,0.0000000014,0.0000041763,0.0000002821,0.0000000101,0.0000002246,0.0000025567,0.0000434594,0.0000000318,0.0000064207,0.0000000191,0.022157191,0.0000001252,0,0.0000000127,0.0000028745,0.0000005245,0.0017781866,0,0,0.0000473067,0.0000000001,0.0000000018,0.0000037226,0.0000000005,0.0000000025,0.0000000037,0.0017034782,0,0.0000000263,0.0000001924,0.0041461545,0.0000000076,0.0004929661,0.0000008777,0.0000000004,0.0000000007,0.0000000006,0,0.000000133,0.0000004663,0.0000001028,0.0000000017,0.0000000002,0.000000005,0.000000515,0.0000000094,0.0000000015,0.0007263256,0.0002745065,0.0000006299,0.0000000146,0.0000017408,0.0000009716,0.0000134456,0,0,0.5520465704,-0.666224902,0.9550714938,0.7896033188,0.7829076582,-0.8981623487,-0.4202389328,-0.1400812582,0.8548664532,-0.96387321,-0.2365771355,0.2215550149,0.9907450186,0.3080055294,0.9535544265,-0.0646509637,-0.0103996667,0.8351830753,0.5291457292,-0.4330286321,-0.1568471732,0.6622191152,0.6251087248,0.9799003041,0.189589158,0.7686868661,0.9645007148,0.4273610026,-0.9196312065,-0.0483370574,-0.7259468,-0.1409171877,0.8994669736,0.744333317,0.999476696,-0.9839223553,-0.862910891,-0.159217277,-0.9958840602,0.2831185559,0.376236939,0.5754207437,0.3071067142,-0.2528554858,-0.4887142595,-0.9643490191,0.2437211575,-0.2481667869,-0.7047524409,0.896645241,-0.0733084848,-0.5326270736,0.8702340335,-0.8506841727,0.8331082668,0.8945458361,-0.9151073145,-0.7323185336,-0.810776526,-0.0693866608,0.851357857,-0.1638562081,0.3017798812,0.4006405483,-0.9352691108,0.8533182853,-0.714762202,-0.5030891269,0.6491257418,0.5375683548,0.7646921097,-0.9498501235,0.5736545764,0.8925502759,0.327644718,-0.8060000736,0.4629367113,-0.3132304388,0.8826494863,-0.6223156111,0.8529308928,0.9840468084,-0.3078699246,0.2101460786,0.9796895396,-0.8648790024,-0.422274679,0.7434766718,0.9126275911,0.9687125467,0.9837362075,0.5318402235,0.6706258041,-0.3741173409,-0.3871258613,-0.5620380163,-0.5484511978,0.233732754,-0.1873872633,0.3998920208,-0.3048239831,0.9899599269,-0.6302001243,0.6931579681,0.9118451854,-0.9629097494,0.7742651626,0.1754346167,0.9878754626,-0.9831203771,0.7455417799,0.1802035851,-0.1130796595,-0.1494895285,0.150726594,0.172945222,-0.8257842298,-0.3660248239,-0.1600312555,0.1391077825,0.1201257255,-0.9951752555,0.5345174563,0.8991182142,0.8737149388,-0.3828759037,0.0964405768,-0.8936966052,-0.6284603688,-0.8105810299,0.3177515874,0.6706413622,-0.9408551064,0.7875605148,-0.8934189449,-0.9115048757,0.5046398212,-0.6338061298,-0.987970096,-0.6056623829,-0.9111944356,-0.9466065536,0.9128310392,1,0.105,0,0,0,0,0.053,0.053,0,0,0.053,0.053,0,0,0,0,0,0,0.053,0,0,0.053,0,0.421,0.263,0.158,0.211,0.421,0.526,0.158,0.158,0.842,0.158,0.316,0.211,0.316,0.737,1,0.053,0.368,0.158,0.579,0.211,0.053,0.158,0.158,0,0,0,0,0.211,0.105,0.105,0.053,0.105,0.053,0,0,0,0,0,0,0,0.053,0,0,0.211,0,0,0,0,0.105,0.158,0,0,0,0.105,0,0.053,0,0.053,0,0,0,0,0.105,0,0,0,0,0.053,0.053,0.105,0,0,0,0.842,0,0.105,0.105,0.053,0.053,0.158,0.053,0,0.105,0.105,0.105,0,0,0,0,0.053,0,0,0,0,0,0,0,0,0,0,0,0,0,0,0,0,0,0,0,0,0,0.105,0,0,0,0,0,0.053,0,0,0.105,0,0.053,0,0,0,0,0,0.053,0,0,0.053,0,0.053,0,0,0,0,0,0.105,0.158,0.053,0.158,0,0.053,0,0.053,0.211,0.105,0.158,0.158,0,0,0.105,0,0.053,0,0,0.053,0,0.053,0.053,0,0.105,0.053,0,0,0.053,0.053,0,0,0,0,0,0.105,0,0.053,0.053,0,0,0,0.053,0,0,0,0,0,0,0,0,0.053,0,0.105,0,0,0.105,0,0,0,0.105,0.053,0,0,0,0.105,0,0.105,0,0,0,0,0,0,0,0,0,0,0,0.053,0,0,0,0,0.053,0,0,0,0,0,0,0,0,0,0.158,0.053,0,0,0.105,0.158,0.053,0.053,0,0,0,0,0,0,0.053,0,0,0.053,0,0,0,0,0,0,0,0,0,0.105,0.105,0,0.053,0,0,0,0,0,0,0,0,0,0,0,0,0,0,0,0,0,0,0,0,0,0.053,0,0,0,0,0,0,0.053,0,0,0,0.053,0,0,0,0,0,0,0.263,0,0,0.053,0,0,0,0.105,0.105,0,0,0,0,0.053,0,0,0,0,0,0.158,0,0,0,0,0,1
outputCount=235
weightIndex=0,33840,84033
weights=##0
##double#84033
   -0.4697330926,0.8581304539,1.0703389059,0.4513162878,-0.5531557784,1.0978045386,0.4955796279,0.1232149678,0.5181067634,-0.5124308981,0.3104631671,0.9072781072,-0.1789419985,0.5777653055,-0.058324903,-0.8029089088,-0.3108196338,0.5709704303,-0.5562639168,-0.6837971568,0.0547377053,0.0119340112,-0.6383494479,0.7694652935,0.7627587106,-0.1505388474,0.8206931683,0.4578814084,0.7553324624,0.4662630009,-0.2795998013,0.6268531184,-0.6960592472,-0.092443222,0.0381910444,-1.5627830473,0.7804619041,0.172317906,0.0969094811,-0.3011254101,0.2994851695,-1.560220317,0.8416189964,-0.0626834897,-0.3915643007,1.0597875855,0.4838743945,-0.4238053528,0.0942492594,-0.8922179446,-0.2727362799,0.5206215697,-0.350498266,-0.2865046631,-0.0377944165,0.194586627,-0.3575604425,-0.9697184949,0.1692688031,0.4661688953,-0.7340245347,1.2277018063,-0.4156263491,-0.7887300367,-0.9688345357,0.2422561651,1.3395095993,-0.503735021,-0.7071018546,0.8797364712,-0.5828558544,0.8789125751,-0.1907085466,0.5977646753,0.9354404302,0.1581276144,1.0520059855,-0.6022811837,0.1111429324,-0.802874327,0.2130082129,-0.5254202704,-0.7514017094,-0.312588311,0.6678283569,-0.4690274198,0.0273133622,0.3872310384,0.5438724887,-0.7226552602,0.2010236141,-0.7477802892,0.2253020541,0.7782287913,0.2780665507,0.4736529474,-0.9562604139,-0.8481535321,-0.5355985531,-0.1146186538,0.3376283302,0.6321218702,-0.2328540685,0.8074681162,0.3940767042,-0.3755162369,-0.1697794951,0.8514612256,0.7527234062,0.0963416779,-0.9997687483,-0.5979426299,0.6906907913,-0.1432479032,-0.7680576291,-0.8593532573,0.9628183121,0.0821194648,0.255311328,0.4487662148,-0.7854483411,-1.1227510656,-0.1885551675,0.1394049464,1.0891335062,0.424620403,0.1648694098,0.166797709,0.3716102557,0.4043453051,-0.6936574831,0.483203112,-0.4748495172,0.2272594217,0.0578672577,-0.1138114201,0.9276451536,-0.5845317279,0.0492429195,-0.9483892109,-0.5774773169,-0.3146819832,0.2216311002,0.3881837222,0.9485855955,0.0829807168,-0.7879889111,-1.009382414,0.9902382603,0.2682608117,-0.6448659574,-0.4787369398,-0.2118709233,-0.2244670452,-0.3395789049,-0.3999813273,-0.1470045396,0.9495343743,0.0859602363,0.5593872771,-0.3221288263,0.292587991,0.4361134587,-0.1980538399,0.1009395052,0.7129436376,-0.7500307,0.5206152164,-0.9279535551,-0.2593646586,-0.5580528162,-0.9192677392,0.9013198861,0.934895458,0.9462365802,-0.3046053046,0.555604274,1.1585128555,0.3773918815,0.8253596125,0.5640134358,-0.0583956593,-0.993466944,-0.4828776087,0.5381743232,-0.9345015775,-0.8257084864,-0.3095575759,-0.5013040603,0.6053419167,0.7571763535,-0.9191571904,0.9035398919,-0.2846024586,-0.4569698189,-0.2733774729,-0.4499846264,0.8196827521,-0.4725763669,0.0553844879,0.6142804332,0.5739413216,-0.9392662585,-0.912524872,0.0122831157,-0.3333928025,-1.2305023339,-0.7761101261,0.8950306607,0.5168820031,0.0840436796,-0.6421135642,-0.3494877832,0.376227292,-0.7977735943,0.7501717824,0.0568520416,-0.4053163953,0.7751995097,0.1371363893,0.2620067042,0.1516918552,0.8166650492,-0.1706346917,-0.7606469284,-0.1408129194,0.3172614852,0.0229910075,0.1682194041,0.235823999,1.3414518349,-0.6026280304,0.7864160367,-0.7159489857,-0.2665312277,-0.5703809715,0.8198106153,0.0235508045,0.1581099097,-2.3939052734,0.3649770721,1.1550946743,-0.2634402655,0.1522850124,0.7377947709,0.6540451708,1.2426983655,0.7935092666,0.7709457504,1.3958314275,-0.0437576189,0.7378120183,0.6873512545,-0.5732904519,-0.8126119091,-0.4744617857,0.7149391916,0.3932804053,0.5269552118,-0.6413495134,0.4200834437,0.3095409795,0.9945168379,-0.434067172,-0.0482897895,-0.1346714519,-0.8148055401,-0.5739169025,-1.4128692293,-0.146276145,-0.6969808274,-0.0758094719,-0.1584112319,0.7308608457,0.2383764601,-1.0035546826,0.3034342471,-0.0337916717,0.9903521971,-0.1653549289,-1.2245156924,0.9487318795,2.3790042337,0.09340235,0.8191912441,0.8728222009,0.6623477325,0.9102650912,-1.1727538309,-1.0197356481,-0.2361243427,-2.1785300153,0.0222845012,0.3439916984,-0.8233624687,0.8572283353,-0.8717251601,0.6059372336,0.1415070249,-0.9828660981,-0.451153195,0.5244056891,-0.2312798603,0.4214484808,0.2434223997,0.1355870823,0.43170011,-0.4667790075,-0.6008578268,0.311276468,-0.5797059628,-0.4232553744,0.3635608521,-0.1617408305,-0.0144132259,0.177445834,0.364116236,0.7288536508,-1.4524829216,0.2364081412,0.5608674638,-1.430595572,-0.3736386993,-0.1744861075,0.0180087947,0.8244275453,-0.1579009297,0.441330182,1.0845175352,0.033095397,-0.8754877223,0.5475841967,0.870097343,-0.8292842366,-1.0926946452,0.7368607117,-0.3120256207,2.3251325952,-0.1050935334,0.2819006083,-0.4186331384,-0.7983655958,-0.7001635042,1.0291615894,0.5352119106,-0.3696122328,-0.0741318118,0.8164940869,-0.0799836406,-0.7450054426,-0.4165831569,-0.4697227126,-0.8218837774,-0.7331483025,-0.6141864487,-0.2603405272,0.084590371,0.082858485,-0.9150262233,0.3289768503,0.8116603703,-0.5151882183,0.7830878321,0.1942892051,-0.6038621758,0.1376064017,-0.0786247154,0.3109271501,0.9503275395,-0.8589850917,0.11133152,0.0952179034,0.5669648265,-0.4059662474,-0.7392867467,-2.0904978641,0.613054015,-0.7137409874,0.4950115862,0.1606541616,-0.5095956753,0.0260636322,0.144373678,0.0648444161,0.2231267663,0.3321847216,-0.6455391274,0.4494831785,-0.0555915243,0.7310025506,-0.3640058002,-0.014857044,-0.4730141544,-0.4142100271,-0.1029954699,0.8326720826,0.5043258739,-0.745623933,0.2781434508,-0.7731651753,-0.398960438,-1.3364661849,0.4720316302,0.868386439,-0.6332411271,-0.7110263838,-0.4596259764,-0.9618286771,-0.2042599399,-0.6408449553,0.8080531232,0.6344530952,-0.4120962593,-0.5833728364,-0.7675418628,-0.9094925285,0.0544245212,0.9448142272,-0.9676868388,0.5085928204,-0.2099082803,-0.0127348341,0.7128623908,0.2206436593,-1.4740116828,0.731185586,0.504809386,-0.6933011387,-0.6013352754,0.3823199196,0.0944832191,-0.1697421064,0.7428511064,0.1686571011,1.0731929808,-0.757645835,-0.4147667863,0.5303310182,-0.2087400844,-0.7023291144,-0.2701656443,-0.256129241,-0.3110837908,-0.6031503904,-0.3698370975,-0.1765252488,0.4194752435,0.7832464805,-0.9388215141,0.0060752719,0.1372474551,-0.1629775813,0.3353260331,0.7182815453,0.6604999759,0.3206002057,0.9768418331,0.7855910231,0.6282793341,-0.0788669692,0.0253781007,-0.1647531569,0.1309058563,0.0804173217,-0.5464115209,0.2442798449,-0.5542499827,0.0603258892,0.073247492,-0.132858819,-0.1132395814,0.4725898987,-0.1180855632,0.8368563159,-1.0559301823,-0.909766102,-0.2880270708,-0.5838587604,-0.7757108232,-0.8243876501,-0.1038355394,0.7527357911,-0.2040802056,-0.7953967229,0.200062981,-1.0397001098,0.4485984444,1.3109137918,1.2810318203,0.2356577842,1.6612198392,0.0719913099,0.571089533,-0.2802571002,-0.7834800994,-0.4574559318,-0.3673181414,0.8229860076,-0.6138453555,0.798318269,-0.8308596811,-0.1064763773,0.9263544893,-0.6808521119,-0.724034915,0.8112002545,-0.4515946409,0.3368361107,-0.8301527266,0.7338298064,0.2426572113,-0.9117796863,0.7003211652,-0.2773817172,0.3890178025,0.1474929616,0.8217433047,0.3240451467,0.9701736403,0.2803887926,-0.8770454298,-0.7401604271,0.0366693204,0.1421619492,-0.5938350571,0.7071336774,0.7304923247,0.9143412938,0.0248548601,0.2949314108,0.4218246975,0.1466541945,-0.7175511675,-0.1770880816,-0.8461039382,-0.8675314112,-0.3291513197,-0.806999952,0.2296003131,-0.0142753062,0.7332988352,-0.541955179,-0.6503663708,-0.6016883114,0.7863020222,-0.1432580366,0.0070400863,0.4613282028,0.6082473921,0.974379472,0.3329429157,-0.78303772,-2.0272191619,-1.5266223666,0.1575506778,-0.1664216674,0.0198188217,0.0038053316,-0.7481015162,-0.0654075106,-0.639563885,-0.238531933,0.3877678711,-0.6474523682,0.802192184,-0.9411360079,-0.123646862,0.3736293337,-0.5888178971,0.5759555311,0.7567125265,-0.5112366031,1.081473052,-0.943166219,0.3802493234,-0.0176195173,-0.6670453577,0.967335619,0.3557956436,-1.272047943,-0.9791115973,-0.9045533835,0.5635676048,-0.2616313686,0.918816438,-0.207283697,0.563293772,-0.9206829797,0.1390086335,0.0561082827,-0.4998622174,0.8941985753,-0.821031985,0.0400332486,-0.5466813229,0.3069929949,-0.531453788,0.1327356427,0.7559919071,1.1015792356,-0.1013136326,0.0152631334,-1.8609407633,-0.2490178017,-0.1328043707,0.0883446792,0.1720725746,-0.0969259958,0.3086650832,0.1847176699,-0.7729505664,0.3144563987,-0.4649765795,-0.9407045604,-0.3268611537,0.6100017737,-0.9492226648,-0.5084702604,0.7113653184,-0.4200589833,0.114893132,0.5141962179,-0.6240540879,0.371407107,0.0976724972,0.2550614772,-0.3214056208,-0.1676359573,-0.5856034035,-0.3104748213,0.2616485911,0.420451804,-0.8707910307,0.1640377561,0.6055911336,-0.0296455231,-1.5736085459,-0.3696056197,-0.3942085882,0.7383887058,-0.2617949692,-1.8451932155,-0.0949867118,0.2559105304,0.4788279864,0.1713566814,0.6415583791,0.0055995098,-0.6397784507,-1.172528245,1.4981189173,-0.6812814925,0.0235662182,-0.8733693821,0.3288308373,0.942493343,0.0853085734,-0.2620051265,0.794682523,-0.0191977586,0.7058954242,-1.1342155867,0.5808269332,0.5787924048,-0.5746981139,-0.920939613,-0.2860518082,-0.0229097944,-0.5620469867,-0.8961383271,-0.5869960847,-0.9623911441,-0.958918413,0.4938499383,0.1054129387,0.8730571748,-0.5507018494,0.1949178278,-0.6598721138,-0.1294744482,0.1944633355,-0.948920447,1.601543933,0.2120988188,-0.4366436966,-0.251711329,-0.5452995392,0.2043176482,-1.2446467331,-0.2668697867,-0.524887395,-0.3402816002,-0.3229826367,0.655978798,0.3369394307,1.2435182964,-0.589006755,0.5051132103,-0.1161712107,0.2293254091,0.7736758767,-0.171528529,0.5274090638,0.8869330955,-0.3898494106,0.3920653549,-0.0345214307,1.0244504472,-0.386154702,0.9410704765,0.4818691012,0.0257069258,-0.333072783,0.7207463245,-0.5765777199,1.0869763177,-0.8469230329,0.3352016252,-0.1490840739,-0.0577852644,0.3424846287,0.0086646611,0.0031413961,0.0366278436,0.6308650504,0.1645432901,-0.9872076585,0.0796357866,-0.3163656464,0.0276858517,0.7558624443,-0.5563766703,-0.3746537466,-0.4305583898,-1.05562238,-0.8894715682,0.0306442293,-0.1989274286,-0.6434903745,0.1631302217,0.2938775382,0.5170090574,-0.186774583,0.3380261921,0.133695534,-0.581731477,0.1281040469,-0.4935172874,0.5208367437,0.4165870095,0.3416778457,-0.3698459254,0.3573248402,0.8105841735,0.2049325363,0.3827162635,-0.9622081966,-0.8390645705,-0.8283131411,0.3990514998,-0.6712719133,-0.1323249913,-0.2664776096,-0.2457491299,-0.9666174441,0.9254100023,-0.292840624,0.3963293562,0.3642876458,-1.0264584788,-0.4190008768,-0.0849518613,0.3546138361,-0.3300119744,-0.6277061454,-0.2094752229,0.2906914117,-0.2920490652,-1.1976024012,0.8347183447,-0.1323699874,-0.2757097868,0.436460745,0.1788087865,-0.619156883,0.8965218291,0.5995053951,-0.079625325,0.0484294774,-0.065783003,-0.6717813231,0.6923244981,-0.4168740952,0.0735617958,0.9362431618,0.3352461311,-0.1653076791,0.9895242343,0.8507658887,0.8833869639,0.8962325667,-0.4355773492,0.1332165779,0.5260191103,-0.2303831154,0.0257366116,0.2813809617,-0.1904588836,-0.0371203685,-0.3298002099,0.5924837354,-0.0820462291,-0.2881304333,0.9144045362,-0.1634701804,-0.8783364439,-0.3275640011,0.2547636708,0.3918442391,0.5799502925,0.1867579735,-0.8372195154,0.3499946965,-0.994268489,-0.8606545552,-0.4943440394,0.4319605321,0.0337473797,-0.0588548932,-0.415481853,1.22675689,0.1221165089,-0.5315893516,0.0093351058,-0.5061993423,-0.7518455116,-0.6414873507,-0.2351730989,0.6891363889,-0.0251010954,0.0762106114,0.1970102095,0.8961427791,-0.568249429,-0.9117176967,-0.1295983398,-0.2819643068,0.2185056363,-0.6740979073,0.490733283,0.4151491192,-0.0845085514,0.0197315729,-0.5434526431,-0.8940147847,0.7655113606,-0.0094719846,-0.5024195367,-0.4834381492,-0.7089530585,0.5424649511,-0.0863813687,0.5883541479,-0.7270574114,-0.4411594765,0.7380697573,-0.7474997941,-0.0431568934,0.7510677825,-0.4566683116,0.5785509235,-0.0696982731,-0.2703660487,0.6600367126,0.5785855922,-0.4209700037,1.2625593117,0.3462835444,0.2803561438,0.6263192438,0.4362025397,0.6420136772,-0.5754114812,0.6786618924,0.470542487,0.7380811121,-0.5431814259,-0.5249336574,-0.1672496166,-1.1688136515,0.3920447799,0.1868166932,-0.013928133,-0.1108221298,0.6534926544,-0.4005892057,-0.5535611254,0.614171949,0.7491981224,0.1602788601,-0.1729690587,0.5626911604,0.7386438704,-0.99319439,-0.1258746249,-0.4794522847,0.348187621,0.638937884,-0.6526231309,-0.3312804358,-0.5762075941,0.7760791263,-0.0177301152,0.6056633393,-0.7290146207,0.4815227965,-0.5299669313,0.2461730541,-1.1967029297,-0.9614231736,-0.6482937501,0.3079350205,0.9264004551,0.3919305984,-0.0874164075,0.4385955483,-0.3052357996,-0.7146297335,-0.561859242,-0.1082320545,0.307588189,-0.3045492595,-0.7332843093,0.0962664204,-0.1578190657,0.4827740774,-0.8667824382,-0.5365402746,0.1030793043,-0.1720962047,0.2514954187,0.8904852947,0.3682532407,-0.3797992397,-0.5334196867,0.6051502236,0.6440320515,-0.9065847371,0.8891117954,-0.8855823174,-0.8721478995,0.292506826,-0.328774866,0.0440085362,-0.0094018209,-0.0367971423,-0.6796966209,-0.2057070191,-0.0486514302,-0.6463377765,0.7399164335,-0.3539282595,-0.2512522827,0.0563201736,0.2407952898,0.4643436496,-0.1801685951,0.8301176765,-0.1408715176,0.2100852595,-0.4122845433,0.4182776215,-0.3949125243,-0.4065876432,0.2801629053,-0.2952761468,-0.5906600608,0.5360039787,-0.8044399471,-0.7611294045,-0.4623234659,-0.3531593826,0.8916352373,-0.2182907111,0.3579581164,-0.0918495758,0.3448978927,0.6187569771,-0.515824407,0.3539806463,0.5587101332,0.7852481388,0.7820810354,0.4520260337,0.7450138046,-0.8057437166,0.0010941788,0.3776854376,-0.9799229881,-0.31300044,-0.0788293643,-0.6566450599,0.670245654,-0.2077785249,-0.544821233,-0.5103539792,-0.6429800206,0.6866159111,1.0059413038,-0.2053544154,0.4176506087,-0.7214227116,0.3536842694,1.0110208372,0.2582708725,-0.9342624584,-0.5925720093,-0.5930139978,-0.901520883,0.3140376407,0.640037762,0.0002886596,-0.3151050761,-0.606117285,-0.3773079981,-0.3633106895,1.1580325988,-0.9998542241,-0.0329318609,-0.927937437,0.3207491029,0.3210628654,-0.2503509424,-0.9875821031,-0.2263304129,-0.088206064,-0.3026217805,-0.3896335748,0.4236085031,0.4535554096,-0.5284012176,-0.5778450274,0.1041413166,0.8075866077,-0.1569762895,0.3042261801,0.4310414377,0.1161109599,-1.1677964751,-0.5953678059,-1.1389613596,0.0764501875,0.3954618869,0.020876141,-0.0096604217,-0.5340161507,0.3304995234,-0.1629426342,-0.2148498142,0.1081599775,0.2667077135,-0.3765485332,0.004487228,-0.5046556036,-0.4346883929,-0.8595914252,-0.4654902914,1.2505865664,0.4224048363,-0.731775049,0.6519518492,-0.5136020829,-0.4133718218,-0.4200121077,0.3710583723,1.2548686367,-0.947730319,0.647727938,0.1957439072,-0.5637410136,0.7389871337,-0.5017659481,0.4198027616,-0.8178854066,-0.480072273,-1.1606050454,0.5538518942,0.8902975214,0.3434577913,0.6680666217,0.9513020219,-0.2862937586,0.7401906989,-0.5163858765,-0.0790615942,0.5290634368,0.2678749409,-0.7172872742,0.7146441284,-0.7775002244,-0.1439753637,1.6859741237,-0.0446576304,-0.7626937593,0.3384203149,-0.7309786246,-0.300415159,-0.6430529286,-0.1069547918,-0.277116356,-0.8655450947,-0.7440751422,0.2579246455,0.9308303145,-0.8530440295,0.291165069,0.6796143194,-0.4064728628,-0.8159178906,-0.5062630128,1.5963616715,0.7873220047,-0.1424487341,0.5559798582,-0.4965312543,-0.0221925401,0.3366171587,0.2820328469,0.9307620799,0.4103553369,1.0841617684,-0.1108273842,0.4339458767,-0.3695708648,0.6298679284,0.4345545675,-0.7747358806,-0.0411458907,-0.7588255917,0.3477837579,-0.741292176,-0.8000480009,0.5906897522,0.8727028833,-0.3473895255,0.911677975,0.6742336663,-0.9290537331,0.7387903233,0.6752572925,-0.0570042794,-0.0552206439,-0.4828831494,-0.3476439466,-0.0466890004,0.9104260266,0.43045558,-0.4617606922,-0.3095324677,0.4831735679,0.3308720719,-0.2668428746,-0.5112859882,0.2390310971,-0.5420107474,0.9078025571,-0.4451426953,0.1172872867,-0.4699645479,0.16473156,-1.0150008248,-0.2910105089,-0.5390612763,-0.9061479436,0.2428020537,0.6821063656,0.4258255619,0.0768947481,-0.0949879945,0.2463068244,0.7491884833,-0.8086524021,-0.5693883982,0.8497699504,-0.6466137544,-0.3572374856,0.7490990137,-0.3021628863,-0.1583416056,-0.07423413,0.7605064074,-0.9110190286,0.4552259329,-1.0771667504,0.2444296977,-0.9904895023,0.8891503192,0.2120864307,0.5099072112,0.42155561,-0.0997375527,0.674007938,0.3340270758,-0.3968911021,-1.4127656103,-0.4803167988,-0.0785370472,-0.0546138066,-0.0620718928,0.5423634956,0.5013201615,0.056477645,0.0194429744,-0.8393275854,0.630384562,0.018895303,-0.4255379325,0.862510664,0.2544427915,0.4260827714,-0.0346456585,-0.0432053589,0.9200751695,0.8017772582,-1.9746305848,0.1785650191,0.8532832223,-0.3822567997,0.3862790722,-0.4305330123,-0.3758305358,-1.1596078277,-0.1633331723,-0.7112275971,-0.1186605389,-0.771156585,-0.1295410034,-0.4901962511,0.1206763949,0.1404859922,-1.0435631158,0.9874204589,0.0399787855,0.9409186133,0.6702693079,-0.6403888144,0.8772434136,0.86098668,-0.8613151652,0.1803746317,0.5554013681,0.9745066799,-0.2237486642,-0.7430061801,0.0450152258,-0.4161772058,-0.9566392696,-0.3511997948,0.1021373262,-0.9383229365,-0.4644764889,0.8484932321,0.7450158081,-0.7583970114,-0.0418757111,-0.3850211913,0.439437383,0.817456442,0.2882133474,0.7078532606,0.5283241379,-0.6744522803,0.8091991692,0.5331196455,-0.4585405067,-1.6745821858,-0.2029607009,-0.422747209,-0.7060121675,-0.3703328802,-0.2640969006,1.3368719873,-0.849379487,0.7639368616,0.541110924,0.3119344931,-0.7250640966,0.709404884,0.0757546087,-0.2025132659,-0.5256174114,0.0883262734,-0.3789172092,0.5293160059,0.8284407336,-0.8727052716,-0.622167144,0.4779330619,-0.6541278914,-0.7143744158,-1.1653169058,0.3448165419,0.9137780764,-0.3774431553,-0.5846975891,-0.3805382108,0.520482582,0.5861115101,0.7481623831,0.590542005,-0.1772353612,0.531770653,1.3593370882,-0.8533819923,1.1329997019,0.5685209347,-0.7895256431,0.0049355332,0.8750430485,0.0160128884,0.6069109243,-0.3503634236,0.7223404,0.0524214203,-0.6827853088,0.7607166302,-0.4171281006,0.6330286215,-0.3059764259,0.2423881206,-0.2449209465,-0.5705277868,-0.3656009335,-0.7100359576,-0.929428917,0.0788027496,-0.1494679259,-0.1068194729,-0.8039897027,-0.8097231752,-0.4105666177,-0.1048731664,-0.6961068384,0.2989469439,0.3917010722,0.5151138032,1.026060546,0.3747500972,-1.3524694297,-0.9348017804,1.3786159774,0.5810824004,0.6798843361,0.3929030071,0.1321499766,-0.2542827241,-0.7041535473,0.7197916142,-0.8760803302,-0.9360093269,0.5068344787,-0.7463249154,0.4576960516,-0.9334476442,0.7493931814,-1.0065772937,-0.4535144724,0.862332444,0.9608330163,-0.7330935548,-0.4141439999,-1.0828643154,-0.9065475588,-0.2376108673,-0.4684471387,0.4064530444,-0.6946197369,-0.0789918021,-0.9566076777,0.7325882143,-0.0785709171,-0.9206266475,-0.0824102739,-0.2830348446,0.4068939693,0.7350485914,-0.1243949096,0.0274502693,0.8613978783,0.0959642679,0.5152761352,-0.2795442288,-0.1003531163,0.3281014691,0.8822137715,1.8459399292,-0.3207370858,0.0827583129,-0.0902957191,0.1390280083,-0.3652581587,0.5466490885,0.1721764547,-0.4140757383,0.309111101,0.2464578083,0.9055292873,-0.9488191067,-0.5602419114,1.4268272712,-0.4059019147,-0.4586627883,-0.6094923341,-1.0018886423,-0.2236931882,0.243212687,-0.2836680368,0.3895077962,-1.0281707933,-1.0911711156,-0.2228433554,-0.9184898444,0.7999712998,0.1487569883,0.2898806508,-1.9422489344,0.9864479684,0.0330433577,0.5714602776,-0.9635271447,-0.363267349,-0.4435483397,0.6236426274,-0.0277886207,0.3346304834,1.0413671172,-0.2211041745,-0.1264920261,0.8310517776,-0.1306816662,-0.5087467371,0.2997053372,-0.2593904105,-0.2685937279,-1.3005959964,-0.5476571039,-0.1656780909,-0.1536276858,-0.0500623267,0.8116917421,0.2865145149,-0.1066727779,-0.6439435153,-0.0681702118,0.8238608845,0.622432165,-0.0105918779,0.324169632,-0.4740879161,0.5360686885,-0.1255921307,0.8555695049,0.3257011945,0.0094999741,-0.0948834228,-1.7169160572,-0.4066223712,-0.0695272636,-0.115604961,0.3911392859,0.8145151613,-0.2301874713,1.0664883521,-0.0563184555,-0.3456432468,-0.1074573939,-0.9816186725,-0.1554341976,-0.6706598006,-0.4053155082,0.6070891158,0.0678460612,-0.264016822,-0.6126095293,0.3384417992,-0.3803244617,0.017224107,0.4302804182,-0.9692639447,-0.2421210193,0.374334758,-0.7837264291,0.4093612985,-0.9659074972,0.6841072841,-0.1840159433,-0.5473470273,0.4327998419,0.449068627,-0.3626470317,-0.1219972194,0.753503174,-0.0866223208,-0.8957254105,0.2163936338,-0.4913293451,0.029529608,1.0666706047,-0.1186169208,0.1410103578,0.0549963856,0.4793440253,-0.0183904805,-0.2201535591,-0.0297374208,0.2356806174,1.2081208099,-0.2194780175,-0.6850865087,-0.746434864,-1.1468451931,-0.1639450998,-0.5263934565,-0.255353747,-0.5676180025,-0.3377029762,-0.7318059083,-0.202717213,0.4717642707,-0.2271179864,0.545997189,0.1906249735,-0.1705806144,0.1584294384,0.9415597479,0.2102320054,0.7383442688,-0.7803725528,0.1847529754,-1.2246024462,-0.4386301199,-0.6208282351,0.3701631899,-0.0894412559,-0.7457819224,0.4212982665,0.0437502753,0.6110705771,0.7058213489,0.4626668691,-0.3323573616,0.4702917483,-0.5820499583,1.2175374485,-0.5802845342,0.0561114138,-0.3279792407,0.9786264263,-2.025397367,-0.0722122453,-0.9322407146,0.5341783737,0.3570518996,1.098386134,-0.7650854578,0.1316902006,0.4485578533,-0.8138671069,-0.1334429822,0.6462345795,0.3932129841,-1.0867507332,0.0774299086,-0.0688756814,-0.0846529282,-0.523921705,1.09365287,0.4451470134,0.1841366504,-0.2340930298,0.1100690677,-1.2155638758,0.3556501737,-0.8980512836,0.7984789574,0.5639277109,-0.7953708339,0.780299424,0.2236437459,-0.7286695897,-0.047141496,-0.7566127684,-0.5206330193,-0.670214489,0.0117397911,-0.5604303519,0.5097724332,0.5151142195,-0.433201582,-0.6954095516,-0.3660371972,0.8488915454,0.4031339786,0.4985451218,0.2251659076,-0.1661406005,-0.9454510672,-0.8885390122,-0.1708094516,0.8242471653,0.0282512428,-0.0442461686,-0.7806029301,0.1243903171,-0.9023690209,-0.3883584819,0.165463497,-1.033036797,0.7827582741,-0.2258768682,0.3623167774,0.5409007497,-0.9071392888,1.0198192747,-0.8454037175,-0.1098757528,-0.4057662532,-0.6818861788,0.5516133288,-0.3646032908,-0.3332375359,-0.4987979776,-0.0454701854,0.5849763335,0.0878601163,-0.9543653629,-0.6655175095,-0.6799395225,-0.8053339793,0.4043418868,-0.6535858852,0.5373078328,0.593396602,0.8004317817,-0.7570521794,1.5310357725,-0.4263556572,-0.0858867597,0.2626773086,-0.213635251,2.0131588246,0.2987648916,-0.1576699713,0.4134924437,0.7470643138,-0.5815824335,0.641456043,-0.0108976705,0.9267156252,0.2347850145,-0.713751683,0.5931017207,-0.3193770035,-0.5555163831,-0.6262759495,-0.0322089731,0.7645402308,0.6277330217,-0.2492648456,-0.8505833798,0.516141798,0.3256359408,-0.5588745933,0.0100288907,-0.1410123473,0.6138112258,-0.8720742341,0.340025507,0.3790625889,0.8479365191,0.0115027146,-0.0547394797,-0.080914319,-0.8978223918,0.4503959689,-0.6395623143,-0.4682762338,0.2043577219,0.6718648172,-0.843891663,0.9699099626,0.7805061198,0.8806640429,0.184343731,-0.6514461647,-0.7390623897,-0.3706062918,0.9079442385,-0.5602911583,0.6163728963,0.9040254292,0.4788515355,-0.8445335932,-0.084394711,0.4017432302,0.4172766993,0.5202184648,-0.1743185015,-0.3304087991,-0.7353226475,-0.9818252798,-0.9183572717,0.4990390532,-0.3570112838,0.6280019436,-0.7915050698,0.2396903808,0.5377718383,-0.1731372454,-0.1704900674,0.2705328207,0.7289770317,0.4338722613,0.9823203546,0.9436218946,-0.3534683616,-0.9029697204,0.4514072276,-0.0507780847,0.1171092807,0.194507807,1.0106903331,0.424296545,-0.1331251164,-0.1747033637,0.417774239,-0.1371884627,-0.4165243214,-0.3352083331,-0.4644555939,0.7300882176,0.6589436078,-0.3660830697,-0.5406195472,-0.0563990157,-0.6882827693,-0.4983679763,-0.4935911941,0.0908851099,-0.7829665793,-0.9460816882,1.0159854378,0.541139233,0.3116509549,-0.6191500278,0.3808518158,0.1609674924,-0.2673319254,0.5739065305,0.7030202658,0.0248130269,-0.7207063317,1.027009672,0.6782158599,-0.9049868463,0.4176799926,-0.2333257269,0.5431783296,1.0086794795,-0.3132751767,-0.5254274131,-0.4469489807,-0.3876240641,-0.2264513589,-1.1434886804,0.7740287249,-0.7132439729,0.2163388934,0.734328749,0.9964663445,0.5527969551,-0.1763166134,0.8738924266,-0.7237768295,0.2574195915,0.4911756413,0.7820420583,-0.0452957347,0.0153703592,-1.181191256,-0.5025321308,0.4732944554,-0.1780977902,0.8855750206,0.8134711415,0.1071294012,-0.1364624239,-0.698141083,0.2987353466,-0.1781567919,-0.5503432084,0.0368174648,-0.7939815239,-0.9290392322,0.7550260426,0.064466918,0.3013989876,-0.7900717279,0.6030957613,-0.352273947,0.1455397338,-0.2586570455,-0.7726046692,-1.0608550651,0.0710429115,0.8375880169,0.0736671695,0.6218539223,-0.5077450591,-0.5046325824,-0.1137492438,0.441708783,0.670525638,0.0452654832,0.2187467886,-0.0224003986,0.7816273387,-0.3658450787,-0.7774248979,-0.0974320859,0.0198111423,0.2432238027,-0.2990990651,0.4889609946,0.6282935837,0.4988488444,-0.4863409731,0.5440406469,-0.1684693851,-0.2820230557,-0.5753737638,0.4152489614,0.379961171,-0.9685887138,-0.4576727365,0.9182306345,-0.3384749446,-0.808141232,0.1369495651,-0.8216967542,-0.9254684488,-0.0517794469,-0.2465114164,-1.0300735796,-0.0697245167,-0.7847857552,-0.0438562254,0.7229812466,-0.9816139026,-0.8873982003,-0.6714668737,-0.7180941022,0.523911432,-0.2805340152,0.9530175094,-0.5378120194,-0.3151427337,-0.2572020036,-0.7122554758,-0.6087232573,-0.9174090932,0.6700211147,-0.4120522552,-0.0231929511,-0.6146968187,-0.7507632626,1.2558477239,0.213736207,0.2791247283,0.1479440719,0.0235929642,-0.6136472047,0.0943461779,-0.8937800162,0.3526979993,0.4059298,-0.8627540317,0.1765441582,-0.6791821283,0.1667341802,-0.7463031597,1.3007017779,-0.934716263,0.9215148217,0.879341832,-0.1379583003,0.1974288503,-0.2748104826,0.4708478195,-0.6158194437,-0.3347679807,-0.9868329139,-0.4671290148,-0.6829420077,-0.8394220604,0.0611178064,0.2687514993,0.2341143232,-0.0030037795,0.8123233611,-0.1043814491,0.3762273587,0.0452737199,0.4620880696,-0.2854617085,-0.691029858,0.9805192764,-0.4591611823,0.9317819993,0.1418080413,-0.1441896137,0.6906145888,-0.6348407526,0.9088399854,-0.4365565452,0.3938153864,0.5053818747,-0.2096289585,0.4831067214,0.7640360565,-0.5533163455,0.0847965396,0.015919727,0.6444818643,0.847017085,-0.4776934215,-0.7031606499,-0.3428426347,-0.2562137981,0.1466927987,0.4373993318,-0.6015590976,-0.1828740101,-0.8831715057,-0.3790071288,0.5536949154,-0.4809028765,0.1416870738,0.0297234338,-0.1212186838,0.2206152203,-0.4581009588,-0.5048901928,-0.4568196018,-1.5554499669,-0.0246721883,-0.9060078359,0.0748070354,0.1913685638,-0.8635543394,-0.0761140743,0.2594178127,-0.0375227675,0.8524430349,-0.2795818362,0.3719925869,0.9486432497,0.9340234523,0.5037978939,-0.5998172145,-0.887528613,0.2777401458,0.0741030515,-0.3362198625,0.1291118875,-0.7868375304,-1.515274127,0.8361497169,0.1048671788,0.2861949361,0.4529711724,-0.3602923059,-0.9059090249,-0.8904113178,0.4147613801,0.1828045982,-0.9125720588,-0.8096413983,-0.8819431136,0.7413496415,-0.063584386,-0.6245593705,0.2074051073,-0.357387308,-0.8070327872,-0.2899503934,0.0322057211,0.4089968311,0.6688253002,-0.1918358494,0.6825809343,-0.1252909699,0.5840601584,1.0049369248,-0.6275940093,0.5939650067,0.4324219545,-0.5931028854,0.138734319,0.5098513559,0.1677057475,-0.8461880232,-0.8015214293,0.6849894487,0.4131106739,0.7783485172,0.4943179556,0.4341027097,-0.066422641,-1.4259426713,0.3638358645,-0.352205377,0.3066877381,0.2721363481,-0.687798697,0.7273388509,0.5129514016,0.3779081962,0.9593134123,-0.5357821755,0.6057865261,-0.2077671883,0.0788932491,-0.2824908844,-0.6468436349,0.2036369786,-0.4945564727,-0.4739004816,-0.4992636133,-0.8757663797,0.2608432089,0.0310782805,0.209557111,0.3273821471,-0.8389286428,0.9932129975,-0.2096964834,0.5278242143
   -0.8235556932,0.5113478464,0.2186847147,0.0654130722,-0.9186398046,-0.4646693189,0.4553762104,0.0144056444,0.3141685485,0.6310853402,-0.0544590756,0.3741842541,-0.5144420121,1.0316294887,0.5150346557,-0.3203327274,0.5639193224,1.1896555918,-0.3012398321,0.6449615455,0.5549082981,-0.4678692578,-0.49240994,-0.9068617902,0.0225096113,0.7984635991,0.1743597798,-0.7135181122,-0.1814864869,0.9870041037,0.9626821189,0.1992781531,-0.2755007092,-0.004628461,-0.9298583025,-0.6593505909,-0.1990105616,-0.1855338783,-0.5739150285,-0.7995078039,-1.1545288322,-0.9241897041,0.0757271416,-0.4794080437,-0.6183148322,-0.4110109585,0.8114919935,-0.5324170068,0.6175661404,-0.6554365063,-0.4817930562,1.0400901694,-0.0875203353,0.2129990173,-0.7415938389,0.9573837088,0.5250629275,0.0155180957,0.1888447363,-0.5474148206,-0.7758219005,-0.1498838801,0.0230035359,0.2051394812,-0.7472136178,-0.4537929474,0.6493625401,-0.140834907,0.1974375494,0.0662805116,0.1784623804,0.2498304825,0.1094951842,0.6504863006,-0.2906538245,0.7301010611,0.9572077742,0.3846081885,-0.0288195987,0.3350808983,-0.3401832249,0.5997030765,-1.191207328,-0.3433746593,-0.0655091321,0.3483897724,0.4372523373,0.656855967,-0.7944382787,-0.2895499882,-0.8521339882,-0.0574258105,-0.0992122635,-0.8676572777,0.0134409991,-0.0494885586,-0.4812491534,-0.0446844149,0.0396021524,0.8064854201,-0.4927615403,0.1106936963,0.8021770277,-0.8468993796,-0.5788082666,0.8958331183,-0.3196554774,0.0562752376,-0.6466417779,-0.0678089286,-0.9189754068,-0.2330469709,-0.1517818978,-0.0273395338,-0.8848094599,1.0005795178,-0.0554724803,-1.0403800375,-0.3600278809,0.4834902403,-0.523995686,0.1596277616,-0.1230995232,-0.0792320683,0.2255898382,0.8896019417,-0.9386325905,-0.0974261571,-0.185047284,-0.7132839913,0.2220317459,-0.4123963046,0.0311617917,0.0666927978,0.7598784987,0.4371702087,-0.2499444961,-0.8916528915,-0.1147623896,-0.8827949296,0.8890905804,-0.556440366,-0.3305785657,-0.9283958621,-0.6123887266,-0.4098477673,0.5033955371,1.0229779535,-0.7202163818,0.65553329,0.9791822649,1.2341897124,0.9676053457,-0.4229042713,0.0684887938,-0.9912104043,0.8808559213,-0.2730335354,-0.4982055408,-0.5515126739,-0.3752073781,0.1322669363,-0.1662603296,0.1637414229,-0.1833448654,0.6200226058,0.3935654055,-0.2155901232,0.5622974952,-0.6547673125,-0.8560659261,0.3762659924,-0.2184872238,1.2068852659,0.1644880948,-0.8719229615,-0.3541797052,0.9070244585,-0.919425983,-0.1050221078,0.1270276,0.6843400745,0.9000005136,-0.1446811904,0.6802415795,0.0046708934,-0.6172322527,-0.0307499476,0.8118254742,0.0010027476,-0.2585344191,-0.6230934491,-0.3721798915,0.3554125645,0.3040204645,-0.3244481536,0.1256631706,-0.5060673823,0.5263173335,1.4130970347,0.5664685689,-0.8561119826,0.1154200434,0.5158656606,1.1098258058,-0.2325553616,0.9028180744,0.0083745562,0.4496727212,-0.3620243908,0.1485724092,0.5548981604,0.4405886062,-0.9366125231,0.2448030121,-0.926072909,0.8710440286,0.3115607213,0.5891021883,0.4628765227,-0.9208744077,0.4795986432,0.0305238433,0.0767863902,-0.2745474196,-0.8943678328,-0.6337480634,-0.413913634,-0.6812822373,0.2894453081,0.109912547,1.1779374852,0.0069748599,0.9052456979,-0.835910874,1.1590099508,-1.2049626228,0.9094234275,0.0699413918,-0.7572016977,-0.7591239862,-0.1409628473,-0.2043682775,-0.1700670887,0.315563721,-0.8639992668,0.0253921413,0.5966229474,-0.5795695716,-0.2702009221,0.1011562972,-0.5894981302,-0.4200015168,-0.837183055,0.549780212,-0.4460742822,0.0329300607,-0.6822610966,0.5065181413,0.3712191282,-0.0905833977,0.7599675853,0.294437896,0.0193728614,0.8937760691,-0.7322531015,-0.6384012214,0.4791066882,-0.3746016674,-0.8846063843,0.1483109678,0.3207696345,0.3798119336,-0.0817019564,0.0875094137,-0.253491176,0.4999055089,0.4846685114,-0.1117587244,0.2662287921,0.5150458024,-0.260480097,-0.2582871336,-0.2972775106,-0.8459161281,-0.8751758443,0.0597633211,-0.0984654923,-0.5701034569,-0.4030146492,-0.7885560205,0.8485492305,-0.7517024349,-0.9400599033,0.8669450603,0.6998382516,-0.1890025375,-0.2553980688,-0.7963881439,-0.6399428953,0.2089089676,-0.2297635238,0.8881673031,-0.6867662908,0.4961464424,0.8921136914,0.7793262199,0.2068344241,1.3306663459,0.9841657461,-0.471852491,-0.3469804527,-0.4038972799,-1.5478078383,0.5586850884,-0.9769651815,-0.2606169061,-0.2884394995,0.0533051549,0.7282488277,0.1676297239,-0.873771951,0.8859891364,0.4030676162,-0.6746479795,-0.6320634621,0.2969010535,-0.6659524606,0.740472026,0.7959841722,-0.4682473965,0.8334620041,0.6217355254,0.1683849779,0.3435689663,-0.7617433009,-0.293370101,0.5087549831,-0.1487678707,-0.4426218723,-0.5554594653,0.9656296317,-0.9605298137,0.3455980792,0.7993452613,0.8299336698,-0.0500992534,-0.4527824539,0.0976579782,-0.2443390585,0.0800179639,-0.3451150974,0.7200754804,-0.5837585226,-0.1499783417,0.9142275639,0.3289960464,-0.3892284992,-0.151981099,0.1399638816,0.8900479242,0.3935067635,0.1476437054,-0.9315191731,-0.1552446968,0.6753665798,-0.0294795907,-0.060377553,-0.2928015983,-1.2437173725,1.1132582351,0.8578132405,0.2173835668,-0.3350587827,0.9045143735,-0.4863972217,0.8722134501,0.3387441464,-0.3205660144,-0.1126670429,0.6652378127,1.0809143242,0.7963477127,0.3786082174,-0.1140049191,-0.3901177247,0.3250995449,-0.7009850988,0.1756280359,0.1327836757,0.4298778761,-0.1971548872,0.7499708535,-0.4472494348,-0.5646104236,0.4482463868,-1.1459898552,-0.0359073357,0.007080162,0.1098658208,-0.8648975315,0.2630506057,-0.3620713079,-0.3241994422,0.0078836171,-0.7078932793,0.0593212561,0.5052671497,0.9112528354,-0.243502753,0.175046309,-0.8913567085,-0.7083027122,0.2524668565,-0.7688664605,0.3101217401,-0.5814652813,0.9689099064,0.3476209403,-0.2045707517,-1.3337278859,0.1022175875,-0.4641145043,-0.7372348742,-0.3747647766,0.9148971298,0.2817680972,1.4366515579,-0.6675962036,0.0269695506,0.6251736668,-0.1155739049,-0.9846299379,-0.5384806684,-0.554436589,0.3086385431,-0.3004967408,0.9034779959,-0.4527008564,-0.9291077761,-0.7072538725,0.0167414715,0.9494187244,0.5322615051,0.7735224362,0.6827288879,1.0054984235,0.6564277174,-0.2220066384,0.7395028985,0.38808108,-0.5220336205,-0.2163262907,-0.2138283239,0.5801137642,-0.084781962,-0.376362748,-0.8261791783,0.9920458261,0.8685856503,-0.0034518927,-0.2827155576,-0.4994916947,0.9838872524,-0.669911426,0.7851756673,-0.405966972,0.424416447,-0.1712450826,-0.1990460915,-0.1587403852,-0.5110489394,0.5075191334,-0.0400021939,0.1767234405,-0.7920850479,0.4591846108,-0.848164487,-0.5448779715,0.6944943149,0.4707500145,-0.2835206185,-0.9618701571,-0.0512354246,0.0912957874,0.4491457428,0.0493974416,0.3125445438,0.3544598711,0.8594172751,0.2737110345,1.1233409281,0.3628130545,-0.3987060962,0.542573976,-0.080136525,0.8336446687,0.5870374566,0.5107072701,0.4460707924,-0.9426961148,0.8954403968,0.936541652,-0.100887014,-0.3505392588,-0.916434544,-0.4108860911,-0.3108025538,0.6511376148,0.9034198129,0.5956579293,0.7352854649,0.7841427374,0.4609707739,0.3012427729,0.7090015637,-0.5592130493,-0.6459955495,-0.7135589215,0.9531964868,-0.2700429534,0.0950545662,-0.8018048163,-0.3056578556,-0.0796749789,-0.8560062199,-0.634416069,0.1383782994,-0.9318742295,0.2989087454,0.7095667963,0.3777490221,0.9610183228,0.1134532395,-0.4201459988,-0.8869105662,0.2495050473,-0.6979152809,-0.187347626,0.3566186716,-0.3272506913,0.3059543589,-0.6960821116,0.2968472282,-0.8212219034,0.8018277092,-1.093605882,0.6546128369,0.586397166,1.3098329314,-0.2821366928,-0.2685816064,-0.6908326767,0.6499574897,-0.830659336,0.1321659163,-0.5552740444,0.3683426951,1.0619857749,-0.5407244333,0.741222255,0.3325336374,-0.0153450199,-0.7224776921,-0.4718685206,0.7900000967,0.3884704052,-0.0846406033,0.3281764272,-0.5536773376,-0.2322767013,-1.9886657642,0.4824638667,0.3348842659,-0.1137316104,-0.5440008953,-0.3821680034,0.3804786349,-0.1833294596,-0.4534206377,0.7248421288,-0.8438126768,-0.5347714476,0.5762953547,-0.9393332252,-0.4514490718,-0.5669524251,-0.7169115531,0.590879764,0.3245720285,-0.5112217881,0.3782380743,-0.207997028,0.6650501421,0.0634120385,-0.0179547123,-0.1326392239,-0.1974700448,-0.6038522197,0.3503905867,-0.8757302098,-0.9239811682,-0.7592125129,-0.8330112377,0.4708961651,-1.4879955319,-0.0824707638,-0.3414660258,1.1490378431,0.121675381,-0.0177513895,0.584628318,0.2984813112,0.6616216177,-0.7313907346,1.9749417742,0.6459839791,1.1385671945,-0.7157628252,-0.1448936018,-1.0539919034,0.1503867454,-0.5375035053,0.2008712161,0.5207848157,-1.5927774462,-0.9627861177,-0.4237719745,0.3941167982,-1.3678398116,0.3012301002,-1.4240102442,0.7202830073,0.4208016392,0.8826002596,-0.9070152699,-0.4348371502,-0.2242312431,0.2672212949,-0.8393277496,-0.0012829714,-0.8873370699,0.7832166074,0.1690845892,0.6138718664,0.2465322381,-0.0204609923,-0.9018542947,-0.3785374422,-0.9398448502,-0.3506721558,-0.699570501,0.7931366476,-0.1291632756,-0.499609402,0.2731263967,0.8375884577,-0.630734893,-0.510811358,0.349320158,-0.2056314346,0.9730276097,0.8631557527,-0.7159997921,-0.9094313113,0.2026731474,-0.5783592798,-0.679833016,-0.2578199533,1.3569277462,0.6931259653,-0.893673876,-0.5737134098,0.4722118748,-1.1499971501,0.5836838194,0.6332176688,-0.1743070252,1.4353892274,0.5181895554,0.8550085846,-0.6329848677,0.0011287146,0.6662961881,0.9652765802,-0.0172319578,-0.9948401262,-0.740088577,-0.277444539,-0.2585492857,-0.6010881936,-0.9837644022,0.8798912031,0.1663577014,0.3966215635,0.4066005436,-0.9837220245,-0.6744253109,-0.5821680403,0.4079980621,-0.099194741,-0.1226587753,0.6465460344,-0.5730580229,0.2317840175,0.1937066104,0.3979079311,-0.9190367037,0.7652383729,-0.4282417321,-0.7934170008,0.7982643592,-0.3129474162,0.5052893204,0.5219382398,0.1738841274,-0.3806884434,0.7005829357,-0.0397770234,-0.0040616759,0.347761951,0.7671181985,-0.7923088523,-0.4685887293,0.2683325037,0.1359251034,-0.4691893772,-0.599442981,0.1033619467,-0.2169740976,0.3151478111,-0.9822338133,-0.8817241711,0.9104030992,-0.8776521804,0.2630905622,0.7400482584,0.2669943947,-0.5265484651,0.2978282339,-0.3199467983,-0.7576528185,1.961371183,-0.1756387772,1.3094806526,0.5279526841,-0.0595020961,-0.2179851837,-0.3904413127,0.0734661118,0.1761459384,0.8277871892,0.1140266309,-0.6622494161,0.5784621496,0.4724088506,0.2981608602,0.8367673789,0.8127167428,-0.6884784164,-0.0667116382,-0.7170592564,-0.4506596855,0.2254804703,-0.4017454606,0.0135661617,0.6129748924,0.3601545764,-0.5312060823,0.1564836328,0.2793938109,0.4236087571,0.1052565549,1.028024233,-0.6318485041,0.1645869855,0.7662749312,0.9767476702,-0.048197122,-0.9749171174,-0.2096790878,0.5951792306,0.2388883673,-0.5041082101,0.2392939648,-1.0239590763,-0.6882012251,-0.0715569337,0.3491198652,-0.2013490648,0.2870231789,0.5029026516,-0.5842901803,0.0769705054,0.7123866491,0.8811355898,-0.4963594735,-0.963391407,0.5998855322,-0.3793144161,0.0790548355,-0.3737464073,0.0081405719,0.2008549599,0.1809888333,-0.5193345311,-0.9819037516,-0.2566327178,0.6004552937,-0.4424291084,-0.395846666,-0.6272786683,-0.6336774594,0.6111207545,-0.6822179761,0.0312194763,0.9744767319,0.3609456299,-0.9517237833,0.5085573841,-0.0152198682,-0.9254179695,0.3964314602,0.416374172,-0.77563138,1.925139259,-0.9237904827,0.1003482383,0.039796995,0.0730714742,0.8285038765,0.5226760618,0.2862631607,-0.8038498251,-0.1565200251,-0.0328955192,-1.3143476988,0.327130528,-0.1437472781,-0.2066173043,-0.08055541,0.7537664665,0.7344038547,-0.7298967993,-0.5366203293,0.1286770917,-0.9446498478,-0.1770693563,0.8786425838,0.3593242792,1.0557122387,-0.3202650441,-0.2477897718,-0.9267239863,0.740396916,-0.1082113493,0.0041152146,-0.1966334081,-0.4679890897,-0.687904409,0.1285575008,-0.1376055156,-0.6587904142,0.7893313627,0.085032151,0.5883669073,-0.6565594494,-0.0389047088,-0.8443011622,-0.2400501768,0.2654939539,-0.9179732454,-0.8472358949,1.1134788143,-0.2213143538,0.0000899999,1.0894972316,-1.090880564,-0.9764664692,0.8081074758,-0.3185845445,0.0289653119,-0.5361864539,0.5707691537,-0.5495816035,0.8349329685,-0.1468068027,0.1315103975,0.6410097998,-0.6244197182,-0.2402251058,-0.9760857303,0.1884364983,-0.2140511624,0.2337493465,-0.2419775954,1.0959066489,0.7098804385,-0.9843187582,0.3314910741,0.1974664377,-0.5497386828,-0.3771159281,0.6345694015,0.4356985286,0.0842707925,-0.3392867009,0.1670226137,-0.6084335947,-0.3998510903,-0.3456099653,0.3688073907,0.0791328203,0.2585753032,-0.7207982301,-0.0942529993,0.8005744302,0.1313515031,-0.6532478872,0.6445361807,0.6405592062,0.167644818,1.1909687491,0.3267805364,0.6201083292,-1.1349082303,0.882203155,0.0171264872,0.2240342008,0.6972798416,1.0126728699,0.0815743029,-0.4632538084,-0.9891214861,0.6557353355,0.1060529101,-0.6046072002,0.1310470201,-0.2385052767,-0.1291105286,0.9432640059,0.8711364297,-0.0655790079,-1.0960364047,-0.7270984369,0.1219368343,0.066087126,-0.2583322494,-0.2233642946,-0.6490520437,0.0912576684,0.2679095284,-0.2905283921,-0.3118375721,1.0187828182,0.4639760161,-0.3581687408,-0.157546434,-0.5781609444,-0.9581892763,0.2175022767,-0.6336872933,-0.0691696359,0.7000324594,0.402049322,-0.0707326119,-0.9249542138,0.4905134489,0.072249536,1.068892968,0.9699594627,0.0506053589,-1.0541460519,-0.6439394766,0.9944322624,0.6116091296,-0.7316073625,0.9144261168,-0.0589398696,-0.5934330409,-0.7895881388,1.2755106741,-0.0988414295,-0.8466837532,-0.3109044843,0.2571523078,-0.2070259762,-0.8951265341,0.8217126881,-0.3475657416,-0.3964142897,0.2007599202,-0.5890771517,-0.212806853,0.7959589786,-0.608881274,0.6879650205,0.5033796123,0.4766453465,-0.4373625186,-0.0826803955,-0.0033380082,-0.1590347629,-0.4580931221,-0.4958377631,-0.4167562863,0.2875111861,0.2075749027,0.1321032823,-0.2588249253,0.0926972702,0.207603191,-0.2810629742,0.4165053593,0.6333095178,-0.3720977705,0.0736433172,-0.7983023101,0.919720144,0.0241539574,-0.6721060451,-0.9908849589,-0.004110204,-0.0238837566,-0.6371062348,0.8049190846,-0.0995978122,0.3951950902,0.5104005038,-0.664530444,-0.8607404223,-0.0533776933,0.4246620606,0.5912792749,0.3565010552,-0.2530935681,0.1407703587,0.5840617604,0.3730759213,0.6790165604,-0.0113477914,0.910692883,0.6003683013,-0.3583782181,-0.4175013763,0.2526062381,0.7520369913,0.3834306214,-0.1000037156,0.7154802848,-0.8410195815,1.2641170432,0.3773590482,0.3923280994,0.5220002945,0.2748173986,-0.4727291808,1.0328340286,0.1894899443,0.6027953287,0.2130174335,0.0658684441,0.423547926,-0.2667980965,-0.3270396537,0.9011406968,-0.5645566506,0.3042533381,-0.3651988401,0.4959056865,0.517996422,-0.7059124446,0.0282896016,-0.5775665049,0.2134109099,0.5801335723,0.0666793086,0.5120674891,-0.6242324374,0.7870369916,-0.9529950819,-0.2431526174,0.4687374411,-0.2404878754,-0.4370991241,-0.4653526478,1.3059542615,-0.1678091842,0.5682859108,1.0356423756,-0.1109111268,0.2189405423,0.3301979651,-0.2314980207,-0.0513851522,-0.3676878993,-0.3292713816,-0.8774352261,-0.8215333374,-0.0358459785,-0.0576183855,0.3791075202,0.5374526502,-0.3255483386,-0.6159500877,0.2035349847,-1.0552454497,0.2994273335,-0.3744218294,0.5851340071,-0.5277230034,0.8657550651,0.4159830033,0.9034692072,-0.3796509263,-0.7744255977,0.8771040558,0.4833771132,0.9309456936,0.7385058076,0.0793694894,-0.144654288,-1.2965802189,-0.1467014578,-0.08143265,-0.036207847,-0.0789035173,0.593974034,0.8515309372,-0.2775146886,-0.8167322383,0.2544810202,-0.8617183668,-0.5084250825,0.656119942,-0.4226125004,-0.7377322407,-0.1804069219,-0.2784332345,-0.3021263813,-0.9000057214,0.6836712235,-0.1065369236,-0.7295195878,-0.8040482734,0.7407442032,-0.8092320813,-1.040643398,0.7228613964,-0.177312487,0.1334123759,0.3973674272,0.0664998676,-0.8280175779,-0.0420124549,-0.609878955,0.516042103,-0.6178562091,0.6012181816,-0.1542200382,-0.3882050034,1.2266358648,-0.0794907801,-0.5849931262,-0.7038113443,-0.0146275638,0.0218872595,0.6040314957,0.6620213122,0.6881648445,-0.0400520392,0.7245004113,-0.7652772735,0.1848137969,-0.7563561157,0.4694938343,-0.922260528,0.257155413,-0.4718962,0.4550290675,0.8139964656,-0.1858284356,-0.6574904791,-0.5735812287,-0.8295898718,-0.9073991672,-0.1944483013,0.426693748,-0.7762914594,-0.577729284,0.2582746827,-0.5278700372,0.8561415945,0.3666438818,0.3292652445,-0.1604729939,0.2790354196,-0.4743502662,0.6332677357,-0.1554497367,0.2085188621,-0.0183403116,1.5035815264,0.9803442918,0.9644259418,-0.5512420223,0.9346687436,-0.0524775867,-0.4623811239,-0.2963437871,0.0979377122,-0.2501211773,-0.7985775479,-0.7884403789,-0.3981979859,1.203833411,-0.285939724,0.9232224652,0.5127515886,0.3826393357,-0.2162602496,-0.3757620015,0.5410108395,-0.9446868853,-0.6043771726,-0.8162749554,0.158086247,-0.7006728339,-0.7162543477,-0.9545133177,1.3206902941,0.6631341689,0.2014548705,-1.0368091972,0.4243335239,0.3921314016,-0.4423684991,-0.2683073639,-0.9536365766,0.2730462676,-0.2979189617,0.6678751664,-0.6953421146,0.0315174237,0.6997239809,0.4080589809,0.9876933136,-0.8801088713,0.4770021348,-0.4492588302,0.7717736317,0.2908361738,0.7737932916,0.4492448105,-0.1496751118,-0.091482166,0.1445968785,-0.6207554373,-0.9642520315,0.8317080763,-1.1421440369,-0.1693676875,-0.3292777115,0.8777601461,0.6486712486,0.8509272155,-0.0254600068,0.7613624378,-0.7036128137,-0.4195813434,0.6159747971,0.955699606,-0.9042278902,-0.5705587686,-0.3993835252,1.2869806292,-0.2210195114,0.002785027,0.5225865752,-0.2416988763,0.1197338784,-0.5057194382,-0.3565993217,0.4113250925,0.0826595808,-0.123380991,0.7473241424,0.3935463281,1.0756735216,1.1777972366,-0.3090127697,0.0911764014,0.65925813,0.1449481398,0.6609161375,-0.1692950683,0.3374041061,-0.0977558687,-0.1563577938,0.6399209766,-1.1155446803,-0.9124054265,-0.433816279,0.5835930482,0.595355976,-0.2071529093,-0.9166038602,0.094642379,0.8935422112,0.4493758507,-1.3711847293,-0.2313125072,-0.0288816007,-0.3972306055,-0.4542581369,-0.4913372037,0.7263758404,1.1623826163,0.3573725473,-0.799995341,0.0409995609,-0.6442279846,-0.2719023507,-0.73125935,-0.8777852123,-0.0985067491,0.5708002969,-0.2028128677,-0.9308075769,-0.6784511487,-0.4424699978,-0.5381806178,0.2309709685,0.0304216249,0.9901162968,-0.0517650815,0.9544155307,-0.4214896122,-0.132406528,-0.8434220361,-0.0670099705,-0.8584696428,-0.5627388024,-0.0003053136,-0.4355171683,0.0843737677,0.4898924262,-0.3727096155,0.6825505396,0.527730492,0.2769119087,0.2292894861,-0.0343165472,-0.4962284701,-0.8643917352,-0.8282852465,-0.4806153732,-0.339575143,0.8235432689,-0.1867663833,-0.0361457341,-0.9759458854,0.118812014,-0.7312140351,0.5226659446,-0.4683512714,0.100718037,0.0385136484,0.1618286204,0.8863222842,-0.5735348013,-0.4144979471,-0.4112294188,-0.0830976371,-0.6972240182,-1.1107751738,0.7683458764,1.0702397996,-0.2048847065,0.3008099058,-0.625050555,-0.6458836518,-0.6204603051,0.2406578366,-0.6840847719,-1.1095188872,-0.6450312715,-0.3771602328,-0.5500358184,-0.1690873508,-0.3064665009,0.3437744888,0.2177537605,-0.6876549053,0.5842822551,0.017028858,0.8023868534,0.3474215666,-0.1837486542,0.0214675444,0.3890094436,0.1021159131,-0.0785858147,-0.3966727679,0.5192429844,0.4319361609,0.8066614008,0.9140829818,-0.019372786,-0.051774381,-0.9091697486,-0.7985460126,0.1840310806,0.6227204172,0.2943155687,0.4957022121,-0.8303494201,-0.0806572287,0.3900177939,0.4918443473,-0.626854536,0.3891328918,-0.3828196832,-0.5773555666,-0.1901117467,-0.1338785287,0.8920860783,0.1973043659,0.0337495925,-0.4998593273,-0.0514253143,0.603035416,-0.8136947399,0.4621381539,-0.8676708185,-0.9505896934,-0.196731312,0.8177895731,-0.24566035,-0.0446823387,-0.3005321279,-0.8612349531,0.1643245137,0.3828577439,-0.498358508,-0.2081786867,-0.2871375142,-0.2827820066,0.8423527829,-0.7717378405,-0.1807282783,-0.4218432279,-0.6934967666,0.9725781652,0.1479372882,0.8197926858,-0.7975370541,0.5921243822,-0.6509557776,-0.3764082281,0.9567651819,0.2359160528,1.4973605628,0.1621911481,-0.5649970848,-0.7812771824,-0.1541141228,0.8404064092,-0.3408208561,-0.1870602226,-0.5298548365,-0.8330829615,-0.0411756287,-0.2777271687,-0.7639262805,0.9129523367,0.4869996508,-0.3127058854,0.8938468035,-0.479516493,0.4793723907,0.0243556787,0.6295157307,0.0452642469,0.7660664244,-0.5982304496,-0.0066586129,0.2137129865,-0.0190928152,-0.6639264863,0.2930811327,-0.4650416274,-0.3029287048,-1.0028191744,-0.664657511,-1.1254806747,0.7179196829,0.4352996644,0.1723304574,-0.1747871638,-0.0572278214,-0.7130767878,0.3199661409,0.7588663513,0.6224421951,0.8942019769,-0.9392144655,-0.5930640082,0.8471580767,-0.9974849124,-0.7820385798,2.8001845838,0.4649938053,-0.3482628321,-0.091684541,0.1279377908,-0.3852484567,0.3478629259,-0.6551322553,0.2118922192,0.4902524454,-1.0284872629,-0.9829700264,0.5031125217,0.1211579202,1.3995964321,0.1251151473,0.3844887526,-0.6362794188,0.0753937095,0.6209712003,-1.3610263265,0.3373438165,0.2033398373,0.3364062459,0.5250207864,0.4420769596,0.8523848222,-0.6536514012,-0.0380475281,0.4327517219,0.1451763103,-0.1690914032,-0.4959766357,-0.1751086032,0.6692345746,-0.0201975442,0.0187329458,0.3969288393,-0.3292914024,-0.201601837,0.7772036983,-0.4885926658,-0.6860918241,0.9401130191,-1.4545093042,1.1277585035,1.2712955868,-0.8147857572,0.9214969096,-0.0151086196,0.591621422,0.0276481747,0.7529684598,0.3336777698,0.5751281893,0.8615428731,0.5365806289,0.2329798613,0.9158178054,-0.3138762433,-0.3476274735,-0.7587385017,-0.4052851153,-0.8220168598,0.8597425363,-0.536824185,-0.7970461621,-0.2010668481,-0.178100348,-0.5199562313,0.7452361298,0.8517421963,-0.2878191426,0.7556525947,-1.1677896903,-0.8827207298,-0.1730559948,-0.1818074491,0.9363698684,-0.2170779838,0.4778885195,-0.1194750519,0.4541657457,0.7192498434,0.4336032214,0.9278775539,1.5009085446,-0.0015936138,-0.7826097853,-0.8649310628,-0.3832976795,0.4518636931,-0.1633322611,0.8945417615,-0.0887552765,0.1321426852,-0.2233868397,-0.1671191652,-0.0127217654,0.3685919224,-0.5061938161,0.8450272387,-0.5122941816,-0.0885083759,-0.1684360998,0.6739433455,-0.9956426354,-0.136077283,0.4283053645,0.6626942614,0.2487877652,-0.6056775897,-0.6048677684,0.7195526248,0.8312710628,-0.3545446033,0.4382550549,0.0907040093,-1.3371247396,-0.4140082288,-0.3016625132,-0.2113370805,0.3836788638,0.7972905159,-0.6587863932,0.9388582016,-0.1704485353,-0.0006599567,-0.3002496288,-0.0864437803,-0.608465,0.749810397,-0.6639981934,-0.6382104004,-0.9749635786,-0.3281031012,0.0113353193,-0.9242095787,-0.4501463487,-0.059382983,-0.7360631242,2.1739059413,-0.9615632526,0.5618354648,-0.3411986821,-0.2607675628,0.8139590189,0.3174009847,0.5800851076,-0.4246517253,-0.6771175284,0.2874432905,-0.38833636,-0.9676782951,-0.5348323853,-0.7324297282,0.60625507,1.2933148176,0.8761765576,-0.5516657893,-1.2789904025,-1.2542058578,0.020429031,-0.1904621815,0.5765964998,-1.1196047758,-0.5397528113,-0.0257680414,0.6923152198,-0.3346984023,-0.581369043,-0.4527287824,0.5123308025,0.3386203425,-0.585471677,0.7241071033,0.0659028949,0.1900949217,-0.7151599398,2.2285826333,0.3315837271,0.462551501,-0.1796581824,-0.094286992,0.2493390375,0.4447182081,0.7269675098,0.8766205705,-0.4067516366,-1.0308942707,-0.3857693898,0.6291553911,0.86210457,-0.6452381308,0.2159010097,0.8969361311,-0.7021600331,0.1928522367,0.7039306051,0.0668408228,-0.972369647,-0.6214254345,0.847939681,0.5189782238,0.7916553045,0.2998339499,-0.1414276909,-0.5636344398,0.5702550189,0.5695548169,-1.2267578881,0.9175441776,0.1897115308,0.7279751598,0.145364396,-0.135007008,-0.8093701349,0.3558934787,-0.1332754225,-0.1100272284,-0.2551621263,0.373320393,-0.1105642545,0.9762247763,0.3989862094,0.0615380221,-0.2580845933,-0.2213527805,-0.4386012398,0.1310437832,0.1331413834,0.3097629936,-0.6945984863,0.4023807856,0.689107815,-0.0310584035,0.3828686105,-0.3013872113,-0.1508826408,-0.0436322498,-0.5001454571,-0.5772677437,-0.9473197,-1.0772355403,-0.2614238628,0.5005227865,0.0766622886,-0.1826751456,-0.5669565602,0.7139820378,0.4410439604,-0.2396370861,0.9711875175,0.2568431799,0.0397003933,0.608722943,-0.4697607378,-0.5256994642,0.9714678399,0.4620223234,-0.0042042727,-0.2183456774,-0.2617322489,-0.2254040351,-0.3562166333,-0.8663074767,-0.3329764674,0.1601319892,0.1378543215,-0.3509360397,-0.1011288487,-0.0593981115,-1.0789485637,0.3518109677,0.269181977,-0.4358344603,-0.7089204891,-0.554554379,-0.4369345009,0.3249302886,-0.0750850165,0.2763776205,1.1633962765,0.9401910391,0.57149122,0.5395747296,-0.362523914,-0.4533704065,-0.6978406788,-0.43053301,0.4394479269,0.6794552207,-0.4441147852,-0.6474048682,-0.8655643428,0.7412482343,0.7741731455,0.126367808,1.0476949885,-0.2907460587,0.400236152,-0.5211445066,-0.8577387372,0.6841520936,-0.0824125026,-1.107404612,0.6072956751,0.7016131714,-0.6914973024,0.056607016,0.9546241764,-0.3252694077,-0.5883592925,-0.2190990038,0.7172311435,0.6568469506,0.8918861672,-0.0552611631,0.8948241547,-0.4201147568,-0.0274046579,-0.4447015667,-0.1009711455,0.4063135503,0.1319238001,-0.0954037001,-0.1656524454,0.5002838919,-0.0156240356,-0.8231339706,-0.7124646963,-0.27991461,0.3713877303,-0.1810076335,0.4839595309,-0.059699751,-0.1010005291,0.0867597664,-0.5737195421,0.2560401933,-0.3305421538,-0.937334159,-0.8402489984,0.2063944551,-0.0656053893,-0.531668599,0.3397805215,0.7760093235,-0.7288942655,0.2314239368,-0.2383378996,-0.828318605,0.9738681313,-0.3778387957,0.4983611385,-0.786806702,-0.7752931019,-0.1724946667,-0.0912049471,0.7730168096,0.9079978562,-0.3856415218,0.6918248093,0.7453185114,-0.447967539,0.1003980037,-0.302830701,0.9478249318,-0.9023634422,0.5387894124,0.7202105473,1.3249814177,0.4574201235,-0.9120664554,0.9061879855,-0.5757968006,-0.8144097482,-0.2664164106,-0.5831878497,-0.0193467409,-0.5940013425,0.4058478918,-0.0602543766,-0.5185924369,1.469618217,0.1944398921,0.6446695403,-0.766642043,-0.0563092289,-0.4676133042,-0.6872774418,0.4008439333,0.7189060556,0.155799091,-0.1286657687,1.1495390308,0.3928714489,-0.210675226,0.0661786286,0.1740485597,-0.747748411,0.8173577728,0.4493533434,-0.9346733656,0.9625841171,-0.7566172736,0.1703036591,0.7476169769,-0.2401061009,0.531008668,-0.8941648742,-0.0416647834,-0.0460670492,-0.0622735571,-1.4423112752,-0.9221033555,-0.3633362906,-0.0238262518,0.6299863532,0.1575188318,-0.7652978637,0.4459962306,-0.2531703716,0.57929325,-0.0398242473,0.2431154342,-0.9192699694,0.8264490624,0.9201244207,0.0825198763,0.4991371736,-0.0170351968,-0.1857310055,-0.7763259447,-0.9840488228,0.9664285331,-0.1713979827,-0.6175691503,0.2208588161,0.2616140849,0.0156156097,-0.8460781981,-0.6617972609,-0.9874328229,-0.2258143845,0.9550606945,0.0955466501,-0.377682732,1.1917479823,0.7434912754,-0.0580359474,-0.2626656659,-0.3796148746,-0.107427681,1.5556481324,-0.2629740031,0.3741092099,0.8592375547,0.2958341372,-0.1723196829,-0.253237865,1.4894409063,-0.5986907308,0.6810762157,-0.5834352216,-0.8953162973,-1.0806573449,0.0437772331,0.5987692169,-0.4839211951,-0.910535289,-0.5033914355,-0.0433800525,0.7419241244,0.0014752958,0.5640244609,0.4890172102,-1.8339418593,-0.7002915663,-0.2151848803,-0.0353658904,-0.2275185902,0.3453099725,-0.456231203,0.5971086236,-0.594076733,0.2543813938,-0.3351736626,-0.3757817574,-0.0995853273,0.4541134205,0.9929283077,-0.2822398869,0.8839837806,0.4198111377,0.2165305915,-0.8715095833,-0.3457827666,-0.1144154693,0.324634876,-1.5726306696,-0.6679076057,0.4558059752,-0.0679748626,-0.7833409558,-0.0035192337,0.6017537811,-0.0134898878,0.3371629095,0.7193554232,-0.9372460663,-0.9342691966,-0.540554667,0.8712446608,0.7981611328,-0.4892437599,0.7595673711,0.0784929574,-0.1893630481,-0.7190087594,0.7043735675,0.028129639,-0.5608732404,-0.1898434562,-0.8643055972,0.0096404375,-0.5418716085,-0.8088858284,-0.3132298172,-1.050310517,0.3889818469,0.946144625,0.0302557972,0.4596672999,0.5273272241,-0.6651263583,-0.6831133211
   -0.3953499986,-0.7241849487,-0.4770249097,0.5226919144,0.5429220396,0.2930280468,-0.8387409464,-0.678313192,0.7516091589,0.802434088,-0.6718869477,-0.0860424714,0.5985080457,-0.4056578044,0.2161019503,-0.1603793851,0.4030465246,-0.3130021557,-0.0868611371,-0.8057807568,1.1462264452,-0.7697503973,-0.6483084435,-0.7409716249,0.094134985,-0.4076204236,0.5250304849,0.5160274909,0.0322292773,-0.7083899346,-1.0258905281,-0.1427690748,0.2568486041,1.0794707398,-0.6021462367,0.8285940297,0.2766145555,1.1573418023,1.2967222805,1.0294008931,0.0034989693,-1.0632884563,0.2313632289,0.1232408697,-0.1400612053,0.2282346507,0.9056426082,-0.9022584076,0.8852122451,-0.4627616423,0.2951121122,1.2067623318,0.0277372811,0.5639382749,-0.9812934701,0.7263349456,0.2135226154,-0.6048227041,-0.5407137213,-1.7775587756,0.5662780106,0.7367418028,-0.4876427357,0.5518273184,0.1659745192,-0.8335261066,0.1273020505,-0.6502063181,0.5739482654,-0.5915372985,0.1623333138,-0.3573273578,0.0835122593,-0.6557792713,-0.3645830487,-0.5728636725,0.1974432957,-0.8808814162,-1.2379248664,-0.4735702963,-0.7927813883,-0.9375607733,0.2090457366,-0.5582296751,0.0350319434,0.0341975122,-0.6292622408,0.7088843487,0.9472026956,-2.0712742258,-0.5443626217,-0.6195066897,-0.8739039105,-0.0962620686,0.6009296545,-0.6697751299,-0.1892722817,-1.2859629027,-0.465772368,1.173219048,0.4985568777,0.6309754751,-0.7958095594,-0.7389895896,0.1280002675,0.8626302726,-0.8368921676,1.5745536898,-0.9120873969,-1.4674580697,-0.7132460367,0.2132463923,-0.0075127208,0.2660205032,-3.2749715302,-0.2779526309,0.2410501867,-0.6716212031,-0.5700722414,1.7759126138,-0.4341830595,-0.4380237647,0.8722652541,-0.6738407887,0.3943460304,0.2315773296,0.7721324165,-0.8004081306,1.0301536749,1.2856092525,-0.2631503348,0.9768520182,-0.8726043514,-0.9883313515,-0.552640256,-0.5573622648,0.9161600817,-0.3808069029,1.1666321604,0.8512336541,-0.664845398,0.7356178464,-0.4242192046,1.6568776558,-0.1426327688,-0.5622122178,-0.235261007,-0.3110596218,0.8498292284,-0.7880411357,0.5538613962,-0.6305149727,-0.7701853854,1.027912706,0.215554686,-0.4016235975,-0.6156126572,0.1584080428,0.8677005419,-0.0561797737,0.7144051883,-0.4622780313,2.2845627076,0.989983909,-0.7533614836,0.334241133,0.0601338097,-0.7315623664,0.7590089217,-1.060666946,-2.6191475153,0.9672244152,2.8832361691,0.722181789,0.8962647496,-1.5281589283,-0.6129310608,0.8737413689,0.2265615994,1.4055553818,0.0204245888,-0.7045428378,0.3468964633,-0.9805569112,-1.126531067,-0.7937238416,-0.8104862725,-0.3566153951,-0.3653452013,1.8382811458,-0.7198454091,0.6762512117,-0.9189091381,1.0043745144,-1.1141843312,0.6218647295,-0.1483297114,0.8425454791,-2.2220519297,1.0126764634,0.4279740831,0.2524004258,0.6640359535,-0.2517884739,-0.0903315531,-0.0225212307,-0.5007896379,0.3883854616,-0.8759102941,0.7701798042,-0.6009958838,-1.0066142084,-0.7609386946,-0.715537129,0.6269013586,-0.1797899586,-0.348439704,0.9514843621,0.8882255689,-0.6978918976,0.5625685602,0.5413390219,-1.2296578258,0.2438860048,0.0780776406,-0.5790352015,0.9531613689,-0.0910219691,-0.5353823316,-0.6501266152,-0.9294514912,0.7006113253,-0.2895577936,0.3077362303,-0.053029175,0.8945086938,-0.2874666189,-0.2507398607,-0.2450338534,0.8149830724,-0.4027599146,-0.2422920979,-0.7170980082,-0.8971866401,-0.9169376691,0.1897375094,-0.1432912576,-0.0132722752,-0.0001882135,0.4344180285,0.2879144893,0.3238062343,0.4897955821,0.2061567179,-0.496565613,-0.855223771,-0.1941271455,-0.872981806,-0.4987237967,0.687841686,1.4440666513,0.0511190361,-0.5959989216,0.5307672057,0.7141101545,0.7112153748,0.6107288545,0.2340546831,0.8290269951,-0.8864212951,-0.6912402222,-0.2678359095,-0.3872197553,0.7539821943,-0.4442678224,0.3263023361,-0.4863756525,0.6781177633,0.7421923299,0.7397856231,-0.5781568684,-0.0177648078,-0.3494459035,0.3964321582,-0.9958759661,-0.8710919103,-0.8186595974,-0.5924165519,0.0574380538,0.1420807685,-0.4738673477,0.125727159,0.7286395342,-0.644856229,0.5814784263,0.0947087349,-0.1333220948,-0.1005748934,0.9400539347,0.165774831,0.8544335954,-0.6407770837,-0.7214771977,0.8208219109,0.0848463428,-0.7303395379,0.2102680641,0.9654630289,0.1913867406,-0.2519915829,0.2265137858,-0.0698067648,0.0412137029,-0.1435658851,0.6933130748,0.6617974571,-0.4147564843,-0.4095504133,-0.2608244171,0.7360492362,0.6584900207,-0.5493514306,-0.1539321704,0.4861472751,-0.4840627494,0.6836122139,0.638528497,-0.027172841,0.5352465911,0.1210650398,-0.2120802385,-0.3591214115,0.0409322419,0.537624,-0.0157721491,-0.9190644536,-0.6840534278,0.9678214766,0.9164770775,0.8427524325,-0.0995239442,-0.4647966506,-0.1149136469,-0.1393783368,-0.2840697345,0.3836001653,-0.5398666072,-0.7641126708,-0.2773341186,0.6820115622,-0.2993798951,0.8320307602,-0.6832189244,-0.7967527741,0.7186885563,0.7347611277,-0.5921006836,-0.3013765319,-0.038081787,-0.7207036982,0.9387254607,0.8157219769,-0.9536312706,0.1337278213,0.1838306871,-0.8819417376,-0.6924372784,-0.1184843001,0.3199601156,-0.1526476041,0.1453016387,-0.3712531702,0.5603131972,0.3402244718,-0.7618814467,0.3333977565,0.1682403507,0.9647353218,0.3119024569,-0.1833874076,0.3295463884,0.4291741177,0.8271940397,0.1192401761,-0.7491522119,-0.4262632448,0.1938951283,0.2114950086,0.2554145124,0.9505935177,-0.8056414494,0.6272476168,0.0636946735,0.6621811413,0.6236504043,-0.7471848559,-0.025119394,-0.7737902703,0.3179831211,0.5349880839,-0.1460982467,-1.150863991,0.9269562686,-0.4306281775,0.1001886814,-0.1017098406,0.750592538,-0.0046997883,-0.4696658258,0.994546815,-0.9237857466,0.5142136542,-0.7960463558,1.0268822479,0.2793830745,-0.0271625788,0.5154172781,0.8610017141,-0.2959470816,-0.4531728533,-0.0809354485,0.1028866223,-0.8024757415,0.7237947723,0.8384312197,0.8734385826,-0.1320536258,-0.8137063563,-0.0582627339,0.2833856074,0.6116470242,-1.0050103156,-0.7648460636,0.8594226503,-0.0232827234,-0.1473332272,0.3059570699,-0.0571655319,-0.2920616245,0.581706274,0.3084648816,0.2382211171,-0.9381969108,0.4723734781,-0.0228413838,-0.4444217207,0.1199872329,0.5815153794,0.6918344873,0.5564328124,-0.6622115048,-0.6559201223,-0.2053743,0.2672537848,-0.2413839509,-0.471299668,-0.6080274642,-0.5164260114,-1.0798452169,-0.6010061828,0.1964393974,0.4170867042,0.3805494056,-0.5508590626,-0.0063188548,0.8922283676,-0.2686762373,1.1059351951,0.8714735695,0.0695785937,0.3436750444,-0.0387777268,0.6520665046,0.5901536004,0.2730517179,0.1079268892,-0.4074156864,-0.2240775162,0.1557799541,0.2450237338,0.3412540049,0.121245718,0.6754577654,0.0014214063,-0.0874359076,-0.4643783458,-0.5547677276,-0.1016999299,-0.298987018,-0.9777297266,0.4950976462,0.4263403239,-0.9458887181,0.7081515812,0.5848571027,-0.8822382528,0.2719933235,-0.8404041059,-0.0815730891,0.0111287574,0.2907323281,0.984814924,0.5383357878,0.053919816,0.4008287565,-0.8091533731,-0.086802384,-0.5749530941,-1.0175512586,0.4306739938,0.2788801862,-0.7414590951,0.3034335324,0.8674930183,-0.7028404661,-0.4408370487,0.4497295351,0.8780787681,-0.1889454968,-0.1668440332,-0.7790187646,0.7347159669,-0.1412097158,0.3505686788,0.7913749172,0.8986113169,-1.1309749502,0.1824537307,-0.7355269485,0.6735134631,0.329636636,-0.1616816719,-0.713081693,0.0484376379,0.12892196,0.0244588788,-0.7284041552,0.0706211496,-0.3790166603,0.1609498861,-0.0224310144,0.5079226177,2.2089720162,0.9807263722,0.3005861424,0.0602002392,0.8127980731,-0.3162963393,0.5835350447,0.5932645529,0.223643206,-0.5391483596,0.2637756508,0.418882755,2.1263726405,1.2200413863,0.1177189371,-0.2499763727,0.7890731546,-0.1733239144,0.7133907234,0.5773599826,0.8036011408,-0.8887830281,-0.4753713743,0.1871244657,-0.5283153925,-1.7796366155,0.2293085993,-0.6659649596,-0.5428357822,-0.4498045487,0.1909477775,1.1657729283,-0.4766732419,-0.4973457194,0.0642321079,-0.0717551236,0.0825819357,-0.7891130315,-0.6160445489,0.5360398329,-0.5746574673,0.0708360265,-0.360151774,-1.022553419,-0.4282748324,0.4910336928,-0.7353397073,-0.2801907917,0.677331983,0.8379197942,-0.8675239374,-0.3523728774,-0.5216289274,-0.0763428011,0.6439478389,-1.1769860199,0.0143397059,-0.7421397925,-0.2429422187,0.9080162766,-0.4161695255,-0.3678943736,-0.1426446254,0.8092422214,-0.3629133341,0.7601754599,-0.0185400779,-0.1620694429,-0.4744656747,-0.7117769184,1.1272107224,-0.012998767,0.1932061234,-0.0655813517,0.6476493756,-0.0456941683,0.4031486664,-0.3448307425,1.0840303668,0.0354422801,0.1600523324,-1.0995457633,-0.9553454592,-0.0734936829,0.2344376034,-0.5599122852,-0.4312274943,-0.7262642975,0.052735306,-1.0871769375,-0.0584696503,-0.3138845935,0.2523208189,-0.8083811112,0.0403135817,-0.180469199,-0.2781961464,0.6823312248,0.9122181319,0.339322267,0.6654430324,-0.1999817984,-0.0885156477,0.8738997084,0.6149500033,-0.0331883476,-1.3097664588,0.1956244825,0.8519717425,-0.6973387766,-0.2802843818,-0.7497436629,-0.1620639458,0.5879034047,0.7913845356,-0.4404339038,-0.6159044201,-0.1743402992,-0.1101015281,0.9072533971,-0.7691120099,0.8321677007,-0.5596933961,0.3407078716,-0.0033758551,0.142781836,0.3879225162,-0.2440178855,-0.1976750603,0.7402917772,0.1944952133,0.8957335015,-0.5742585005,-0.2493544918,0.4585423019,-0.5106116364,0.4171380246,0.9021694353,-0.2049693595,0.678183085,-0.1225704774,0.2069184533,-0.0358468598,0.5713248131,-0.6484651819,-0.7882852235,0.8640275094,-0.2364772078,-0.1260094873,1.4641399689,0.5752301286,0.9396625158,0.4110825677,0.4553076638,0.0400098325,-0.5708839107,0.8886756471,-0.0939362301,-0.8087380897,0.1192871819,0.0953537062,0.6120524536,-0.5455280624,-0.9588253268,-0.632626217,0.3135553921,0.5862398277,0.5693419042,1.2636606489,-0.3407938459,-0.8268152462,-0.859491436,-0.2927194372,0.1738484811,-0.8036561075,-0.6083602364,0.1989177424,0.407218176,-0.589747542,-0.0812738512,-0.0992725101,0.3856912355,0.2645642836,-0.3770133673,-0.6403546458,0.3465755911,-0.2047166131,-0.9445723439,0.4558998814,-0.1035734014,0.0265860236,1.4950805823,-0.640706354,0.0835307009,-1.2920026977,0.5987084127,0.1472574276,-0.4187594858,0.93733472,1.2623356639,-0.4645072086,-0.7835432702,0.1555460293,0.2680171289,-0.9098422708,0.1508028779,-0.597499999,-0.0940506683,-0.3104113168,-0.0235422939,0.1303018705,0.133828138,-0.6332918333,0.3641331322,0.2606047997,0.3614431611,-0.7068503307,-1.1055413599,0.2301809722,-0.0321651927,-0.0342829348,0.1323327281,-0.3733527723,-0.8548057161,-1.1332322465,0.51394489,0.0543728661,-0.8370420697,-0.3706140671,-0.1324010656,-1.1145191364,0.0397270079,-0.1389161987,0.4175057422,0.0381910475,0.3905370034,-0.4366203331,0.9059478292,0.0747639451,-0.9648457834,0.492946454,0.738888649,-0.7799234812,-0.8093130434,-0.8567384472,-0.1297859101,-1.0882013492,-0.6405276467,-0.8730131302,-0.6888880998,0.8943502665,0.8889662132,-0.6107197234,-0.5667998584,-0.7617742664,-0.5343800101,-0.5216072038,0.7149468278,0.5542976904,-1.1756836126,0.2720449781,-0.1236897766,0.9133233025,1.1857424443,-0.8437920983,0.3660380713,-0.0566779848,0.1883292875,0.7033568714,0.5930726007,-0.0485555336,0.9082745931,-0.1057496258,-0.3541186916,0.2425835345,0.1004022155,0.0643207125,0.2112734931,-0.6079844764,-0.715491211,0.0538251796,0.0961595064,-0.5879452799,0.2216086679,-0.6786157649,-0.5482029332,0.182524147,0.6109319599,-0.3465264038,-0.0902693673,0.7529251864,-0.0899624287,0.8835497561,0.4287336062,0.9503646312,0.2770559471,-0.4586499401,0.2424301653,-0.2179711212,0.7531322928,0.547349401,0.9813992309,-0.0851426605,-0.5278865673,-0.5215883131,-0.9057634996,0.6981395858,0.673268935,-0.7743719711,0.8558282422,0.6918236255,0.0905875279,0.5952816663,-0.120085107,-1.0076231323,0.222571871,-0.0754794903,1.4851223728,0.3830844213,-0.0440100426,0.8075866866,-0.9860682748,0.3069877315,-0.4872725742,-0.1804050616,0.0455247521,0.2373887843,0.2711962,-0.4961104411,0.2641253226,1.0243309247,-0.3604453285,0.4992278517,-0.5192455888,-0.0280665838,-0.8494704933,-0.0028057796,0.5023720422,-0.4818166523,0.5615527932,0.3260790633,1.2396042203,0.0645900047,0.4581845659,-0.7003345977,-0.1704040242,0.881024068,0.0966973474,-0.3352455359,0.0027848973,0.7326363909,-0.5815129329,-0.4760004443,-2.0007927409,-0.3109436431,-0.191640001,-0.9320722615,1.1892750596,0.3203326679,0.6623971042,-0.0366694354,-0.6917427278,-0.4740111287,-0.3141248158,-0.2753390919,-0.6432005261,0.3078065215,-0.1468399166,-0.9511218859,-0.4139319142,0.3186148576,0.0795415528,0.5995555891,0.4319626774,1.6927559519,0.6809222141,-0.4639700676,-0.409615517,0.3317701401,-0.0398340032,-0.2481795758,-0.5786633821,-0.7756610934,-0.5183778965,-0.3174295538,0.7228137195,-0.6226482076,-0.7305029499,-1.6822556659,-0.7023743889,-0.0064845546,0.0785433628,-0.602423128,0.6256807678,-0.6015638895,0.7973508062,-0.1775522545,-0.4680408869,-0.7913840439,0.0982360956,0.1268592719,0.3972623433,0.6828436814,0.3249661835,-1.4459382873,-0.5460681527,0.2374623029,-0.9534957474,-0.6574308989,0.6443939967,0.4231653731,-0.2385500255,-0.99469639,-0.6258549567,-0.5529805679,-0.6199319546,-0.6202681773,-0.3966253739,-0.3925026802,0.5734913547,-0.5769790399,-0.3903232219,0.2668840306,-0.6866469206,-0.4233255465,0.7962967482,-0.2710320106,-0.1779020957,-0.0733983825,0.055345383,0.4069867299,-0.4784856343,0.8866101029,0.9334147234,0.5123795734,0.3643078774,0.2120614727,-0.356651955,0.0449769473,0.6157396557,0.4121059388,-0.7519275858,-0.0762340186,0.1279907434,-0.4582651944,-0.2071688324,-0.2468927342,-0.9491372453,-0.7919998609,-0.8282212852,-0.7784262987,-0.3636543763,-0.7885571239,0.6877858195,0.3027126901,-0.8833574865,0.4770945848,0.2392814776,-0.0091636526,0.8511828046,-0.4576327777,-0.8551721379,-0.6090648125,0.9306079387,0.6443309673,-0.7035083424,-0.4539816969,0.6148788853,1.3507128948,0.0842876487,0.7502416855,0.6086101094,-0.6239276151,0.6408328969,0.1562152797,-0.9542891205,1.0694755341,-0.0920989608,-1.0215207348,0.4391063622,-0.4236267182,-0.8620142559,-0.1752900706,-0.5727487142,-0.7002851374,-0.8372230896,-0.3714557232,0.5837286566,-0.0054148079,0.1397460367,1.3055048182,0.9425528727,-1.0084051899,0.2137379898,-0.7317358713,-0.2646800429,-0.0095000359,0.028395889,0.3884066602,0.4722583217,-0.6517123747,-0.6082966341,-1.0641880526,-0.0544593097,0.8155294312,0.1544891306,0.4259026217,0.3992712921,0.3519618922,0.7262090802,0.9945188072,0.8618873161,-0.5193385159,-0.4041047774,-0.9231751318,0.5705714997,-0.4558556413,-0.5992001419,-0.0284284731,0.559842666,-0.4292609851,-0.341941882,-0.6271148757,0.4009943429,0.1913316252,0.5435100206,-0.2707928291,0.0861208239,0.6007914732,0.2318242331,-0.0130103908,-0.5047370822,-0.8825889726,0.117232013,-0.2379210037,-0.4168876246,0.1091953891,0.2238277304,0.0353069805,-0.6984263454,-0.7462910261,-0.0642505391,0.5312077253,-0.2217654814,-0.1740343341,0.0167939831,0.993931555,0.2255834714,-0.5521937367,-0.7168049996,-1.521411257,-0.0233277664,0.822714058,-0.5494848906,-0.7121691938,-1.1494011857,0.535275174,-0.1290782091,0.5609446698,-0.192231335,0.0216219473,-1.4595972017,-0.1510407163,-0.6676432281,-1.7101291139,0.358426126,-0.7471069831,-0.41338262,0.3878207227,0.792476299,-0.1496294554,0.0348777125,0.1469592784,-0.1000973365,-0.5500225093,0.029585073,0.4323978365,-0.4568584429,0.319539014,-1.7831360869,-0.3333972937,0.2964591208,-0.5663461634,0.2849631974,-0.9570647164,0.6187969604,-1.1459214891,0.9254146473,-0.8630173733,-0.4515651685,-0.442696531,-0.1515250684,-0.8159565352,-0.6973084656,0.4167302934,-0.2299184339,-0.4912755258,-0.5887778955,0.4545338223,-0.8923497736,-0.4708178827,0.1964547601,-0.6139597499,0.4789264406,1.2530047623,-0.7024156956,-0.9423054241,0.2559152748,0.2594181725,-0.8571988363,1.0590849451,-0.8173805754,-0.0155555276,-0.7822183611,0.5727288977,-0.4637773597,-0.1458288789,0.6824834805,0.2562878489,-0.0601728523,0.3311634246,-0.706139649,0.6766815708,0.9970002235,-1.3941099801,-0.8026993142,-0.607872423,0.5599066314,-0.8917421035,-0.7661832876,0.7249116685,-0.3483101598,-0.1022590647,0.6754623218,0.2238270529,-0.72097205,0.1462653683,-0.6702893826,0.8890240983,0.059175362,-0.9653752375,-0.5357567913,-0.618208618,0.2769935744,-0.379359364,-0.198247108,0.9413483351,0.3773275398,-0.4113446754,0.6775116102,0.0409091291,1.1206943247,-0.7973768265,-1.2323217732,0.7556350749,0.5575213382,-0.7843539237,1.2891063617,0.7912178345,-0.0070915814,-0.0688629717,-0.09911537,0.5488085747,0.3033299323,0.2492414246,0.5897928239,-0.6208692983,-0.2089731737,-0.5453598506,0.6371411452,0.1556942678,-0.4200135029,1.9250183343,0.6728864811,-0.3126385319,0.7488171661,-0.5960296296,0.8225821139,-1.147994189,0.0830456655,0.6354964854,0.1127250724,-0.308389364,0.094743794,3.7154197286,-0.3418715755,1.6376516905,0.5139441351,0.2266843756,-0.7496738495,0.9716993911,0.0171318795,-0.007265931,0.9364423982,0.9518691873,0.9211872519,-0.225365924,0.2038249208,0.9407993919,-0.2097498209,-0.1914484172,-0.1860009984,0.1112942422,-0.3508218834,-0.6631730301,0.6407593633,0.8784617266,0.1134365231,-0.8402900272,-0.9607991343,0.5376314709,-0.6247634471,-0.8194123704,-0.4806945127,-0.3245494799,0.0608287759,-0.5671319219,0.6966608541,0.991400026,0.1277625253,-0.510782914,-0.5505011257,0.697382105,0.4144437911,0.1203988284,-0.5397814345,-0.0809398878,-0.2120214006,0.1814729915,0.4428418951,-0.5824633284,0.3112346425,0.46544953,0.3808482172,-0.8980393848,-0.8938222559,0.2633701353,-0.5116356862,0.4760619736,0.6967717267,-0.0436714475,-0.619324377,0.077692244,-0.7830072022,-0.29506815,-0.8773136356,-0.5934473725,0.9985001405,-0.1232002561,-0.9336261131,-0.7102512067,-0.1598423411,-0.9603744515,0.4562968187,-0.141589584,0.1430336759,0.2470780081,0.7170153209,0.4736232675,0.0916894909,-0.2532309099,-0.0310314386,-0.6616578079,0.4269837011,0.0129530416,-0.6173412208,-0.8233537917,0.0180881907,-0.1801617877,0.1147412855,-0.783803893,0.556594376,1.118051152,-0.7191010695,-0.2521434517,-0.19784021,0.1869437298,0.2278674937,-0.0429867897,0.5610616612,0.661658498,-0.6252581382,-0.8335262013,-0.7402735723,0.6519256325,0.1867331803,0.3204140097,-0.2061642718,-0.861574467,-0.6695783924,-0.600541875,0.7212884334,-0.4985274882,-1.0076358854,-0.5305059088,0.3552741549,-0.1696962466,0.1729779784,0.2685699399,0.527392734,0.518449454,-0.8696277137,-0.2180331827,0.5761079564,0.2844636386,0.5770758258,0.7977031438,-0.814618989,0.595666191,-1.0623015995,0.435899791,0.7032559375,0.4816333912,-0.914502956,-0.161079859,-0.4859377228,0.5085982948,0.0497213897,-0.6658779328,0.0943012129,0.3739423995,-0.9900850077,-0.7464598432,-0.8649631972,-0.4433495437,-0.5206194765,-1.6274689712,0.2875524737,-0.3849669234,0.2573011664,0.2738197129,0.3416867062,0.2654899242,0.1769585627,0.1827561162,1.0038504569,0.760931005,-0.3473615201,0.5950684125,0.0551798642,-0.1046571522,0.3423073629,-0.9692217511,0.7538772931,0.0459845027,-0.1600719824,0.1890745481,-0.8812000779,-0.1118841083,0.7120383417,-0.1266649119,0.8056269406,0.2529487277,-0.770555325,-0.5270828324,-0.1661066097,-0.1711727388,0.0604759232,-2.2402952984,0.5367036196,-0.1261518322,0.900001721,0.4805402466,-0.3768713754,0.3023106911,-0.3754980775,0.9249721541,-0.1715814631,-0.0297499762,1.6276949803,1.452503157,0.0765658755,-0.4049983808,-0.5454186915,-0.201391288,-0.4731402454,-0.1176170614,-1.4326403948,-0.7013106429,-0.9817813752,-0.6039790039,-0.1248376887,0.3541410521,-0.3697079306,-3.2722524516,0.8432173154,-0.60533852,-0.1286245152,-0.9011947482,-0.1198033735,0.9673767825,-0.4191878336,-0.3708529392,0.7782977879,0.6459316181,-0.0007003316,0.5831886899,-0.7735408008,-0.6039806385,-0.2974099593,-0.3313903532,-1.176395982,1.295996182,-0.0185060973,-0.2447209849,-0.695597082,-0.4177869647,0.2637160913,0.4971268046,1.0638021362,0.0963434119,-1.0191800987,-0.5542070408,0.430865884,0.1767567711,-0.5972830673,0.1532812817,0.718879066,-1.7651279324,0.0184806514,0.9177037808,-0.3132856635,-0.4302704982,0.867243116,-0.529084535,-0.4712048166,0.0858547951,-0.5190530421,0.461804695,0.0833594416,0.0788704522,-0.7058637373,0.0442392378,0.8416434122,0.3617183771,0.3372962568,0.6922331255,0.3561982721,-0.0007242117,-0.3600683235,-0.5479336044,-0.590642006,0.4184957879,-0.264785829,0.6037990351,-0.5167087925,1.2232523593,0.7665745138,-0.6199263511,0.1085084965,1.445475795,0.2406736404,0.8324527823,2.8917802273,0.5941988394,-0.7443836571,-0.5363926764,0.9405117146,-0.7698524248,0.6435187388,0.1090941928,0.4507449538,-0.3799622442,-0.3811179851,0.3110162803,0.1178812554,-0.8464304535,-0.2033193888,-0.0533939937,-0.6407532481,0.4730708583,0.316145717,-0.3798831684,-1.122040502,0.2392519434,-0.3216209246,-0.8144518087,-0.2052935722,2.4718800083,1.7927499449,-0.7202562803,-0.2462070916,-0.7346605901,0.0749409953,0.6555997376,0.8069642676,-0.888699156,-0.5049988458,0.7148697575,0.3648334199,0.5983340907,0.0764346706,-0.1951692215,-0.0247809863,-0.5030592459,-1.378732354,0.8174055206,-0.5680111734,0.5075849603,-0.2633555522,-0.0034229843,-1.1964607594,0.0408949505,-0.1047457735,-0.3102703813,-0.8040949146,0.8912421032,-0.8162922852,-1.2979007624,0.7557131383,0.2073902502,-0.1153756564,-0.3533965862,0.8069006968,-1.0928414289,-0.837463648,-0.8436423091,-0.7725139346,0.4229867255,-1.0358556329,0.1874158084,-0.4010736199,0.1732417248,-0.0816371148,2.3793909012,0.1302473985,-0.8027407299,-0.1582862656,0.9746203146,-0.214141222,0.4095517094,0.6390224611,-1.4157735148,-0.8119600238,-0.8725224221,-0.4818004059,-0.3206088427,0.5342873277,-0.0617988751,-0.6792665164,-0.7783963146,-0.2999477453,0.8109982614,-0.2698880394,-0.8038852171,0.1679588136,0.1639791417,-0.5225429555,-0.5215751535,0.4045792016,0.608924958,-0.2836009691,0.6256095229,1.2125923879,0.9496906925,-1.2658127014,-0.7556023147,0.034192823,-0.4570940444,0.7467521358,-0.0256411359,-0.8438583185,0.5901281796,-0.2625653358,0.7308191384,0.6586954825,0.6955563843,-0.7357937464,0.1045507998,-1.1073304276,-0.3447884667,0.6645302279,0.7443850708,-0.3622621936,-0.7696271154,-0.3343660638,0.9315066051,0.1383131636,0.3372782707,0.4717662523,1.3873813457,0.3016154123,1.0893589857,0.1701204352,0.0931744287,-0.5975619997,0.4804258867,-0.7244418835,0.0081182266,0.1401411288,-0.7038609177,-0.4582977843,1.0819355745,0.4068452718,0.0587641359,-0.2552897591,0.6764198088,-0.7684218949,0.7685850879,0.6688929753,0.0795475737,-0.0828127177,-0.8386859021,-0.4284177934,0.0988169586,-0.4928243134,0.3307737366,-0.1677293336,-2.3941736579,-0.3286931258,0.7560549587,0.1119427338,0.3958935239,0.0641099445,0.363877878,0.9098241846,2.0453310173,0.7601318207,-1.0580460055,0.4872857939,-0.745631237,0.7431754102,0.9166762733,-0.0620879072,0.1978886972,0.6870837968,-0.9735549396,0.5518699058,-0.2379625811,-0.6582473083,0.2805394524,0.7260476623,0.0615383548,0.3955060035,0.1205643597,0.585567976,0.2691739674,0.8063910716,-0.4504687991,0.5381001599,0.8982655801,-0.9143839054,0.0392709397,0.0079940082,0.8668190666,0.5652102187,-0.331237668,-0.5278311951,-0.7920650369,-0.2786884655,0.3398291389,-0.1691706094,0.2095651658,0.4352975525,0.3424776638,-0.4494776213,0.4018098862,-0.0842695378,-0.8145136854,0.1018912569,-0.8011566873,-0.2083375251,-0.1073814299,-0.4312271852,0.8268887257,-0.5120185555,-0.6346676609,-0.062890238,-0.4947196828,-0.8424071995,-0.8936927928,-0.0058593845,-0.4817316154,0.4476627053,-0.6159581944,-0.2417102225,1.0357725318,0.197406117,-0.2497970014,0.2647580689,0.4402947968,-0.5336836331,-0.0141816585,0.1782690533,0.1986484029,0.1335292523,-0.8113091108,-0.3523945112,0.6300930272,0.1861613525,0.0112730958,0.5381187345,0.8328458482,0.360258144,-0.6907025979,-0.6150178009,0.9659909738,-0.0284554034,-0.3099370827,-0.6722398001,-0.1428596648,0.1439507377,-0.4809938927,0.5994252757,0.137515544,-0.9452238739,-1.0516047557,-0.4249143502,0.5002883418,-0.5663243331,-0.0664645792,0.5660246993,-0.0195434004,-0.4081820525,0.3796129505,-0.4073043718,0.4666139566,0.6537954336,0.8722002521,0.5470664781,-0.6677976786,-0.4184126319,-0.0877707063,0.9812166717,0.9210267645,0.5731158412,-0.0662496848,-0.7829248414,-0.9388035093,0.6153995517,0.4124010135,0.278444476,0.7622722675,-0.8114363417,-0.2391940238,0.8051697015,0.2059253735,-0.2205963268,-0.0945616431,1.1823136075,0.6657497142,-0.2122757481,0.7550431763,-0.3877025943,0.6773670105,-0.3385132053,-0.2633261745,0.0748395354,0.3799340574,0.1655591973,0.1646436855,-0.283921217,0.465464918,0.8828762795,0.0601254824,0.4611523925,0.4739525549,-0.4099062502,-0.5335145231,0.1892068866,-0.3456521743,0.882531347,-0.1136839156,0.3055453606,-0.9812418494,-0.5250920215,0.1894264829,0.6881290391,-0.7692160663,0.0346073921,-1.0237572815,-1.6192922866,0.594538069,-0.0370416959,-0.1754744458,0.8218566772,-0.913949173,-0.2124353769,-0.3123562825,-0.1189471786,-0.1585297134,0.0413770884,0.3342832923,-0.6121475333,0.2970074202,0.5540317988,-0.3165414751,0.9410596273,0.7662893019,0.6692563734,0.3630992011,-0.2794434166,0.1722802785,0.6804627005,-0.3250720941,-0.3012425394,-2.1146063243,0.2804183807,0.119802559,-0.4203852549,0.6779865098,-0.7383818848,0.1556999938,-0.7299095382,-0.9292269203,-0.248601408,0.8194964743,-0.9695867764,-1.0296192603,-0.3495177931,0.5212373183,-0.6954581234,-0.8272445886,-0.1673563351,-0.1880941646,-1.0955494207,-0.3480442599,0.0726569485,0.2041410545,0.2951308585,-0.9245596895,-0.4824706527,0.3630653436,-0.5205373918,-0.2426371743,0.0365618715,-0.4857261838,-0.080284539,-0.5817534274,-0.2113049296,0.3440024132,-1.0470779623,-0.4259450932,-1.2234486961,0.1511666402,0.3975848463,0.4223898056,0.3553396215,-0.5885953155,1.1104450165,0.147327206,0.6081126658,0.9261208543,0.3659366998,-0.3364383354,-0.1877165294,0.7106700958,-0.1660487218,-0.9185872345,-0.8410987541,0.0764360516,0.2318380356,-0.2797290311,0.4239827995,-0.787749881,0.5046342415,-0.3843257464,-0.2275388862,-0.3293375447,-0.7937640886,-0.4195155469,-0.4748686739,-0.4286885031,0.316237992,-0.0736475037,0.4654492474,-1.2168501068,-0.5456256934,-0.9130352414,-0.2477720168,0.6301379154,-0.8600530338,0.4303869217,0.6607812119,-0.8791100373,0.6565431153,0.1740692751,-0.4813853504,-0.7208483143,1.2905001704,-0.880960351,0.8008960678,0.779723479,-0.3662415689,-0.9122086644,-1.0656071922,0.7249648299,-0.107844321,0.4126220464,0.1203208163,-0.8384157364,-0.5534363659,-0.0534282632,0.452519121,-0.1921203761,-0.2558137572,0.0277937974,-0.6855193079,-0.0673212452,0.520063114,0.8363629894,0.9733378158,-1.0027347123,0.590355711,0.4251947658,0.8731679025,-0.4909427414,-0.1190294509,0.1909405792,0.0792718043,0.5497895503,0.0850033107,0.5739102814,0.161317291,0.9401031486,0.2023950087,-0.6292497521,-0.0667177877,-0.2127755863,-0.8358482857,0.2883757968,-0.2549818857,0.3624604659,-0.5288083536,-0.5065108109,0.9773563426,1.4202151706,0.7869369117,0.5553030072,0.6314077708,-0.1125040056,0.1929425788,-0.291653323,-0.4212873241,0.0700528678,-0.5883385863,-1.6327361899,0.5284710661,0.8903724846,-0.4178827637,-0.0683861275,-0.6682656316,-0.4691419399,1.2775070528,0.4758646907,1.9250958277,-0.3646747196,-0.3094260895,-0.2796692385,-0.5958249731,0.8879495689,0.0720411899,-0.2348409172,0.1841994569,-0.086360262,0.0557198143,1.399850806,-0.3918131887,-0.7754211254,-0.3548141391,0.1944892615,-0.1443194843,0.1746262876,-1.0691523325,-0.8019068238,0.6893325407,0.1547146179,0.8958512918,0.6415697484,-0.8636446374,-0.7835295922,-1.0948524485,-0.3140805545,0.6683605009,-0.8702211614,-0.2589372263,0.3223880371,-0.5529307302,0.3668746601,0.494340029,0.6585254713,-0.0906531932,-0.5194474195,0.83334075,-0.1649845579,0.5022050953,0.7394447439,0.6680925584,0.5057297744,0.8477017571,0.6139045005,-0.7945211254,0.9707999925,0.9251508589,-0.594989653,-0.682957279,-0.9703763555,0.9360283863,-0.2627427575,0.2205550998,0.0834754599,0.7111202234,-0.9656906165,-0.3123008428,0.1562259412,-1.551957527
